{
	"NeuralNetwork": {
		"preset": "Yosh",
		"Layers": [
			{
				"n_inputs": 16,
				"n_outputs": 64,
				"activation": "Sigmoid",
				"activations": "None",
				"weights": [
					[
						-1.7949495191248281,
						0.4174188179315872,
						0.6371461364701222,
						-0.35613600568002757,
						0.5912405724771151,
						-0.15798643209494168,
						0.9702909863239555,
						-0.8025233801518252,
						-0.6559778542211534,
						0.02138627274037483,
						-0.5864081404649527,
						-0.9674957485848833,
						-0.20104792886420797,
						0.5833081127351264,
						0.46544472321092506,
						0.5056720345145465,
						0.8806424368411541,
						-0.7477175105537521,
						0.07133929470328632,
						-0.1402398316529549,
						-0.701044337948987,
						-1.0614450376573412,
						-1.006461924566426,
						-0.25725183252075284,
						-0.13992436149011545,
						-0.24509101919927911,
						-0.5416358381333315,
						-0.37636750567577726,
						-0.46170864478161117,
						0.2618448984245798,
						0.5377235294447105,
						0.7822140830789279,
						-0.797897520792574,
						0.43922971317961784,
						-0.2754765614531482,
						-0.37477523841830307,
						1.1930740487023497,
						0.7866213471764196,
						0.23107707721537213,
						-0.9367109711545584,
						-0.7511281597693931,
						0.9084559262514965,
						-0.12470729898555173,
						-0.3263323238545433,
						0.266699896761247,
						0.9288701545789789,
						0.028754372051224886,
						0.22112626988154116,
						-1.1486160996633146,
						-0.725176115753518,
						0.18556150349185743,
						-0.10600463690469965,
						1.152389213336618,
						-0.4614240031405678,
						-0.5413928207386092,
						-0.7155937372875406,
						0.8504638415403033,
						-0.18514356406764634,
						-0.5074352247879779,
						-0.5278608297693764,
						-0.3716630710703126,
						0.1539897392375742,
						-0.7120239786424818,
						-0.3414461495488154
					],
					[
						0.11116357915590473,
						0.09810267656017777,
						-0.3621407603581974,
						-0.4006082005668614,
						0.05307241228047488,
						0.831148415462962,
						1.128564860703704,
						0.13778969705293298,
						-0.05733396755059267,
						-0.003370964825355399,
						0.7655156513963988,
						-0.07919640391369431,
						0.05156169544393789,
						-0.26181740394686803,
						0.1790210633054744,
						-0.8460675653691376,
						0.5123016828872076,
						-0.9605936406244074,
						0.7024893670774768,
						-0.02903331576167264,
						0.4623604943365538,
						-0.10063416781516724,
						-0.17032149379272357,
						-0.6659118215722162,
						0.49796485140632796,
						-0.9227635683267773,
						-0.3461384473545793,
						0.465284007572059,
						-0.7278102948602003,
						-0.1775271922498904,
						0.18953312290167634,
						-0.846254525392063,
						0.409727786998751,
						0.32164497436570527,
						-0.19414900556772777,
						1.8881897445955569,
						0.10955526881100044,
						0.05763272818202153,
						-0.1368318053994106,
						0.43917372986425485,
						0.42955101818857977,
						0.20328063460585238,
						-1.6209327505781759,
						0.427826883640561,
						0.8628660903957459,
						0.7858661667969462,
						-1.4693700883524765,
						-0.7016796497666976,
						-0.5442301847954498,
						-0.27250763016749935,
						-0.4491304666706152,
						0.5244441890796366,
						-0.7075109565459536,
						0.3010713016325811,
						-0.13618230440609233,
						-0.5745707602991222,
						0.46323179715564644,
						-0.23109127615537023,
						0.19026239650270185,
						0.5415854084695645,
						-0.6285996416391395,
						-0.7461097950731517,
						0.08506601342874143,
						-0.5627329533445158
					],
					[
						0.41302559369669395,
						-0.412691789285401,
						0.11672900947481399,
						0.6839294695767637,
						-0.2873840348188692,
						1.1443723660848593,
						-0.2819800050198829,
						-1.1185602234065237,
						-0.04894479404233576,
						1.1324503027836104,
						0.2128997965639386,
						-0.6908231342394795,
						0.7323024003147571,
						-0.3593133946938314,
						0.06719553155575414,
						-0.2837130914889153,
						-0.08684765567741484,
						-0.13812196799913992,
						1.2063039136604818,
						-0.022771763585483495,
						-0.5063835185326732,
						-0.21479815274323993,
						1.0690588758108932,
						0.7399429559538906,
						-0.6226179029636845,
						-0.17985276785434837,
						0.047986610106960814,
						0.49709880412043533,
						-0.5307175162720789,
						-0.18889226362843087,
						0.4338182662175656,
						-0.6448321010517292,
						0.7874736255712579,
						-0.6458367914268567,
						-0.6856320352883112,
						-0.15350080141984243,
						-0.6967066087367246,
						0.3780787382326647,
						-0.9973963557207183,
						0.12340011165005926,
						-0.07598713629605608,
						0.34188555975972956,
						0.7326781704049562,
						-0.28514011613771806,
						-0.08138866753703491,
						0.42519993996521077,
						-0.4910695756380846,
						-0.4905335640012747,
						0.6882537828962663,
						-0.806723115850437,
						-0.08191440102243219,
						0.6674867976834921,
						-0.25527283726973815,
						-0.10976596895522166,
						-0.4969659365243708,
						0.15249453965367515,
						0.6392805886129282,
						0.16132421571955283,
						0.2780827512161201,
						0.05463082744213406,
						0.473687386977008,
						0.6948185790485278,
						0.7136162156116054,
						-1.323926084067638
					],
					[
						0.21574004943327305,
						-0.984234476709337,
						0.18352368962952187,
						0.290074744004938,
						-0.2518668529365584,
						0.3639530200971193,
						-0.6065128114075575,
						0.021726993224386627,
						0.5118113859921207,
						0.5650611395112195,
						-0.48150062687581163,
						-0.1606716344471072,
						0.5188394960954616,
						0.4911062173617368,
						0.8726750646498631,
						1.0991658810845493,
						-0.3776162817856461,
						0.5517917985962989,
						-0.5947006208438121,
						-0.6763788569711904,
						-0.256805878560947,
						0.5805987354190492,
						-0.16728436507220992,
						-0.7093983343026904,
						0.44274247531551036,
						0.3451447358836455,
						-0.4582614475769102,
						0.40229358410833055,
						0.6251972459333528,
						0.5454214784976982,
						0.4150595974623462,
						0.8499787811005725,
						-0.4347217732244886,
						-0.313723266107068,
						-0.7555682290036874,
						-0.4383869308729013,
						0.04419899104029355,
						-0.339029860806359,
						0.28581883288196175,
						-0.23068380722454315,
						-0.3509330210792412,
						-0.37902486255693485,
						-0.2857863075390324,
						-0.07441272810646171,
						-0.3361951993966874,
						0.7557031585761471,
						-0.209263712201334,
						-0.5862338559996013,
						-0.11968098493367144,
						-1.251095080984221,
						-0.18746381472761137,
						-0.619508846999236,
						-0.06477877913573579,
						-0.939934086882606,
						0.24644410247225018,
						0.13829725112945068,
						0.4572942863708274,
						-0.9687048276010606,
						0.008671062155320097,
						0.5960135095819485,
						-0.9643359814382997,
						-0.6312504634110326,
						1.2924787183354356,
						-0.008975304751614607
					],
					[
						0.9106511009500025,
						1.0046988957052287,
						-0.3873699946683405,
						1.2421682986262237,
						-0.47790641931564076,
						0.7769380148726284,
						-0.4844392915392146,
						-0.46998429319156887,
						-0.4268452172942299,
						-0.5308296255902947,
						0.6898985454753009,
						0.5297219161944213,
						0.023318249466322223,
						-0.6428115420441947,
						0.2642310956319789,
						-0.729990176407509,
						0.9008058977175974,
						-0.8562715123936071,
						0.7416573691856589,
						0.06008750032506685,
						-0.6755027441918167,
						-0.8254018715637398,
						-0.18654030186120807,
						-0.5787137167343284,
						-0.03150919783370448,
						-0.884150238751079,
						0.3529853259901705,
						-0.5648542156333297,
						-0.1273355207279541,
						0.1780459804249213,
						0.38890834718371875,
						0.37249550783605306,
						-0.29838324561131485,
						-0.04486344797909447,
						1.328136090679719,
						0.3722010289355467,
						-0.1206917071013961,
						0.3476173578519999,
						-0.779344931636995,
						-0.1357026210380728,
						-0.24913375090302697,
						0.7747165957228123,
						0.9669815929852115,
						-0.14607422163069148,
						-0.5872757284885791,
						0.10316052490031827,
						-0.530863054776273,
						-0.13181728410554822,
						0.48193308134622,
						-0.45183983703489894,
						0.3939996424431459,
						0.5116307066587202,
						-0.6390624778608038,
						-0.2706623026248853,
						-0.5434352219359367,
						0.44023618913542906,
						0.9932166552175197,
						-0.3834988677103629,
						-0.26577140319386633,
						-0.7398521198478852,
						-0.14875270649849753,
						-0.3769020790020939,
						-0.07665450783708513,
						1.0885192844189142
					],
					[
						-1.1685740847020543,
						1.1353186965287878,
						0.033955567360482386,
						0.1600530987622764,
						-0.38409146687183743,
						0.3425361415981608,
						0.27930786727083234,
						0.1440209653545747,
						-0.06801815615099183,
						-0.6812213086684841,
						-0.4744913162807368,
						0.1555191688971053,
						-0.6847426362076363,
						0.29522709639807704,
						0.16645084197317717,
						0.9074118897124728,
						-0.32143944969296395,
						-1.092100299972997,
						-0.5576566465897068,
						-0.6346922212060375,
						-0.4836047965004345,
						1.3196215804768179,
						-0.4651204473140607,
						-0.45031725696295666,
						-0.8189021799258765,
						0.4558889928601391,
						1.2019987470284264,
						0.05976275713379041,
						1.1048474667563313,
						0.23479875080882914,
						0.07968514601285659,
						-0.41118868648071105,
						0.22567624815569975,
						-0.23301187012119762,
						-0.16093931167161774,
						0.40936786563626015,
						0.4116570972736336,
						0.5672876925433817,
						-0.7434128500062884,
						-0.1669178412901723,
						0.027978160576653255,
						0.25701570896732556,
						0.750287685830784,
						-0.24572070201113827,
						0.035643033293627724,
						0.7707918925231902,
						0.8779844498176116,
						0.18787096309296214,
						-0.5510159338383729,
						-0.9851785965377425,
						-0.24577280069544039,
						0.9403490314870258,
						-0.07169914855290757,
						0.4807895613293022,
						0.6227182996789036,
						-0.1235203240487677,
						0.2164408293406208,
						-0.641686541102232,
						0.3594231936925049,
						-0.7541833789492643,
						-0.3134882472081969,
						0.9150288413233302,
						0.20978498740548376,
						-0.2718210830885543
					],
					[
						1.163130819201359,
						-0.3197617208883855,
						-0.7202398815582358,
						0.45788815925238,
						0.42359790189827945,
						0.8691266492021225,
						-0.14012704889475133,
						-0.0820634850472193,
						0.8730678021381031,
						0.6606419035746335,
						-1.0905224484474716,
						0.06906885949525257,
						0.06351342878329436,
						-0.31484422655365424,
						-0.4054766049249854,
						0.7709287528804134,
						0.2921780639489864,
						-0.415506951111566,
						-0.7363818531237487,
						1.192823552954109,
						0.12837709744056963,
						0.37935765798271387,
						0.30227875438050017,
						0.17271081329905152,
						0.20085254496194938,
						-0.4228480811872709,
						-0.007767045390867644,
						0.6821676517870047,
						-0.5504808032250644,
						-0.7704758984789146,
						-0.48252195930526387,
						0.1661712088033111,
						0.09120932805769166,
						-0.5196719069368791,
						-0.4011049531488965,
						-0.06655777869338297,
						0.7528834472538095,
						-1.2739868045962792,
						-0.21275221463823152,
						-0.5323769053051888,
						0.5230130781727559,
						0.18661302319834872,
						0.26494501423543243,
						-0.4854575884769276,
						0.22836277290793283,
						-0.3000007547364948,
						1.5631915263401939,
						-0.11625605275645673,
						-0.19257913958027542,
						0.6796244941915758,
						-0.6645592458388975,
						0.19760170520271847,
						0.3908060478189289,
						0.1917053778876367,
						0.14268494008566707,
						0.18571426870511393,
						-0.37507619610408316,
						-0.01114530412897291,
						0.3182531597535885,
						-0.7728425965083173,
						0.5712638362995375,
						-0.01191230910372984,
						0.4553281981391317,
						0.5669181877629806
					],
					[
						-0.14433174192717246,
						-0.378046513334288,
						0.33681610670717105,
						-0.13998728495078216,
						-0.645004103891169,
						-0.5029749420373579,
						0.1425695598667553,
						-0.7145055638413811,
						0.8955894297069749,
						0.33911032417162407,
						0.17644146675187944,
						1.368345625570097,
						0.3129244727100421,
						0.5079006447930934,
						-1.368570194452193,
						0.23959849302017672,
						0.5302064415653496,
						0.527856023163551,
						-0.5398206518132886,
						0.12153283112560465,
						-0.5139422254356519,
						0.6870033297834399,
						-0.722627249967952,
						0.3532699574966229,
						0.8016427494628918,
						-0.6444814381847417,
						-0.8598182015898607,
						-0.4562536574427109,
						0.9694165144717464,
						-0.7458506986558879,
						0.00020492659151033488,
						0.8431711799368744,
						-0.9585168337170069,
						-1.2458271564926655,
						0.7162356130682047,
						-0.6918185137248979,
						0.2134183539745435,
						0.4072793155256632,
						-0.4229632269182876,
						-0.26856469743873324,
						-0.1202861315408229,
						-1.3419849981972136,
						1.1543876700686306,
						-0.2766670467662934,
						1.4352200197460334,
						0.0065750861705487496,
						-0.7965597284012684,
						0.28528602666745295,
						1.0317849226993163,
						0.6140151135472129,
						-1.0041231395244208,
						-0.9004713637971473,
						-0.5916263316644879,
						0.6747339948729345,
						-0.46869083609998646,
						-0.17468938894975555,
						-0.01940666519713105,
						-0.9904460074515032,
						0.25199861340891694,
						0.428894115398356,
						-1.2826400684206978,
						0.07357134366254142,
						-0.12341636351851779,
						-0.6765300547049422
					],
					[
						-0.02307386952665813,
						0.12609760639096293,
						-0.3074989218108475,
						-0.8109391420351598,
						0.8671866717219807,
						-0.5074847359931829,
						-1.0233880294762498,
						-0.11426412761968013,
						0.3033186446171352,
						0.15513396819701275,
						-0.7830746842001692,
						0.3607096088887559,
						0.9271530960002512,
						-0.23303849828537146,
						-0.39886426148240234,
						0.7312574330518948,
						0.2733886916137579,
						0.5060114561331978,
						0.5635967811550108,
						-0.9827175625919666,
						1.8730461552394941,
						-0.5728334975876445,
						0.2647736415361469,
						-0.5232060360017348,
						0.4885278670062613,
						0.004175878485328494,
						0.15624133701825138,
						0.9174080359720149,
						0.07633105041769439,
						-0.13558632199709073,
						-0.9303676487346021,
						0.2149024127976552,
						1.2230256491548257,
						-0.961491706417404,
						0.14584903417146458,
						0.9626028348419946,
						0.2986034169558354,
						-0.4768020505297568,
						0.219669480895674,
						0.6136107182506629,
						-0.018785306275757113,
						-1.0822999086130012,
						-0.9036438147583703,
						-1.4805746848550785,
						0.7532720784021728,
						-0.7585717291602401,
						1.5746080031298535,
						-0.13300267904627483,
						0.1653341293698915,
						-0.19692949486189304,
						1.1006907534697907,
						-0.3703855232608198,
						0.3556435169428731,
						0.2132268100833029,
						-0.40220462959963743,
						-0.12576754819515965,
						-0.14563053782136864,
						-0.1633631014583193,
						-0.5077067278429253,
						0.861911824288584,
						-0.6095926499245836,
						0.9309276581950058,
						-0.16871841140057603,
						0.035636260777169804
					],
					[
						-1.712640319901657,
						0.07522749436549352,
						0.11461787951030741,
						-0.4444543557136477,
						-0.6326499043020064,
						0.6546481311878515,
						0.6338874549106548,
						0.8702972614790815,
						0.3244118996771679,
						-0.0718487777608725,
						0.6777330211138222,
						-1.175780271042978,
						-0.5394084226897037,
						-1.0764301840411887,
						0.08306608117154907,
						0.7742796732985414,
						1.108512632214941,
						0.7680906783951276,
						-0.16065952008547202,
						-0.6423291170178187,
						0.5812464337361655,
						0.4514948948072138,
						-0.28620021152862873,
						0.9681237330936904,
						0.5230904506785261,
						-0.36149727576300317,
						0.47560578593516745,
						-0.48965750299954774,
						0.396887804644279,
						0.16234912732613677,
						-0.40220861884570147,
						1.1345241189668427,
						0.3800315735732278,
						-1.0850597163787123,
						0.36989430736232803,
						0.8742096941557225,
						0.18212257771202134,
						0.09439533101679169,
						0.3755292372922177,
						0.04464381468125947,
						-0.38588529113080894,
						0.48365328333406343,
						-0.5454004946998036,
						-1.0591577677803918,
						0.020438771434375724,
						-0.7448863642672068,
						0.8441521082756966,
						0.22753651827424382,
						1.3745403821292819,
						0.5097359178155613,
						0.015190514764703456,
						1.3382658448274503,
						0.7849429983096161,
						0.15339114616143096,
						-0.40843009520036544,
						-1.0156775387844765,
						-0.747982609998922,
						0.7421457532116553,
						-0.4120589334367607,
						0.44887568906267034,
						-0.05276326466093989,
						-0.5218764635062999,
						-0.9827429326743544,
						-0.6051507399474788
					],
					[
						-0.821897038722145,
						0.9924202291682094,
						1.010686870422617,
						-0.607808086971306,
						0.12177698765899854,
						0.927463717558775,
						1.2858834595464763,
						-0.2677616800360577,
						0.09655570605175613,
						-0.6134666496683752,
						-0.6209695921559849,
						0.7653119442788381,
						0.6281293570453994,
						-0.14929764581516802,
						-0.18789355447839132,
						-0.041947213537551604,
						0.4062009245805861,
						-0.2782955485629911,
						-0.839893400433063,
						0.21976622381329425,
						-0.27332167228695836,
						-0.6717908287421396,
						-0.5108787114097817,
						1.2925328352572096,
						0.13217066140298184,
						0.5127776521700731,
						0.6478913054139286,
						0.5784081545956183,
						0.5447135510669836,
						1.0756208813192811,
						0.25919416034310894,
						-0.767182257533404,
						0.16292813398564393,
						0.1032763713821884,
						0.4456955278379852,
						0.7888358916156711,
						-0.9589913221443135,
						0.6349895562125304,
						-0.14798977466742816,
						1.1459072263255206,
						-0.07534308109745225,
						0.48490084802416483,
						0.7721298030086354,
						0.8575344312993816,
						0.22281953018830247,
						0.09869110355164719,
						0.05602989711777498,
						0.053407506815791185,
						1.2825461480673954,
						-0.5696144912522619,
						-0.9935359312084572,
						1.1066637245719886,
						0.5317013628444549,
						0.17706055501771226,
						-0.7013657713939616,
						-0.21739597971025396,
						-0.4841800515138789,
						-0.4186319833976245,
						-0.4656820426203784,
						0.4641094299780663,
						0.3149862342289332,
						-0.21204867782167303,
						-0.09270711462312767,
						0.265017314699599
					],
					[
						0.8040114532320092,
						0.23804972912881261,
						-0.35322630098558494,
						1.0761492004456634,
						0.7343551533377557,
						0.22178016125441638,
						-0.6537932632933213,
						0.6009189136597649,
						0.24068978567396104,
						0.009684965199503057,
						-0.5145259013184483,
						-0.21958651108339317,
						0.5816956447030724,
						-0.721691143981378,
						-0.19759191423115935,
						0.7533320842910675,
						-0.8369997863949493,
						-0.6265840418678339,
						1.1774459092190823,
						-0.12021533187836175,
						0.031130016953850426,
						1.544354969754226,
						1.4360581733685762,
						0.5415911473207266,
						-0.7574671241905486,
						-0.7271672859284314,
						-0.6627131880167219,
						0.6833396964564327,
						0.9093579620593838,
						1.1162487120949338,
						-0.39728940623232767,
						1.3216146948338037,
						0.798416234342948,
						0.05198706176975659,
						0.19270454520972968,
						-0.3176856863941611,
						-1.0509154212212701,
						-0.3530213889594863,
						0.811282833622603,
						-0.5651992500490831,
						-0.04623662629746263,
						-0.13297869887069547,
						-0.26232275684132544,
						0.05427350647565332,
						-1.006829702319261,
						0.19707810122810399,
						0.1212760608067722,
						-0.4451288640443159,
						0.4988731079647684,
						0.27630586840518,
						-0.4197693494151612,
						0.675395677164361,
						-0.34671709938334455,
						-0.8288030536346134,
						-0.02842373419447281,
						0.07524284329911063,
						0.28197559216242973,
						0.28767843485667555,
						0.15164554800383812,
						1.2692371627221601,
						0.1684242999774974,
						-0.6700195889865761,
						-0.26429161248865296,
						-0.5671339866450258
					],
					[
						-0.4273763953017323,
						-0.05886356727734536,
						0.6041584542575755,
						0.4548343071588666,
						-0.2065767176881389,
						-1.257635911201032,
						0.22960750210681502,
						0.952944241904812,
						0.8235398108200473,
						-0.7173160190948337,
						0.6979242716340596,
						0.23075328299057132,
						-0.6955134805876605,
						-1.5172359206269637,
						-0.10565000215922773,
						-0.013694481295774441,
						1.1307628378444885,
						-0.6286020948632753,
						0.5693650856744176,
						1.415048966001224,
						0.5721791950381996,
						-0.41860462355846817,
						-0.4744401707673329,
						0.44084538695656766,
						-0.32061730773987185,
						0.40518178620366024,
						-0.012903858835135507,
						-0.5443686250011776,
						-0.8682862331139694,
						-0.8181156137196751,
						-1.5110286070310333,
						-0.1421092590436535,
						0.1079467422041987,
						-0.7564063744925671,
						0.5234863939739385,
						0.29311204850174843,
						-0.6176054313549538,
						0.9001305327174219,
						0.20183310788155645,
						0.46931942875503785,
						-0.1648487381791517,
						-1.0229945435286292,
						0.5059904646862694,
						-0.12092081141353431,
						0.20777355726404995,
						-0.8993146393369337,
						0.24136370881923394,
						-0.7555946439324641,
						-0.17021631760566597,
						1.401008585813338,
						0.4713056724312134,
						0.3634123925549135,
						-0.1298807466568464,
						0.6467202364659426,
						-0.387080622891917,
						-0.5499738513635545,
						0.7561370588764156,
						0.552157783591087,
						-1.1661042474156726,
						0.17491049793024172,
						-0.23494944232943646,
						-0.041833099834558726,
						1.2669746239506634,
						0.39781046941672255
					],
					[
						-0.996751067057102,
						0.6477383583225793,
						0.11047347943368763,
						-0.8240157251753727,
						-0.28418476171535634,
						-0.3786196920838804,
						0.16896185394397548,
						0.6324882412276761,
						0.6654098525525773,
						0.9199321130304594,
						0.5612495521781047,
						0.9766196225063936,
						0.8728055473476699,
						0.37024079823557954,
						0.3022595700986669,
						0.461454458623765,
						-0.6001352381744075,
						-0.27301924764757635,
						0.6955894193644645,
						-0.7590794092793024,
						-0.6979534862452135,
						1.8247024715249098,
						-0.01256097763098779,
						0.2681748998797522,
						0.9130098553830496,
						0.2506866116906996,
						0.012961167440925625,
						-0.8308771706320766,
						0.4135606831356901,
						0.054268561375686364,
						-0.6848300846616812,
						-0.03591626632177357,
						-0.5709225136979479,
						0.5331262756823139,
						-0.584450784166829,
						-0.3583414959192255,
						-0.41168220045020953,
						0.22968450436234833,
						-0.7689508761091265,
						-1.0331455318707652,
						-0.18175403892798742,
						0.012993352869195368,
						-0.009310168384263684,
						-0.30628545029421705,
						0.1624371617195117,
						-0.3566208634797381,
						-0.9694434683959505,
						0.06251079631065823,
						-0.07240787925567513,
						-0.5608036205344639,
						0.413467655099516,
						-0.3458311390787756,
						0.0636311211503246,
						0.6752544129977377,
						-0.27858879976292983,
						-1.0325631632547987,
						-0.7204240181067615,
						-1.6883419109068694,
						-0.6179547265370156,
						-0.5412885086255604,
						0.27445547147334476,
						0.0062268931814835615,
						0.706213461237499,
						0.8498116317212413
					],
					[
						-0.6992791076759288,
						0.8569477748860777,
						-0.15209800338848373,
						-0.31125538083153814,
						0.37327627320464574,
						0.6057297635298884,
						0.6110467134062931,
						0.657249042181199,
						-0.9345799987174279,
						-0.6210885484199602,
						-1.4620305669187175,
						-0.02289416777168571,
						-0.288112292196985,
						-0.7553964696105178,
						0.4685539497356369,
						0.7251008250387864,
						0.27970053206310846,
						0.46198360881138656,
						0.18619431556571978,
						0.2222424410725855,
						-0.40334432056046043,
						-0.885895594821118,
						-0.20481797257417567,
						0.5364382417518015,
						0.09140640538947872,
						0.6328380203803167,
						-0.7297471991655462,
						-0.5123462982818907,
						-0.10572490013382234,
						-0.4220395266408985,
						-0.06080171129947404,
						-0.2863943191476706,
						-1.1426871549430444,
						-0.6281733364607739,
						0.5180760016302923,
						1.117817507971334,
						-0.8464950775796063,
						-0.029784563545736886,
						-0.27487164912090456,
						-0.2524442569903823,
						0.5964006644579436,
						-0.3768987434951025,
						0.1481921185234915,
						0.7261126101931525,
						0.0203803594285258,
						0.5570677808969231,
						0.49370597797247046,
						-0.7005139046168551,
						0.17523050700914697,
						-0.18452505162439725,
						-0.63313832487192,
						-0.35446034432852797,
						-0.9378472584362832,
						1.2293511687247396,
						-1.0093558071102642,
						-0.5163002274792883,
						0.6552785898945841,
						0.19888584021252542,
						0.7133516684839276,
						0.4408527413579608,
						-0.2682187639238167,
						-0.734534288079081,
						-0.32265842489437074,
						-0.3677518178440613
					],
					[
						-0.3082494050133305,
						0.610478599492444,
						-0.8353686945358991,
						0.09381735172816641,
						-0.39178194316868675,
						0.24631087881908958,
						-0.9777276913135717,
						0.9302836530895067,
						-0.12226185126482322,
						-1.3841849405770916,
						-0.905522432409579,
						-1.1527333221210239,
						-0.09065225277140423,
						-0.24346189457029585,
						-0.3927185866128135,
						0.7988621525218031,
						0.5807074404221396,
						-0.4594545551896968,
						0.3659989635701697,
						-1.0018059236880181,
						0.13699730056064324,
						-0.636217581540916,
						0.09304576662624564,
						0.8844870939606277,
						-0.29314697848809435,
						1.2063723503339998,
						0.6407741625540513,
						-0.8397906729652469,
						0.7262065820122712,
						-0.23127820616556244,
						-0.4328520416990641,
						-0.03500639741483669,
						-0.7459239960222154,
						-0.08804109491782003,
						0.002184662006345428,
						0.0037134916512989724,
						-0.6743997538043187,
						1.1010062719504266,
						-0.38321057604130077,
						0.3805583286891351,
						-0.31255326687390267,
						0.533790000159083,
						-0.4843237299215828,
						-1.2566457300523184,
						-0.10816987850798444,
						0.28224932189716984,
						0.7801004920423034,
						-0.7353427068419774,
						0.3814978594756019,
						0.14550900845635079,
						0.9316459110107045,
						-0.27195833773830924,
						0.21434048524105814,
						-0.506008167957263,
						-0.7704490020240409,
						-0.1997525618886049,
						0.6745492256506689,
						0.25063682538265786,
						-1.5922838464291726,
						1.211333939684247,
						0.8456182644345891,
						-0.45162553626822366,
						-0.5020382981234965,
						-0.012878346130811257
					]
				],
				"biases": [
					0.40392550810246075,
					0.9450101590463333,
					-2.294113690055493,
					-0.9103348511887982,
					1.6703680773774325,
					-0.4912381841817546,
					0.9870367940887913,
					-0.92879761311164,
					0.6853130126455911,
					-1.0722160649282386,
					-0.9948615152697609,
					1.6407062527675214,
					1.5233999369797195,
					-0.5085547583726399,
					-0.6341898702459714,
					-1.2866100736460522,
					-0.6716086890985866,
					0.14698574095112293,
					-0.6917216186852806,
					-1.1445429914675034,
					0.024923537945713115,
					-0.4563963432410253,
					1.0282968688211271,
					1.4466333578642003,
					-0.012016073315343823,
					0.38947075022169464,
					-0.08018222918503848,
					1.913998828862483,
					0.8581923255269726,
					-1.9106592629078358,
					0.028267603905673483,
					2.18190092586376,
					-1.1723022761995798,
					-1.177644867950327,
					0.4504940149206942,
					0.3429541292629423,
					-2.270789044568825,
					1.0813886011525071,
					-0.2961865007094519,
					-1.6505773890851034,
					-1.646956636891959,
					0.9323167786815686,
					1.2753313331071763,
					0.48461813475892723,
					-0.36876218110585895,
					0.5245768868504691,
					0.5204231431261674,
					0.3294757536540638,
					0.11245561481384433,
					-1.7799070981081837,
					0.49746399476114445,
					0.8928685255881821,
					-0.4679236407509221,
					1.125758694510078,
					-0.7049122023429681,
					0.18025082582052465,
					0.3462696688882333,
					-0.29362155064942347,
					-1.7089431839588696,
					0.01991293430222635,
					-1.7273647739905527,
					-0.33662926309014296,
					1.0281542509724748,
					-1.486201139904492
				]
			},
			{
				"n_inputs": 64,
				"n_outputs": 16,
				"activation": "Sigmoid",
				"activations": "None",
				"weights": [
					[
						0.0944286889741018,
						-0.8802189054321727,
						-0.4007872401984013,
						0.1673152493017358,
						0.552376369344883,
						0.7132109227741723,
						0.479607712500732,
						0.30786224417762387,
						0.7686600456711522,
						0.533921395320643,
						0.7120884586220421,
						-0.19773692263200085,
						-0.03482463947296538,
						-1.1675690590497254,
						0.07668544873697922,
						-0.29641828909699525
					],
					[
						-0.23578261784122717,
						-0.1315781406888692,
						-0.8774510663515215,
						1.2366458848454567,
						0.23185783500022356,
						1.3969304591815763,
						-1.3657458312597301,
						-0.46777936911432016,
						-0.26977648824824807,
						0.5266102554503481,
						-0.40207146666871846,
						0.8083146195983746,
						-0.9315351558677619,
						0.5553829038193494,
						-0.18738098307587714,
						0.19203047702326453
					],
					[
						1.6829508415785064,
						0.2125592503209979,
						-0.15725878536339633,
						0.3796921649232485,
						-1.5457756331444912,
						0.02517821750619778,
						-0.9170352266176183,
						0.4517165489940545,
						0.7140309337145552,
						-0.5060747781115782,
						-0.09666696347544726,
						-0.4891880574402942,
						-1.7189014138728607,
						-0.8652596676700015,
						-0.29313214324373477,
						-0.787160327882605
					],
					[
						-0.7642116664564703,
						0.07067550239523589,
						0.17490899284785588,
						-1.1220536775523242,
						0.1853705607440789,
						-0.9140961999692623,
						-0.11658369768135049,
						-0.7856653297653733,
						0.7706117186658378,
						-0.2531803924280742,
						-0.6153290144540723,
						-0.5217215939550467,
						0.38102975515776466,
						0.062445191426015234,
						0.06722420904057308,
						-0.7549189781935173
					],
					[
						-0.12955882215016265,
						0.2915625258872414,
						-0.7618185257647201,
						-0.9623399416556481,
						0.3783954696898514,
						-0.006968041960551785,
						-1.0345900270656911,
						-0.009005754035906408,
						-0.6363322162789021,
						-0.20332892335800457,
						1.0719706972071856,
						-0.6370661115567474,
						0.022658025814044275,
						0.38938584415392774,
						0.07738821851780822,
						0.1427588336404293
					],
					[
						-0.2903066755896363,
						0.343634674521301,
						1.2985200689608476,
						-0.891643137391065,
						-0.13855260417258441,
						0.5433705206276195,
						-0.21255802379974073,
						0.1623791102067668,
						-0.07685253811770905,
						0.6246609598372778,
						1.638051138359573,
						-0.7732411671642501,
						-0.03367943440757998,
						-0.8284970788138649,
						1.186800954246435,
						-0.36423428794945795
					],
					[
						-0.39455424606295847,
						-0.4298858014128112,
						0.31940706077279823,
						0.2810081271386128,
						0.09617707239873814,
						0.7033002811823885,
						-0.05682016587484201,
						0.9537540807069886,
						0.17217910199655018,
						-1.0013553574009006,
						-0.25497508190629675,
						-0.21187093982002553,
						0.009121135362415614,
						0.15627752306231787,
						-0.7372678316142403,
						0.8808401249957318
					],
					[
						-0.09031218230421087,
						-1.9531351452314627,
						-0.28811007047938886,
						-0.4241420741062245,
						-0.7561866338544856,
						0.9841408374823359,
						-0.5114680118524874,
						0.06399607202650315,
						0.30284149010063405,
						-0.2921115648354679,
						-0.050742849146669655,
						-0.22511560288845972,
						0.22745000334112714,
						0.3667335050597558,
						0.8568392064057699,
						-0.9195508820755001
					],
					[
						0.4597039440735027,
						-1.3287604572340492,
						1.4911313964173933,
						0.3564835086616482,
						1.2373228300999364,
						0.59194810833759,
						1.902616786401496,
						0.6809108718167763,
						-0.9347235913408766,
						0.666551623922213,
						-0.3501693743695584,
						-1.1341668164855734,
						0.7145866015008888,
						-0.5682004872825878,
						-0.07148188317028431,
						0.8436124995825021
					],
					[
						0.13193703187161693,
						-0.1910057107106875,
						-0.12141399005222447,
						-0.7524955159428974,
						0.9623320321021407,
						0.7489644554568247,
						-0.7377082533567895,
						0.738375918743894,
						-1.2639562180040234,
						-0.8578870597607167,
						0.026025798545065537,
						0.035220023232539505,
						0.30705059478085367,
						-0.48674312880128057,
						0.12881391862806305,
						-1.381281951701437
					],
					[
						-0.1331565415683831,
						-0.299449626852662,
						0.4036833022808784,
						0.1321577654488569,
						-0.8900652858970819,
						-0.473705157115994,
						-0.4078451770332846,
						0.011793731737676935,
						-0.29676555376437774,
						0.09659707932993016,
						0.5391888085290116,
						-0.1639574710954131,
						-0.9476457913691595,
						-1.1521136349334653,
						-0.20812763410775126,
						-0.7090807804841868
					],
					[
						0.12231939095346168,
						-0.3718419937264156,
						-0.4009162962752817,
						-0.4301178988538766,
						0.4595493340762382,
						-0.9947339171952705,
						0.035520456899004876,
						-1.4150201202367727,
						0.02728426280523355,
						0.716183982235968,
						0.38789478088790735,
						1.5224242993867816,
						-0.01762950990067179,
						0.20850475080076192,
						1.1181744657873045,
						-0.44861221403483353
					],
					[
						0.10916460829733786,
						-0.050995653865821805,
						-0.3195921738806309,
						0.3634623434231485,
						0.8390811061863835,
						-1.1332421248808169,
						-0.4840991491177555,
						0.572947395033579,
						-0.5599503374943127,
						1.1715869196038187,
						0.5936080344934753,
						1.0317144573096853,
						-0.3373824228242907,
						-0.3392954984551325,
						-1.1290535167456666,
						1.0307185921737967
					],
					[
						0.45678568477171283,
						-0.6655195570049826,
						0.9180871874491229,
						0.03715137426408156,
						-0.8515867175643819,
						-0.9078239651282701,
						0.3494880447423454,
						-0.4308296013398134,
						-0.5201798138042314,
						0.19382685363456809,
						-0.7435890605646484,
						0.7467409281998305,
						-0.4631730080268528,
						0.30795582101437147,
						-0.20090480104559222,
						0.4449004339838264
					],
					[
						0.3810377085930534,
						0.5775436387268288,
						-0.701494516933559,
						0.5149981437463008,
						-0.19581401158491862,
						-0.03952325733597001,
						-0.15120361481046124,
						0.30004996208836626,
						-0.953898701691388,
						0.690789548727734,
						-0.2863513891366659,
						-0.0006988004894064592,
						0.309593146885812,
						-1.3696460529888417,
						-0.4383135914096094,
						-0.12729345429455385
					],
					[
						0.09855874408674992,
						0.1428553876809315,
						0.3175045186229509,
						0.9661718466951895,
						-0.827712663511809,
						-0.7606060631028064,
						0.3736236373101167,
						-0.2566022586802834,
						0.29141475562664043,
						0.5116384388773305,
						-0.41886299088843015,
						0.3849640802369086,
						-1.1590772310273578,
						0.11413304726128959,
						0.12593442401486976,
						0.31203993021119114
					],
					[
						-0.18260457029060037,
						0.9083822774373171,
						-0.5133195896192155,
						1.1269872503427663,
						0.537468457579123,
						0.38427219334833834,
						-0.04784807699183806,
						0.7244981328415703,
						0.5853674232100696,
						-0.2210872896802632,
						-0.36317279964056376,
						0.1514349124543654,
						-0.7552889804042511,
						-0.2725309034692376,
						-0.13569693491738125,
						0.3450012735675315
					],
					[
						0.24509070965798194,
						0.09485372444834278,
						-0.8131479163649781,
						-1.6939128711343474,
						0.19430927659871688,
						0.585307852793195,
						0.6781932455825477,
						1.2806563249737526,
						0.2782060368115304,
						0.3525542202934945,
						-0.030726636024486026,
						0.3640188701703932,
						-0.20825001272736446,
						-0.1427849409075971,
						0.3439397843987881,
						-0.5315198838747205
					],
					[
						-0.6945313285117485,
						0.3030733001312668,
						-0.14972687996230963,
						0.6418442155821289,
						-1.7297945245346442,
						1.501112526707936,
						0.44659503056184774,
						0.28530087588732156,
						0.4297953789727163,
						-0.31686432534874126,
						-0.041753207171339415,
						0.1421418110761345,
						0.35000931559483905,
						-0.262736834370355,
						0.022821157115036295,
						0.31291077951059026
					],
					[
						0.7582538340340474,
						0.25159929513628165,
						-0.06827942869497061,
						-0.19022573846518298,
						0.9215997430104362,
						-0.1716283562805439,
						0.25083659907003336,
						-0.1311491725142026,
						-0.26026541104375284,
						0.1037110607664831,
						-0.2295652403411399,
						-0.6847411330541666,
						-0.5125137091013496,
						0.11734467898148257,
						-0.5413624525020149,
						1.1496704661609767
					],
					[
						-0.6992313249833698,
						-0.3029324844319233,
						-0.902626750786222,
						-0.07259452349815675,
						0.4367023679771205,
						-0.25939402499634334,
						0.6240160210212614,
						-0.6351906964888305,
						0.12962492802190184,
						-0.27698270630797356,
						0.47208646261962595,
						0.605003574070156,
						-0.7980539972278718,
						-0.2197531131816685,
						0.9952075734967901,
						-0.5097244638525547
					],
					[
						0.12639441535394458,
						1.2516819167471054,
						0.5933307169572629,
						-1.9741781087889727,
						-1.0684467402538689,
						-0.4800550901147568,
						0.45471956293849436,
						-0.40854379828046994,
						0.29949140329784896,
						-0.7749963382831946,
						-0.40139863911493,
						-0.953967400460293,
						1.0502564634281477,
						-1.0030625425005766,
						-0.41569090773238204,
						-0.45498171795957343
					],
					[
						0.5585194056764228,
						0.6064039588369324,
						0.4204809234280815,
						-0.6906679016159227,
						-0.26763380566693085,
						-1.2843618976447122,
						0.5181276425975491,
						-1.0819301773235015,
						-0.9793347770008056,
						0.6475888944311297,
						0.9933942251870239,
						0.5671238971567212,
						1.4756357616699711,
						-0.35729782796262155,
						0.5140373503364684,
						0.1216672688797405
					],
					[
						-0.12131600028819402,
						-0.03622879457444428,
						0.7407857477810149,
						-1.434769686530915,
						0.5467041255812446,
						-0.14893030034045207,
						-0.2790116903645645,
						-0.17816412571365647,
						-0.4857067981580283,
						0.12451419894812243,
						0.34372744865940846,
						0.7843127362337355,
						-0.3004442146943278,
						-1.3075413851061144,
						-0.4861564192678829,
						-1.614441864393367
					],
					[
						-0.9475525658673773,
						-0.3621328578075983,
						0.5536677040528277,
						0.634933522446421,
						-1.7237628146556419,
						-0.16719193649062045,
						1.5400083853058768,
						-0.8431251468180849,
						-1.1789778215584918,
						-0.6307536101031492,
						-0.9337580656983347,
						0.1479437406833083,
						-1.1868806432638925,
						0.1425834819045767,
						-0.7625727393712873,
						-0.11192884386805982
					],
					[
						-0.34617954149332664,
						-0.09617978853188125,
						0.8292635151426639,
						1.2265185293643288,
						0.32935036866847506,
						-0.5770950384557245,
						-0.8923515332230616,
						0.6213591620667698,
						0.47278488113982514,
						0.30459358579340423,
						0.016529721866423333,
						1.1928637814441871,
						1.4591839847613817,
						0.6776793713010617,
						-0.26954786809564957,
						0.6275031557057892
					],
					[
						0.9894465273067031,
						-0.14129122010937822,
						0.7925664651755983,
						1.0215002651357858,
						0.39322373050939363,
						1.0425329909248089,
						-0.3759691631494828,
						1.1355678888891092,
						0.8928661552357883,
						-0.4422169448968778,
						-0.5366367603171964,
						0.7586954378380398,
						1.381632162869078,
						-1.5079189136921491,
						0.37296763703340097,
						0.10759976592567486
					],
					[
						0.18044032182028646,
						-0.7087171266807453,
						-0.2463098649383763,
						1.512806415056578,
						0.8277792183774775,
						-0.19107589993663396,
						-0.09616138190957943,
						-0.3690843532550157,
						0.1675960889290692,
						-1.037817027246692,
						0.512014219258121,
						-0.1864034185027001,
						-0.3665706302545515,
						0.7737970208904844,
						-0.5413347491561347,
						0.26660814091211704
					],
					[
						0.7027475261692753,
						-0.24177155697286942,
						-0.3632107294764273,
						-0.43878002936732086,
						-0.3842903960105346,
						-0.8142821098082992,
						0.4849907232771573,
						1.1388360679958462,
						-0.7188870631911775,
						-0.010445503534306719,
						-0.35228100330173484,
						-0.3816259458638352,
						0.47645887117453145,
						-0.5716530447699998,
						-1.0537480246439526,
						-0.13053985221454503
					],
					[
						-0.35037747296171046,
						-0.6087192487497015,
						-0.8286816903866936,
						-0.17795299875045278,
						0.5585361029502914,
						-0.7755426956738692,
						-0.5171134818430383,
						-0.5210445265764869,
						0.9139907668367767,
						-0.2719987349976313,
						0.01632781854386922,
						-0.26237003347040183,
						-0.5286699184370448,
						0.4820948795428392,
						0.18489383446035323,
						-0.6240429226893202
					],
					[
						0.5463797457178321,
						0.3249371826637767,
						-0.5656238233739964,
						-0.48433690277855923,
						-0.1762446740912784,
						0.12128826476651922,
						-0.7821063892278027,
						-0.8443561247439312,
						0.1575755267239966,
						-0.010820677645330123,
						-0.04155138524962432,
						-0.2849288177649657,
						0.12628026954021626,
						-1.076548486533553,
						-0.5783109255115662,
						0.34052300074137476
					],
					[
						-1.053361215608502,
						0.1326287591645639,
						1.1607854978482555,
						-0.5753543737477156,
						0.8654043595686356,
						0.2952258095312469,
						-0.28780522006840903,
						1.033600138671681,
						0.4808115188463186,
						-1.4823163658620016,
						-0.5208271954163692,
						0.026612794989703703,
						-0.1345131576131594,
						0.07414619166522525,
						2.2243411549364493,
						-0.34900809937543675
					],
					[
						-0.8006313992792311,
						0.28318464640940477,
						0.5661455072786964,
						-0.32750963756810436,
						-0.4457661218553174,
						-0.5051813098548374,
						-0.18327996427758547,
						0.12352503819729743,
						-0.8664502376028543,
						0.4298966545085373,
						-0.11912646634774772,
						-0.4037830671192125,
						0.016111655855513718,
						-1.7407960755992027,
						-0.4407714312964166,
						0.29627467741140023
					],
					[
						0.0578407367658105,
						0.7059998411980839,
						0.005832066582906303,
						0.7900761070010045,
						-0.8487013813301851,
						-0.0358934143948946,
						0.06538335733199244,
						-0.8716024144652126,
						-0.47349140191103284,
						-0.08156706147940737,
						-1.5442411379692462,
						0.2874732978961443,
						0.09711267405546187,
						-0.42828544202226254,
						-0.6846414438836433,
						-0.46371374675938304
					],
					[
						1.5925070179912235,
						0.6251826593656591,
						0.5134856732336763,
						0.5082475228929441,
						0.39197082422735957,
						-0.614314800348584,
						0.06018672354251792,
						-0.08588851134180985,
						-0.26192742987010753,
						0.18044673669682132,
						-0.08248700818957336,
						-0.0811866318328246,
						0.10228483111264085,
						0.5852952224911074,
						-0.887371979375023,
						-0.3185087990213607
					],
					[
						-1.1239347705791518,
						-0.020856481221872336,
						-1.2499014466110536,
						-0.6116817279805162,
						0.5711363840513802,
						0.2848019374104604,
						0.1500895798929589,
						0.2613414843089265,
						0.5737717571562035,
						-0.5693046170515146,
						-0.7253945635979095,
						0.39276761849646424,
						0.563060164167849,
						0.41976717637303984,
						1.05587068623413,
						0.9609658011127935
					],
					[
						0.8119216624403907,
						-0.5935429119337026,
						0.3070919513417752,
						1.2337355314288032,
						-0.4110155835730366,
						0.9328602673386746,
						-0.5683974773253978,
						-1.2739129555753443,
						-0.35684609854052773,
						-1.8493985895919378,
						0.5224258546842157,
						-0.20427727926963488,
						-0.15702910111303342,
						0.10307900474366616,
						-0.9059643671328594,
						0.9090786652576685
					],
					[
						0.11599839678955359,
						0.591045265221117,
						0.3561447963210994,
						-0.07943546684651429,
						0.027723187169468533,
						1.3190929973037995,
						0.5083551263944011,
						0.954128570991305,
						-1.227475474607305,
						-0.04451325000603383,
						-0.22103261252109138,
						0.061047896132659124,
						1.1344408515392244,
						-0.3669390759994946,
						-0.9970852740397417,
						-0.6147324760943503
					],
					[
						0.019001762793687482,
						-0.1573282919850425,
						-0.5564807473664848,
						-1.3706929610893563,
						-0.37413314806573644,
						0.7327175483071267,
						-0.21280154117902644,
						0.09745270717601352,
						0.050495668543141206,
						0.5838154373055556,
						-1.5619220614769926,
						0.5541929158063795,
						-0.31199859275206143,
						-0.49276776970784103,
						0.5132331127032146,
						0.27893002391209265
					],
					[
						0.12064178343461474,
						0.08858526586669968,
						-0.2480062476667742,
						0.12416620308185398,
						-0.35030780189524413,
						0.06869815529297287,
						-0.5870494959457901,
						-1.382893346359017,
						-0.7008989886071384,
						-1.1425270552143652,
						0.14782194095590442,
						-0.4544039503895915,
						-0.8115663437584124,
						1.2766935259960397,
						-0.5957260128436354,
						0.029137379355104964
					],
					[
						0.4961330985480581,
						-0.038528865333529366,
						0.18114140847649496,
						-0.3024260133749175,
						-0.39143579971255005,
						0.043043221216697986,
						0.6337117585367112,
						-0.3311580630482875,
						-0.09634288647889092,
						-0.16126940324590827,
						-0.7764231282769575,
						-0.2622564549321368,
						-1.4408485750781277,
						-1.3314431368138586,
						-0.2801428851163695,
						-0.20165835378631017
					],
					[
						0.9188239478194837,
						0.6379113934777095,
						0.806867397247444,
						-0.33369733896515114,
						0.6713157179812108,
						1.5751702505958478,
						-0.030089938427692565,
						-0.701801121645064,
						0.4786878283511157,
						-1.6287847299659626,
						-0.017846462370554622,
						1.1134307868474167,
						-0.17490668342334428,
						0.8097033602080907,
						0.1852582177838885,
						0.6186715582611604
					],
					[
						-0.2987035334931631,
						0.4258879713483071,
						-0.13895023784489488,
						-0.5474256624327072,
						0.39250051730817626,
						0.6612634740031438,
						-0.7833275878213809,
						1.8403771224335717,
						-0.049957360168076614,
						-0.1890546988681689,
						-1.0036347947519393,
						-1.2802673095450454,
						0.7830651320224212,
						0.47542524910631034,
						0.18932306290043147,
						-1.185809896256044
					],
					[
						0.07901690290691366,
						0.5837612334765976,
						0.026889566462280128,
						-0.36018164085871807,
						-0.9302159839637826,
						-0.9697573253814153,
						-0.41778244905900663,
						0.9539733716753119,
						-0.008993840916213136,
						-0.10833999210228842,
						0.6081522421828375,
						0.6569725551743197,
						0.08386486845951907,
						0.03310569312094197,
						0.2655819964181275,
						-0.3110668448201497
					],
					[
						0.28324243336988975,
						-1.5319405090719274,
						-0.4129551686377785,
						-0.03216322744791289,
						0.022568244110876823,
						0.5313625666849476,
						-0.61616185539136,
						0.29297657982722025,
						-0.5406776627360649,
						-0.4750714702484781,
						0.45080675976335777,
						-0.626885851568794,
						0.7925417767290047,
						0.5393271536764137,
						-0.5483266195911553,
						-1.0128224094776879
					],
					[
						1.4931855386722916,
						0.37856104425856213,
						-0.19075368451020133,
						0.6509926658196455,
						-0.9463682427545415,
						0.8066350006664081,
						0.6050253077040955,
						0.9825085310736248,
						-0.3245159455566493,
						-0.10327706597421915,
						0.868952347288529,
						0.36583448264775764,
						0.3716986165440407,
						-0.7210107002352821,
						-0.09359250997907798,
						0.6675681350507723
					],
					[
						-0.8321074227283335,
						-0.06446965892713385,
						0.215164976402702,
						-0.4362682517278694,
						-0.012778933317029506,
						1.0710448199827287,
						-0.44099936904847487,
						-0.29055833280998655,
						0.06175880621416746,
						-0.10215762104950911,
						0.16136884216965722,
						0.4744407257126493,
						0.6182844954142226,
						0.7730492019480549,
						0.9275539473630201,
						0.14830109405237013
					],
					[
						0.6655008522123717,
						0.6565192503805981,
						1.1463757941135764,
						-0.2832043074134319,
						0.8844495709319866,
						0.7515701677877007,
						1.0433282017791843,
						0.24889359289743307,
						0.29991175490548816,
						-0.6028877461846971,
						-0.8870788845080905,
						-0.7958815361409513,
						0.07937462471955564,
						1.1986851753498167,
						1.137717647516405,
						0.8946820647092288
					],
					[
						0.815022289197683,
						0.8357914592996197,
						0.6106823292957446,
						0.6054653349372727,
						1.1458600623400241,
						-0.852754667757716,
						0.6776957903587875,
						-0.5486024812525109,
						-1.6466172719132088,
						-0.6605772489541875,
						-0.33176501302380806,
						0.6354368870651945,
						0.034645761898792454,
						0.09401820690470386,
						0.4853946713758034,
						-0.2641725633690014
					],
					[
						-0.43426452159089135,
						0.6490441365873634,
						-0.552599717881086,
						-0.2917160852690526,
						0.9615036519745666,
						-0.6916407575261033,
						-1.0428906137417133,
						-0.3735883216762315,
						0.04799058599131592,
						0.7678531552260675,
						1.3069544978725005,
						0.2589470468791487,
						-0.42812557631321324,
						0.5558248263183501,
						-0.5753701376207507,
						0.3639599728491414
					],
					[
						0.11373385010921214,
						0.4196843106514866,
						-0.618654619431794,
						0.6607697926302626,
						0.6203421848496082,
						-0.07607320668316307,
						-0.21281766308774258,
						-0.5659323748711248,
						0.45898212253557596,
						-0.15891728776178982,
						0.4084491270314495,
						-0.19342151169281974,
						1.4152335334135506,
						0.5293798204410887,
						-0.5081892439732407,
						-0.18220821038649002
					],
					[
						0.37975564279607243,
						0.8898052637034628,
						-0.992903268380116,
						-0.2918673214779936,
						0.02591204380594142,
						-1.042417941934877,
						-0.519938211959653,
						-0.07542709384126672,
						-0.6501583580437575,
						-0.5916173140697432,
						-0.47521363566920294,
						-0.039210922625206535,
						0.48236244977958465,
						-0.3964997694683692,
						0.7992931364577747,
						-0.5173585848799893
					],
					[
						0.4371265659556384,
						0.7796111137811387,
						-0.5544834431686589,
						0.8405268527612804,
						0.815413096883933,
						-0.8021442982395828,
						-0.09450718994785412,
						-0.5667654565815411,
						0.1851706245347017,
						0.6645088478644158,
						-1.6054817235742278,
						0.10393275452024302,
						-0.3567522875758121,
						1.3005810096355512,
						-0.8454266533251189,
						-0.06366135048428119
					],
					[
						0.02631989747971944,
						0.22078745171366632,
						0.07860590168720613,
						0.7505655592356204,
						0.27462120731349404,
						-0.3626514698392115,
						1.2783115273688566,
						0.7854831101889679,
						-0.25314805437237436,
						0.8072140599480413,
						-0.3722006006374627,
						-0.09571317948878551,
						1.3346228769361972,
						-1.1866629262932196,
						-0.1193346356417774,
						0.43771637590859036
					],
					[
						0.14044321201411158,
						0.5568797873288845,
						-0.035218360832557916,
						0.37132103017574697,
						0.37173170408433015,
						-0.09987792565000853,
						-0.2971984147559458,
						0.8175446044255485,
						0.18163335691878468,
						-0.6337888951585369,
						0.6491672930393774,
						-0.3330186096430133,
						-0.18372013868043965,
						-0.11149320499605875,
						-0.7911966016413197,
						-1.3400300193361183
					],
					[
						0.6668652575604405,
						1.3554448437437285,
						0.3029463785719696,
						-1.5710202842704741,
						-0.6631247111220714,
						0.5686258539200167,
						0.11718834700719637,
						0.5622911228765017,
						0.7495150435274005,
						0.3996955316148842,
						-0.2941196701632691,
						-0.976947096373369,
						0.8441761392227937,
						-0.13831250796710615,
						-0.3862329580987978,
						-0.6405514024831399
					],
					[
						0.796590132714143,
						-0.020806453365242283,
						-0.07915499998621245,
						1.2726154600152473,
						-0.9601537534267629,
						0.11555716438911964,
						0.12359176526226187,
						-0.2622782791548167,
						0.18468467374766817,
						-0.7632767696827615,
						0.15078313678451588,
						0.23105245476616298,
						-0.5677240407689101,
						-0.6086437308592185,
						0.17088844669075276,
						0.06255089391577315
					],
					[
						-0.6582675700385184,
						-0.03190155664330552,
						0.48858199087907334,
						0.24106190029493668,
						1.3221048616970192,
						0.3074831788567368,
						0.03737015852436942,
						0.41188208004606947,
						-0.6465756536798022,
						-0.97035570520287,
						-0.38034533793081565,
						-0.7965002916870626,
						-0.7388236536385735,
						0.45058344832537894,
						-0.14829714627161628,
						0.3953234501890042
					],
					[
						-0.09230058530807628,
						0.051219372273630076,
						0.6168063621131777,
						-0.07912498294388251,
						-0.558607568358592,
						0.24805378656693033,
						1.1807742913044097,
						-1.2750588336733135,
						-0.22171998888392408,
						0.8897240009394858,
						0.4529295468242948,
						0.7036494670016677,
						-0.26528714960159283,
						0.3357087721948838,
						0.7371278473135713,
						-0.8547049394257178
					],
					[
						0.41391563050354463,
						-0.14717016087306503,
						-0.5354330426553124,
						-0.6431673025363723,
						0.38466403364030594,
						-0.6984636013614787,
						0.7510866778825241,
						0.8161963220027201,
						0.09549830747826651,
						0.09646684016156507,
						-1.1397447366663664,
						-0.05036132306757429,
						-0.49972527921056636,
						0.482162481108104,
						0.49943870448931094,
						-0.27201525557695194
					],
					[
						0.5388802590948369,
						-0.7242213289020581,
						0.1830171726546414,
						-0.006622723867083902,
						-0.7162518757896856,
						0.6435839602818593,
						0.5009849805959493,
						0.4670710687097697,
						-0.079538430033714,
						-0.3010030502246942,
						0.08804175026446542,
						0.7515818180825937,
						-0.42018263547382106,
						0.21464686155117405,
						-1.1478800544532248,
						-0.34911882667034233
					],
					[
						1.14108105067735,
						-0.21739302240668762,
						0.1067119997689022,
						-0.5781968525467116,
						1.038260347178745,
						-0.8869439539797837,
						-0.5635320107542999,
						0.4404616139082127,
						0.7267602403952724,
						0.9717980297563589,
						-0.20649641949633404,
						0.4843743236778626,
						0.44912341184274934,
						-0.289709677866641,
						-0.2894609562609691,
						-0.33920691370610473
					],
					[
						0.012415898711996734,
						-0.5146218056274284,
						-0.1699531493311376,
						-0.8756432815172761,
						-0.9435915509324038,
						-0.7223782805493053,
						-0.62315159537489,
						0.6227350001175876,
						-0.16900419959226315,
						0.4428047707354945,
						0.014872754456375259,
						-0.0662217156148669,
						-1.1184243669231846,
						0.1886093092644352,
						-0.9857485584960168,
						-0.46877491591234416
					],
					[
						-0.698210039849936,
						-0.09467485176000792,
						0.772489636858613,
						0.3669073787678185,
						0.47636152800167303,
						0.4158576530047992,
						-0.396075883922226,
						-0.631721780246266,
						-0.45419288732316254,
						0.9732602782858207,
						0.8100425334737857,
						-0.4822095805800287,
						-0.7211644643074553,
						-0.2742687913162235,
						0.5535149489298108,
						0.18260454232973006
					]
				],
				"biases": [
					0.7709919785659756,
					-0.015815408726004024,
					0.34942354496788675,
					-1.3883589096426083,
					-0.9867270718652479,
					1.751749097307636,
					1.9960056537733146,
					-0.36726332860313193,
					1.7642400349548506,
					0.9195718240533747,
					-0.9544488431889795,
					-1.1813044290088073,
					0.3600887604372175,
					-1.3602021049287436,
					0.7808139877448423,
					-0.21160292035245365
				]
			},
			{
				"n_inputs": 16,
				"n_outputs": 4,
				"activations": [
					"BinaryStep",
					"BinaryStep",
					"BinaryStep",
					"BinaryStep"
				],
				"weights": [
					[
						0.30795006796357277,
						0.6618191853176979,
						-1.4999393791072664,
						0.9121006772239268
					],
					[
						-0.48983015053059265,
						-0.5845133373438255,
						0.02640030937616243,
						0.1089773679985269
					],
					[
						0.5361272559333952,
						-0.02961099779119004,
						-1.3260517480964293,
						-0.023616313649451104
					],
					[
						0.47624697647227243,
						-0.9952867679669026,
						0.1593368237281404,
						-0.11491547046009735
					],
					[
						0.26856656417920327,
						0.5276601235751971,
						0.6630219836440977,
						0.3696334011968428
					],
					[
						0.5756100375137225,
						-0.5780307709416059,
						-0.7139938157903438,
						-1.0689648180427263
					],
					[
						0.0382456544569707,
						-0.8636349389597731,
						0.21032114736203555,
						-0.6515683450289799
					],
					[
						0.21341854830461132,
						-0.1974164527648246,
						0.7945500897629134,
						0.15808085837704772
					],
					[
						-0.3619399736699717,
						0.8136606163220552,
						0.24250000251125717,
						0.5406053855362889
					],
					[
						0.16742550543247592,
						-0.8973419344112487,
						-1.4782212187449066,
						0.02582279629146883
					],
					[
						-0.5320757561483048,
						-0.8342299118357889,
						-0.3665516126428596,
						0.9097057159630846
					],
					[
						-0.7773802552911521,
						0.5263529132538838,
						-0.3174707979750952,
						-0.21950307388228865
					],
					[
						-0.4358840725467117,
						-0.6650124011159035,
						-0.3074407484296755,
						-0.5738759347894473
					],
					[
						0.25259060603328054,
						-0.7438222993070546,
						0.5088653456121721,
						-0.33879065324575913
					],
					[
						0.044403157157230644,
						-0.2551379441886814,
						-1.0877839810877103,
						0.20155267757027162
					],
					[
						-0.06667594661380533,
						-0.3763375855539298,
						0.26034100093321255,
						1.288227544056723
					]
				],
				"biases": [
					0.8489344870472958,
					-0.08922288956671373,
					1.3024757128226612,
					-0.3650124834613579
				]
			}
		]
	}
}