{
	"NeuralNetwork": {
		"preset": "Yosh",
		"Layers": [
			{
				"n_inputs": 16,
				"n_outputs": 64,
				"activation": "Sigmoid",
				"activations": "None",
				"weights": [
					[
						-0.6819132370627208,
						-0.4070196335134615,
						1.1509066930614111,
						0.7654029956376851,
						-2.622976218774129,
						-2.276802159527228,
						0.11498620274738283,
						0.9211272507651453,
						0.02356645735799696,
						1.1425298297012711,
						-2.3996593052310637,
						-1.071390798964696,
						-1.9157478331935545,
						-1.6250308473386195,
						-0.9044440774245268,
						-0.49082095741385057,
						-0.13042508328700636,
						-0.8023858409735534,
						-1.0076020032205457,
						1.4955067940932465,
						-2.1253506960246025,
						1.2236162846924954,
						0.3082321173829966,
						1.2166841764442167,
						-1.1436269844816298,
						-0.6691478310222604,
						0.07097408718141662,
						-2.7302972067408264,
						0.9053660241355125,
						-0.7198452711126764,
						-2.3120380077240164,
						-1.7772879244242317,
						-2.530867580821184,
						0.9718219480970685,
						-2.3784902276089066,
						1.5864953563863695,
						1.5652354604133032,
						-0.5394322951024522,
						1.7461367149756222,
						-0.5984694404337666,
						-1.2970135515738985,
						0.11686270812170127,
						-0.11142604957920821,
						0.34799502571072544,
						0.5636612576188916,
						-0.5002014074956563,
						-1.308961039252598,
						0.7254147005047898,
						2.218752380541735,
						-0.7972887530373416,
						0.17946296752783214,
						-0.5320217404264974,
						-0.9725594329318308,
						-0.7864767643857683,
						3.345639844212809,
						0.8412111986362607,
						-1.394569323239486,
						1.2723718271505557,
						-3.246607644958745,
						1.7049541579720333,
						-0.11233679072339309,
						-1.823148510269915,
						0.42098408911288926,
						1.7283904507712327
					],
					[
						-1.7197874563782012,
						-0.04954950730043692,
						-0.2684028413104711,
						0.6215621516136817,
						-1.2927162536097108,
						-0.5647879998104549,
						1.1502103505054004,
						-0.3825746743839387,
						1.6500876932365964,
						-1.1269106827323152,
						2.229635382334594,
						0.03505779367345129,
						0.8468401040351249,
						-2.3478582768707503,
						-0.19727615804369394,
						-2.305893798726636,
						0.4491870082549873,
						-0.7336127841893872,
						1.4324899256967467,
						-0.2925933950365101,
						-0.039589857830438155,
						-0.38767924692236844,
						0.3448820668931128,
						1.9675292655467091,
						-0.003428483036272134,
						1.888534741566447,
						-0.9174150626784671,
						-1.1555232166157468,
						-1.2871122327457596,
						0.2133342220731448,
						0.4324697185551644,
						2.161827326397863,
						1.1674247404750755,
						1.2589723149709147,
						0.6850471647412322,
						1.31188217272842,
						1.106477877598573,
						0.12281626409786313,
						-0.6184893438976227,
						-1.5659244292596026,
						-1.0410591709550407,
						-1.5825652244063169,
						1.5010849132884991,
						-0.30855587825627384,
						-0.6315134215833681,
						-1.7053875929140312,
						2.0151901555849063,
						-0.03757720828923441,
						-0.8414842892538418,
						1.4727651639355688,
						2.8298939580958855,
						-2.3853202270829064,
						0.37464211965536237,
						-0.2179421342531563,
						0.25807290796439075,
						-2.933296708789436,
						-1.6652369619052232,
						-2.0598919115318215,
						0.09407437376845162,
						0.5873255150908924,
						0.697472625816031,
						-4.902028336444455,
						-0.9137107761731831,
						-0.23718028901217778
					],
					[
						0.7069672556893583,
						2.4109421889545106,
						0.30632385134444307,
						-2.0869497651833613,
						-0.06626583937176159,
						0.9040396972328587,
						2.0170092829971917,
						-0.738415634683457,
						1.3660815600632223,
						-3.1573179793814568,
						-2.0859441942110797,
						-1.8000847484703553,
						0.7789985417328397,
						-0.8032409118348868,
						-1.745165199793988,
						0.09964307415744587,
						2.5340276312615053,
						4.4139701779147735,
						-0.47407778088115077,
						0.4531805246936584,
						1.270942896739669,
						-0.7362237773375687,
						1.9140855474646679,
						1.0456190980510804,
						2.247666412076094,
						0.9903502427726328,
						-0.34126415236140883,
						-0.2532483818882243,
						1.1515032935765834,
						-1.8222215540835285,
						0.682660179366533,
						-2.1944754363312953,
						2.2593331681058233,
						2.066120047850104,
						-2.0112569952983974,
						-0.3495189402967097,
						-1.0598041345359757,
						0.8774288491344231,
						-1.19209839636829,
						-0.0762823176879522,
						1.4553462175672522,
						0.19310693966187775,
						0.1511111107709156,
						-2.0273951449787164,
						-0.3283171049406897,
						0.7215065779959133,
						-0.2760021041702303,
						0.5463554029745188,
						-2.1579313724578606,
						0.3433259456083111,
						-1.5999903216848768,
						3.586854380496195,
						-0.449813694765605,
						1.8094778258112887,
						-0.8684814029905357,
						2.31712455862841,
						1.9505170256696964,
						-0.9995952672282238,
						-0.72285036765656,
						-1.556550259158004,
						1.6525357756999093,
						-1.4622850451497453,
						1.3834117411816074,
						0.4180178328559447
					],
					[
						1.465890775555708,
						-0.4124088368016239,
						-1.029993984203834,
						-0.7072285964340559,
						-0.8154616574962111,
						3.2767739698352845,
						-0.9378222129425827,
						1.5649607631294102,
						-1.3394895845039863,
						-2.084033107468162,
						-0.012770148752362709,
						-4.009005217310242,
						-1.9742374593840222,
						1.864426052629618,
						-0.29898637249082805,
						1.4402535691846559,
						1.479108345682102,
						0.24374004516936093,
						1.075043301048151,
						-1.099299358567996,
						0.7409488991094931,
						-0.3908153062075677,
						1.6449170964141153,
						-1.5089007138493589,
						3.4094229711344735,
						0.5384664522787931,
						0.6557777463620955,
						0.4411164321580573,
						1.592807781915102,
						0.6566879044244481,
						2.684527783166739,
						-3.4032449499134834,
						1.0721174681208847,
						-0.5919108136774932,
						2.221658833517769,
						0.3787206332754355,
						-1.0839344513113818,
						0.29546214304566554,
						-0.2737948796392591,
						2.4603976500850178,
						-2.29884699887938,
						-0.14145002266590972,
						2.131193824996358,
						1.3356866434482042,
						1.534183053493178,
						-0.45210313366415944,
						-0.20828840446797253,
						0.9862968671694952,
						1.9378151046092216,
						-0.8875940731632498,
						-1.5531629967890168,
						-0.22218420991501955,
						0.44916256957227524,
						0.7598383172681978,
						0.847262371942857,
						-1.3666839523507142,
						-1.8255752132770326,
						-0.9898446513786053,
						1.0561664220465117,
						0.8454282739716428,
						-0.16291789821553998,
						-1.0968769469184265,
						-0.14870240477499724,
						1.6758931292980903
					],
					[
						2.9963382353030052,
						1.8260119778018522,
						-2.0550812984659794,
						-0.9250288624637975,
						-0.754334355402623,
						1.3738993108685238,
						1.67798972575239,
						-2.599465193172638,
						-0.6526125164353102,
						0.8631246274793647,
						0.07847433121533984,
						-2.5625522590915213,
						-0.2526292669775975,
						-0.095587232835786,
						-0.36835862750731385,
						-1.2531743813151446,
						2.4444574554618335,
						1.3844799958865113,
						0.5027508791172466,
						-0.09013805013729156,
						-1.0461236293503384,
						-1.34612689142436,
						-0.1895675388511697,
						-1.2389339326811795,
						-0.5370124097421652,
						0.36089307541422305,
						1.5113581836739827,
						-0.7216136528468111,
						0.11325038301263686,
						1.7337051541967685,
						-0.17165411352615917,
						-1.0163070248471469,
						-1.506446495542242,
						0.686092794550488,
						-0.3471230432554056,
						-1.6467306025889208,
						1.0304007141302836,
						0.5969901833244886,
						0.018336880979985357,
						-1.0265027004280063,
						0.4782468371547206,
						0.35759499463464356,
						-0.22327413458190504,
						1.5907012168581505,
						1.5497207915457074,
						0.8278930104575074,
						2.1605368851233453,
						-0.23474167782532665,
						3.2987970545437793,
						1.1110465619172103,
						1.1980937725009262,
						2.3320368837317162,
						1.018859346411493,
						0.6057538327668216,
						1.1184969112447751,
						-2.8281311234581255,
						2.4922832731329962,
						-0.15538927791816456,
						-1.4823170778214185,
						0.6247795914263318,
						0.7751417726352368,
						0.13048520928277713,
						-2.919711438850357,
						-0.017427653981786542
					],
					[
						-0.9326033225952943,
						1.2607206981034338,
						0.6884044606257629,
						-0.5327582513912739,
						0.6832163948940209,
						-0.685764693723314,
						1.171735612911943,
						-0.876752531546613,
						1.3732659224335542,
						0.5786028072461151,
						1.8139335919298962,
						1.1278169035770618,
						0.14275859069252908,
						1.2822851442992702,
						3.193192280318105,
						0.5568189790073752,
						-1.6667118264197178,
						-0.5957590353928205,
						-2.1928773678249858,
						0.49482006733267037,
						-0.1301102564213396,
						-1.2487316651664193,
						-3.1965716489941034,
						0.8970442708350828,
						1.7464116108551633,
						-0.37704051258849275,
						-1.1937025014100733,
						-1.06383815126302,
						-0.2977629551355815,
						-0.27478041015945553,
						0.9374559698734743,
						-0.3306479971116952,
						3.6925989710785836,
						1.2243913744260202,
						-1.4157343728552982,
						1.4385451850178455,
						-1.8026768641941167,
						2.4239341405616353,
						0.91230719301849,
						-0.7053757844860001,
						-1.0834962249728348,
						0.7827823622564246,
						1.2411529032212378,
						-0.5447056359695539,
						-0.5846137559859043,
						2.6432205235781754,
						-0.6751266225736072,
						0.21888709360930966,
						-0.5634266667117025,
						0.43629476279360074,
						-1.58094725332557,
						-1.0468045354948416,
						-2.9689992463169954,
						1.0356475171822275,
						1.3440899408944336,
						-0.4303795733766035,
						-0.4686648499606067,
						-1.3032220667108323,
						2.252525630349784,
						-1.4668374162358218,
						0.13085013019158961,
						-0.5332465670130592,
						-1.5854619486422865,
						2.774644455791954
					],
					[
						1.1405329262203303,
						-1.469291461433003,
						-2.6101115075270247,
						0.7133137482279611,
						1.6036863085465685,
						-0.23236479911505312,
						2.1581965752191543,
						-0.2555312303959732,
						-1.3571065882943492,
						-1.0825852797676727,
						1.3738174398039498,
						-0.06099793587678306,
						1.5965631314495075,
						-1.3669204024408168,
						0.7565166707517766,
						-0.11097651123906349,
						2.4663653228750895,
						-1.390958198019288,
						0.8402192392662029,
						-0.6555326053566609,
						0.0031335589707239633,
						-1.0023533506381852,
						1.2321714604975669,
						1.8376372686624673,
						-1.1567069827304253,
						0.6580902178671416,
						0.7065038723307728,
						-1.903707665052204,
						0.5840771297323093,
						0.9635180340690528,
						-1.2152558960732704,
						-1.393170880100508,
						-1.0698852341128173,
						-0.10066498713931804,
						-1.038413167282748,
						0.058568309305864166,
						4.7571332272178335,
						1.2456587488262139,
						-0.6027525458244,
						0.7492955679658678,
						0.19328840926262594,
						0.09148899231209054,
						0.8433404361227417,
						-0.8571190544290089,
						-1.3421650200002395,
						-2.3438965246182204,
						-2.380050125512066,
						-1.4967143503680125,
						-1.080785211440057,
						2.6811920696243297,
						1.0592725367172668,
						0.7056402504782643,
						-1.049920772890991,
						0.89562744126063,
						-0.21716812001990368,
						3.7207505090634707,
						-1.469280994393256,
						0.8755990142687374,
						0.549072929413569,
						-1.2765347515108927,
						-1.3537073310489813,
						0.33729425980083727,
						-0.8506565331007806,
						-0.9184797952237508
					],
					[
						1.1028053790584325,
						-1.0094470148935368,
						1.9645186568182966,
						-0.19236340210041203,
						2.2659990823778866,
						2.029189187855427,
						1.382444254439244,
						0.5617542193562056,
						-0.4802099551452703,
						1.2027556796040348,
						-2.323784715055457,
						-0.9595828920356699,
						0.5841131615195763,
						0.5200143969165905,
						2.126068494447012,
						0.014355568214998626,
						-1.110970690238913,
						-0.04137381093303656,
						-2.0522996795672355,
						-1.2981408909825536,
						0.3375435140288127,
						0.036076861813582856,
						-0.7081530710112771,
						-1.5371209576879765,
						0.8319671625770464,
						-1.2562054266439406,
						0.15699885122219756,
						-1.2487595661168485,
						0.7732797893035452,
						-1.082858089755527,
						-1.2425116688379094,
						-1.5140336191074204,
						-0.502387011932412,
						2.7252496164067317,
						3.100563148998067,
						0.9063462768828585,
						-0.6076397438061644,
						-2.7432459252175514,
						-0.6228704170346405,
						1.7760979730735884,
						-0.613870300462217,
						-1.3587312392530668,
						1.2436980041533403,
						0.9559710312850301,
						0.7159218632699885,
						-0.711383709844433,
						-0.8134416980216876,
						1.0499796718669425,
						0.10801549551753334,
						2.2394923724568296,
						-0.44523145653997226,
						1.5382277696572677,
						-0.8664350617756635,
						0.37858311425899493,
						0.6545263236968247,
						1.6608105369250847,
						-1.1492309440425592,
						0.5517915812706086,
						0.11553961897239481,
						0.5136666477212906,
						1.6532327983970083,
						-0.628574282914824,
						-2.7796729981425443,
						0.38573882089958816
					],
					[
						-0.2599370809071435,
						-0.5244870359881341,
						-2.1823374194780536,
						-1.9047813015788593,
						1.4172483345642137,
						1.1335510579937498,
						0.17763149207398315,
						-0.16795047619191214,
						0.22732356876970358,
						-0.32780737789566095,
						-1.2103981239398425,
						-0.04191770076305025,
						-0.6797551191055229,
						0.5121053636612484,
						2.421641240418107,
						0.6011120610421087,
						0.6604774420325197,
						-0.5054463595518189,
						0.9573545430927743,
						0.19428733746309598,
						2.007587079315202,
						1.5587249196715132,
						-0.23454563851977342,
						2.162545665586286,
						1.3003863489451108,
						-1.4941300552776509,
						-0.9689397995244483,
						-1.5511931039483207,
						-1.223175770826454,
						-1.8196245600656844,
						-0.7864766759467905,
						-1.261605166353224,
						0.7994581693888578,
						0.04175581989145759,
						-1.017230332018922,
						1.0896509511510848,
						1.5184408805258627,
						1.1711708635819227,
						1.1412227657505007,
						-2.117517529261387,
						0.4376505143456224,
						-1.6777568581628675,
						-2.091457069105883,
						0.4591764446292085,
						-0.2472908232713691,
						0.023537179586329393,
						0.1825231844341199,
						-0.8835152970285735,
						0.9450520095045472,
						-0.2718794008858189,
						1.6099678641091366,
						0.6205116475908105,
						1.002378098868321,
						0.6170553925665555,
						-0.02082295573828015,
						0.7941163603328756,
						-0.6490193844228425,
						1.2287272425968596,
						-0.9033887789406501,
						0.4759631763882336,
						0.6555531034778197,
						-2.080891266706096,
						1.1072760624810032,
						-2.1380200341047155
					],
					[
						-1.866126073739385,
						0.11479396335356595,
						0.7465947430410422,
						-2.5274209184485277,
						0.18201784539524124,
						2.177504866448549,
						-0.7723460706154891,
						-0.3384741113796643,
						-2.5116817548772232,
						2.5251300458077695,
						-2.7354840380410153,
						-0.1432586900040496,
						-1.498873567247766,
						-1.929349990342293,
						1.0765950968512166,
						0.039500378277690394,
						0.21053032674564676,
						0.5146977642009869,
						3.3255513600314974,
						-0.9034252894208921,
						1.5611307935366503,
						2.4370934316979476,
						-0.8050227557366959,
						0.2676434675253342,
						0.2287117341215404,
						-1.2556066678987245,
						0.574593325311608,
						-0.3817539235913934,
						1.2697721538989635,
						-0.068382652298038,
						-2.754376545136379,
						0.09422309483622601,
						1.3535422575932614,
						0.6117266644437463,
						0.9050954799322529,
						0.9296444707142566,
						-0.9557838251198336,
						-1.042510576214153,
						-0.37828440942880825,
						0.49217009725071337,
						1.365241406641833,
						-0.42634729531050647,
						-0.5147468137387935,
						0.22373162854732478,
						0.2687264606812857,
						0.2299520294976688,
						-2.698434957333234,
						-1.5000539730473181,
						-0.36286759926891726,
						-1.1385862543896066,
						-1.903235014934779,
						2.0712351075770585,
						1.9439210545597905,
						-1.787515315006358,
						-1.348863585671806,
						0.8521189376044388,
						0.9605022909253663,
						2.718943402502156,
						0.9057593724149811,
						2.940175495026359,
						1.3600313795144814,
						-1.566426088167082,
						-1.1336513611653292,
						2.1828627539883216
					],
					[
						-1.7265060104705183,
						-1.0330843871385909,
						-0.3670273083735777,
						-0.6535362532832467,
						1.734085297214961,
						-1.2776598826114123,
						0.5094671466820687,
						1.7621439900082387,
						2.558218010907237,
						-0.056818409746700674,
						2.4304416538724833,
						-2.039081553799333,
						1.6904712849499928,
						-0.08333887575821065,
						1.7517774317557306,
						1.1685580049213464,
						-0.40378696698596556,
						-2.938464041114112,
						1.2092282872855975,
						-0.5895408702456623,
						0.0030468602332026085,
						3.0649325047060785,
						1.2423482880535408,
						-0.08213791248512854,
						0.17466452566353113,
						-0.9237259413481833,
						-0.9254396068039813,
						2.530218534037762,
						-0.5623387945668028,
						0.10127443359007349,
						0.0715197883784983,
						-1.804531036351031,
						-1.231681828339487,
						-2.8452362733649847,
						2.0833703367651863,
						-0.7725323500022417,
						-0.26760195900048933,
						1.0661564382776725,
						2.0839089987323085,
						-0.593657915821859,
						1.7710788908175017,
						1.5160235193410583,
						-3.585067199597889,
						-1.5712251172502285,
						0.01906313038748982,
						-0.8298162966278014,
						0.7003441588639501,
						-3.39319574358474,
						1.6665615435124925,
						-2.187483669275578,
						0.30857162518131354,
						-0.2648866433724653,
						-0.6636979554811546,
						1.21864178721208,
						0.08993394117609743,
						-1.849480846454303,
						-0.6272289485583449,
						0.4158246891406162,
						0.15658496831979718,
						1.294149602797577,
						-0.4205116775248676,
						2.430750255297558,
						-0.18940161116812582,
						1.7230275869372425
					],
					[
						0.4573006133023537,
						1.1791270656660853,
						0.2618945930004398,
						0.6161703620241764,
						-2.2974239418083604,
						-1.2129804035595033,
						-0.36888034516178464,
						-1.4507525274057298,
						1.2624890830735649,
						-0.7979627047042134,
						0.5690933684954645,
						0.6626409164296145,
						1.698188274250614,
						-1.0274142960594852,
						0.9043840290490724,
						-0.7362081002688319,
						-0.2425921477345649,
						0.6357456780045868,
						-0.5756005493622596,
						1.509737161368765,
						0.9753466611221776,
						0.4942337533562705,
						-2.7256751541481528,
						-1.7493759068062622,
						-1.7311883141752853,
						-0.9029369520577268,
						0.5967333607012134,
						0.1580788993545483,
						2.722875597769377,
						-0.44798178651537773,
						0.4367345802350583,
						-1.5212439190652618,
						-0.24968910721036208,
						-2.109883520236074,
						-0.431873678793385,
						0.205921751029801,
						-1.0536601489692654,
						-2.3363005141680064,
						-0.2902521688015158,
						-0.6561017169714274,
						-2.011033950005285,
						-0.48592281335434556,
						0.3725413422054415,
						-0.7092623829853222,
						1.3181278600133164,
						0.9883721657886697,
						0.05907226776853561,
						-1.285110039441305,
						-0.34235820376901993,
						-1.0071585934243952,
						-1.9881971908191194,
						0.23585215544858185,
						2.0655827156979374,
						-0.020171031965042982,
						2.2456058715906657,
						-0.2915036151474141,
						-1.8982112368028752,
						0.6380929432847111,
						2.922870112024494,
						1.1313265306505653,
						2.0581827639797887,
						-1.6872416100369452,
						0.7956443557523425,
						-0.12717197144972198
					],
					[
						0.46107762869619645,
						1.8373746768233932,
						-0.7328449202475095,
						-1.5251807724869166,
						-0.05148088788060472,
						2.3231178281777796,
						0.8943678039156148,
						0.5325866882113839,
						1.610076658157452,
						-1.842470200353384,
						3.275481150352221,
						-0.6957876808505704,
						0.16312358407816205,
						0.8354147528445788,
						2.40700955516304,
						-0.6567387138990188,
						-1.2897499572097684,
						0.24356203729516893,
						-1.4074839513142519,
						1.868927549022491,
						-1.8715944421920987,
						1.637594541000846,
						0.9161276473855976,
						1.627162421473293,
						-3.4921296134121387,
						0.5967616980228446,
						-1.021564492374728,
						0.7780262789948582,
						-2.596370138742963,
						1.8715721574114512,
						0.281443590126823,
						-0.674071629842698,
						-1.2269615778722789,
						1.7364327706693197,
						-0.6236041628264382,
						-1.0206640247083167,
						1.3684643169544353,
						1.4566305180240684,
						-2.1647882793121607,
						-1.378940461235103,
						1.8371733329154714,
						-0.5482143263115247,
						0.03251675853169568,
						-2.5787954179109427,
						-1.3924532332192285,
						-0.1206658701796019,
						0.5724406538472576,
						3.8771056820162095,
						-0.7653312845504997,
						1.2774028656800507,
						-0.17545057440733086,
						0.4149970025767649,
						0.6349840325835,
						0.43902953056691874,
						-0.009101921276837427,
						0.40866548067141134,
						0.8265645034045794,
						0.23124330846701543,
						1.618365706068129,
						2.6619063660767655,
						-0.021093872436775712,
						1.045907705381785,
						0.8377786880445093,
						-2.0104268375842618
					],
					[
						-1.6463274221962025,
						0.8038510721935956,
						-0.5978912439098836,
						0.08978122996921829,
						1.2436674553419251,
						-1.291982330066852,
						-1.5223249875587113,
						-0.8160188357272203,
						1.4551490311113833,
						3.2216572194803086,
						-1.3198349689167803,
						-0.011703382740337498,
						-0.12807163879814892,
						-0.6555617100412715,
						-1.3128597582465271,
						1.280663686378327,
						3.1817357318905968,
						0.02990643113906051,
						-0.3131734990377084,
						-1.3217158292681626,
						-1.8681769855359736,
						0.6974194241769156,
						-0.2572249505405286,
						0.5944600141115114,
						0.8971330629758298,
						1.2831450632460406,
						0.18185880089305773,
						-0.1989425029277507,
						-0.2936075372618877,
						3.5449502877036427,
						2.008400872323007,
						0.45468772928740514,
						-0.5507256524427272,
						-0.849765361666204,
						0.35662965841979793,
						-1.1010758242457417,
						-1.8232489028129721,
						-1.1344804212852626,
						-0.49365674035553075,
						0.4697272516047675,
						0.30642063479033277,
						-1.8848028410399447,
						0.3681541994257026,
						1.0338137604828876,
						-0.3832007296200412,
						1.0262515034603195,
						-0.2060935398633783,
						0.7199325816270261,
						-1.3021745759101113,
						-0.6149732021411585,
						-1.7317700201786081,
						0.6041030008881588,
						-3.570343278508919,
						1.5230644229314239,
						2.5300263598296824,
						-1.188363524577221,
						0.3424477416271126,
						-1.160475774261373,
						-0.6267901884484712,
						1.4508906354938023,
						-1.18078242050879,
						0.15793141648572695,
						1.3457615265415714,
						-1.7962117560194846
					],
					[
						-1.3881798024374568,
						-1.1209230764920868,
						-0.5747355928692154,
						-0.8669325783913255,
						1.5047753437859608,
						0.07870676635312104,
						0.7766982161826653,
						-1.0325783317917563,
						-0.2454264298260156,
						-0.11782207467547341,
						2.2987234291699408,
						1.2947240796506654,
						2.082332120722975,
						1.9691890471822964,
						2.347847565393403,
						-1.3855101741928566,
						-1.2775031647144726,
						0.10465056429332106,
						0.293944543413035,
						-0.405569880595957,
						-1.4657981055884266,
						2.565336294543232,
						0.7946275646826517,
						-1.590855203529652,
						-1.82675251671999,
						-0.736726402001046,
						1.0374609657766194,
						-3.3169205172573224,
						-0.8088340884723498,
						-2.5467266461435156,
						-0.791757750602614,
						0.42930321116020354,
						0.2725270727400613,
						0.27594767692258376,
						2.3765821150898168,
						0.4748703486683378,
						2.343231125868018,
						-0.21898033976392137,
						1.539353454218098,
						-2.17492965833079,
						-0.20198810284728336,
						0.0512547368139363,
						1.8067196966373615,
						1.7425243118526164,
						-1.593245911180859,
						-0.6279176090441161,
						0.993672191181754,
						0.47214947600370344,
						-0.12001380840846045,
						0.7376859333211669,
						-0.8983870583755489,
						-0.29531927426152793,
						0.8763425165613372,
						0.9464938899794163,
						-1.3863457450165355,
						0.04680759675923865,
						0.19237013823001,
						0.5182905374430522,
						0.24760023395939693,
						-1.03564546273079,
						0.1500991354885437,
						-3.342600110129418,
						0.20653941331628478,
						-0.9754141043002841
					],
					[
						-1.8915985665955448,
						-2.421047874531132,
						-1.2165385996452107,
						-0.29804760139219016,
						-3.1543483110854096,
						1.3290958221363547,
						0.09183639996267022,
						-0.25875843668841486,
						-0.6722210712255688,
						-0.05797745691086886,
						-1.072382717382088,
						3.238191627355292,
						1.6841939234812615,
						-0.6787869783361922,
						-1.7886008050214977,
						-1.667792769560466,
						-0.5330991569733449,
						1.3171083342350978,
						1.9816110420490611,
						-0.7234631361892482,
						-0.8838842406118275,
						1.8204477713808376,
						-0.1250516755122067,
						0.10708412761871967,
						0.33051050043230407,
						0.46988408846414015,
						-3.374665887386487,
						0.9503519468598834,
						-2.0000887761296435,
						-0.35592766178572843,
						0.3644923019032543,
						1.1486773680194124,
						-0.8541836744508983,
						-1.0666256301028074,
						-0.23409653588663482,
						-1.1827586629032938,
						-1.2508113694132532,
						-0.0735805617038315,
						1.192563579896911,
						-1.1109451619523856,
						0.5857801339959956,
						0.8386690938675258,
						1.3786375651104652,
						-0.47208396521616197,
						-0.402305278214556,
						0.8933175660310024,
						3.160523315212774,
						-0.6462905115296459,
						0.5798525670323771,
						-0.7798967114466802,
						-1.652779088511652,
						1.1520404248781977,
						-2.760249378234433,
						-1.1336483518318623,
						-0.2766273954568757,
						-0.2870613755646335,
						3.9293382723221018,
						-0.35682408384152114,
						0.3227962960908591,
						0.2697458775175729,
						0.14949000492313552,
						-0.02347800831760223,
						0.18557433066535495,
						2.046450100157554
					]
				],
				"biases": [
					-0.3159608403160542,
					1.1429255433529508,
					-0.5162776278330801,
					2.5315734694386434,
					2.079128727059912,
					-1.4620131557560356,
					0.08121934738369498,
					-0.4375868703890562,
					-1.1264494503932858,
					-3.096969851459796,
					-0.19005657754944694,
					3.8833862712334573,
					0.399018096889195,
					-2.95307942552258,
					-0.11549972691184966,
					-0.009011973663898838,
					1.0188469756829455,
					1.585332502777828,
					2.2784501202821312,
					1.2311774716977666,
					1.5377261190052498,
					-0.09172997953893218,
					-1.9845107711457082,
					0.7578144609130172,
					-1.4343342660014369,
					-0.927513239437739,
					0.9959877842983411,
					1.0199716101376817,
					0.32565642053937366,
					1.7284569019508143,
					-2.3099328566853377,
					-0.6695818633576971,
					-3.398817686411005,
					0.05778185359011362,
					-1.448619256541539,
					-2.4855161234119203,
					0.2221759622266473,
					3.3845155542511627,
					1.7390533296834199,
					1.6650507616724146,
					-0.40397149249360775,
					3.035246979934528,
					0.46836876755498164,
					0.714144341540173,
					0.4521465572819608,
					0.17630735655105817,
					-2.022365068159941,
					0.037225461426751705,
					3.036558797807325,
					-0.9688229190149172,
					3.07983448798618,
					2.0076884865314812,
					-0.11458232858433698,
					1.6877804686950701,
					0.5413423888130318,
					0.47615204901920194,
					0.952103034524051,
					0.2999493831681612,
					-0.5040240054936955,
					-0.634182443826715,
					0.911515474849671,
					-1.989627210082583,
					-2.4869267663007575,
					0.12171417908679896
				]
			},
			{
				"n_inputs": 64,
				"n_outputs": 16,
				"activation": "Sigmoid",
				"activations": "None",
				"weights": [
					[
						0.16782954749031626,
						1.191973573444698,
						-1.3964360262495261,
						-1.240417565645935,
						3.097394359458048,
						0.8613024996371433,
						-2.237026979155947,
						1.0515288497216924,
						-2.703537913410488,
						-3.2467862994865833,
						0.28782929260934387,
						0.007307062012904278,
						3.4679577456018724,
						0.0422969719388758,
						-1.8643072514488814,
						1.5033363826328174
					],
					[
						-0.7898748786835385,
						2.6496635126012062,
						-3.4439457735073296,
						0.32294847586488623,
						0.260504457507162,
						1.0266130501350614,
						-0.0921679954195615,
						-1.4536954907068023,
						1.1121921082337531,
						-1.8553527656624893,
						-0.6720901534205648,
						1.589971779022904,
						-0.6059692776530855,
						-0.6733289964646515,
						2.234753041887996,
						1.5989688926756906
					],
					[
						-0.9653885306231219,
						0.5925896403990007,
						-1.9237771770289571,
						-2.3399884748685764,
						0.5676549213184616,
						0.3605785892732926,
						-1.9946356571171935,
						0.4204265854188358,
						-0.381530167725629,
						-1.5006970073692831,
						0.1777751570185367,
						-3.7874308897989892,
						-1.6071573374203545,
						1.8007690990446108,
						0.9234011090177336,
						2.7198209681515815
					],
					[
						-0.6295086103705998,
						1.450242584447892,
						0.37058637339372136,
						0.22309058864662173,
						1.690403039825501,
						-0.757789540973891,
						1.801216687803221,
						-0.013222338809100525,
						1.4817482250242642,
						0.4644023303687126,
						-0.4865694908052819,
						-1.1925672028037821,
						-2.7514368650922814,
						-1.416976099054197,
						-0.7007801615800626,
						-0.38351632977173356
					],
					[
						1.0033323881263139,
						0.015263458256853553,
						1.388102380442813,
						3.1100867131175907,
						0.6161870616036303,
						1.6629165935760446,
						0.9291074989108314,
						-1.7586495498507158,
						-1.2220724792084467,
						-0.5142558355537303,
						1.751117215748159,
						-0.13116186360252496,
						0.025644560290901675,
						2.2411226875950745,
						0.5046289342638491,
						-0.6506944970316983
					],
					[
						-1.7454335156583436,
						0.17143652589030456,
						0.30419597725783404,
						-0.32325360678013954,
						2.4293967493938218,
						2.229423168332431,
						-0.25307384141527944,
						-0.5117889819689654,
						-0.1758804448159394,
						-1.6758199851018287,
						-0.13928153697253026,
						1.3700865498335522,
						1.855635654005636,
						-0.722633201121434,
						0.32083960360784325,
						3.0129760024548617
					],
					[
						-0.16342629797332173,
						3.4990803581937944,
						0.6807222778641707,
						1.2067307893182768,
						-0.6220159592986725,
						-0.10554571786500075,
						0.9116922292071183,
						-0.664898610984686,
						-0.5496230066697271,
						-0.004531758032336353,
						-0.2893304551496868,
						0.8002564733843263,
						-1.1359961571726878,
						0.46042569317688686,
						-1.2828662338035322,
						0.8656278040799069
					],
					[
						-1.1549013799845598,
						1.5031982651156146,
						1.0610900941209909,
						-0.4070785053397444,
						-2.2940211415669283,
						0.3848693710577294,
						-0.7434819363089784,
						0.10411243583870529,
						-1.7351377365189167,
						0.6597034148557027,
						-1.1076139865859296,
						0.5185206191347358,
						-0.6005060991297081,
						-0.24132753950772756,
						-0.17679573687218797,
						1.0129838877037283
					],
					[
						-3.2483925683111985,
						0.7294686843676074,
						-0.0646406306383964,
						-0.6655810272223606,
						-1.0063702883437216,
						-0.06862433235789198,
						-1.393500426521431,
						-0.396945479395891,
						-0.8601262195449018,
						-0.1409528966517284,
						3.739870148764768,
						-0.8199769177313729,
						-1.3508054490916364,
						1.7734062471188106,
						-0.4728471737953908,
						-2.535590237385659
					],
					[
						0.8675345515154369,
						0.17052168242268487,
						0.7474289212671568,
						-0.9927998011672234,
						-1.8608748274193154,
						0.9818856736336661,
						-1.9589186562167447,
						-1.0180387597626557,
						1.188445278935262,
						0.03047973195547976,
						-1.090558704385448,
						3.46275034880631,
						0.32553845431387696,
						-2.2652513855253615,
						-1.3195210847605312,
						0.8805253829069849
					],
					[
						-0.3223100667032922,
						-1.6165251143960873,
						1.6369235620399405,
						2.0488838802304725,
						1.6821397268996927,
						0.6996027108901297,
						-1.0594331697487038,
						-0.5709283217755534,
						-3.4468207457946938,
						1.80460834099178,
						-0.5550568522467806,
						1.5872433870476776,
						0.5265756256873321,
						0.8931829040622548,
						-0.1065480787462324,
						-0.3926539729119086
					],
					[
						-0.6834536975878718,
						1.5483531019950971,
						0.09768776438054629,
						-1.158631240116114,
						-2.4605668717320803,
						2.4541778495051334,
						-1.4130728145372744,
						-1.0490808330305708,
						0.8365812024589565,
						-0.7875365152799761,
						-0.1852514647273455,
						-2.558073244197199,
						0.43398451971928237,
						1.8661028528753965,
						0.574939524427088,
						0.21786540745149258
					],
					[
						1.1541564375388278,
						-1.5914933514630134,
						0.968043599460207,
						-1.6437507821655255,
						-1.2018124229432707,
						-2.7524532863471443,
						-1.4033733784033933,
						1.6106178797296327,
						1.470387609862952,
						2.522900777737156,
						-1.5918882432955388,
						0.5621008600499978,
						-1.1208324092049171,
						-1.7146498124659517,
						1.99623170717759,
						-0.36220229369426193
					],
					[
						-2.0468334733903686,
						1.0860424148283763,
						-2.320467465034181,
						-2.1324469193387126,
						0.7926649169661164,
						1.7476723919406776,
						-1.2926891810314836,
						-2.2493031650623405,
						1.279492807486837,
						2.213101476312858,
						-1.257331749099861,
						0.22238933487882484,
						-0.4140122473577476,
						-1.5558451324425009,
						-0.18199296612723023,
						0.4395307241096469
					],
					[
						0.05942368858211842,
						2.1889107896133133,
						-2.529407929298369,
						-0.7260685379886533,
						-0.4034516567847516,
						-0.8051195980572303,
						0.7572767135906119,
						2.1278209887998942,
						0.9752600951902188,
						-2.4170693319417205,
						0.38035625343517704,
						0.5428867261356805,
						-0.16857724913485267,
						-0.56990517621348,
						0.493974045538962,
						-0.5923545442964167
					],
					[
						1.4010191201224382,
						1.2452459453192597,
						-1.9962580299846744,
						2.001504872589584,
						-0.5690919644457724,
						-2.479470343480324,
						1.4077198911486568,
						-0.3549471784655849,
						2.3300082726578655,
						-0.21187170573880187,
						0.3763422446080751,
						-0.5174789556310436,
						-0.44168176446009,
						2.3772978127868605,
						2.145331449275742,
						-1.853498894366984
					],
					[
						-0.09510511157366511,
						1.3988217009154194,
						-0.4079075547437188,
						-0.6151496548235086,
						-1.357117490186481,
						-0.11534441397500317,
						0.05771217737822831,
						3.3867879534027243,
						0.8063642246276135,
						1.8452402391572968,
						1.1307603139874753,
						4.034808530148737,
						-0.24146327375971804,
						-0.8398519684958796,
						0.15595782038689787,
						-0.9610593491135145
					],
					[
						1.5695344465667311,
						0.9472339551031789,
						-0.6493237635397289,
						-0.9642303583438462,
						0.8387333155723796,
						-0.6713454501015163,
						-2.005182864808303,
						-1.8935682597951229,
						-1.2965629728621129,
						0.10374538547987969,
						1.0681274650619055,
						-1.762062801516553,
						2.4586525441019433,
						-1.3749217355014265,
						3.0561944910970276,
						0.5278698524195147
					],
					[
						0.4044898224338346,
						1.5261405575978249,
						-1.6799517892177365,
						0.31348563451842093,
						-0.7180737790546406,
						0.04493415970204478,
						-0.5759079688144523,
						2.340484680370548,
						-2.428116955103282,
						-2.0759495883574473,
						1.319238504397479,
						0.5663812445202455,
						0.7111691882511103,
						-0.6256165126746326,
						1.2361058989713951,
						2.450953235190962
					],
					[
						0.07633808215440968,
						1.1093728782796664,
						-1.8343070613804273,
						2.373594833346414,
						1.7627942920584472,
						-1.3841705626906027,
						0.6670836166959921,
						0.009395477627485195,
						1.8969596666651107,
						-1.6559211907571025,
						-0.642382977108779,
						-0.4154864342194973,
						2.2064859886564356,
						1.2308472279605212,
						-1.6166444558024904,
						-0.9879610716339341
					],
					[
						-1.646674431442659,
						-0.7242263654291516,
						0.5766731561000671,
						-0.03764432242000693,
						-0.5269894277883982,
						2.983969171066305,
						2.3847682997693465,
						1.6982715124798662,
						1.402039152980559,
						1.3396688975535276,
						0.007179440103760941,
						1.648130526105732,
						0.11049165320528556,
						-1.328046443713078,
						0.11406572212006322,
						-0.14544282679458945
					],
					[
						0.008055525254966923,
						0.18740435722104057,
						0.49046922115467095,
						1.74678427999935,
						3.2890921902013632,
						-1.8452960347434444,
						-1.5909628331996777,
						1.7212458920715163,
						1.2263977890120288,
						1.154528971582808,
						-2.8232373240794244,
						-0.21062713628734683,
						0.8638271757360975,
						-0.6371580208429283,
						-0.6104119421253906,
						0.3770245388322707
					],
					[
						0.743001861903116,
						1.3033387487225632,
						-0.4657426795881849,
						-1.8629850829158934,
						0.41206579249605707,
						-0.6060054990204106,
						-0.6594236902448752,
						-1.1251889904000427,
						-2.1872647879603035,
						2.0024706121495846,
						0.4099119994793562,
						2.8307605020863065,
						-0.7267501778560863,
						-2.1307317395793284,
						1.9049424586809152,
						-3.2038942428349197
					],
					[
						-0.08699073492833331,
						0.8348385267907293,
						0.5558692067030531,
						-0.3007026114182088,
						0.6932776355871108,
						2.245402706438109,
						1.6214723550293886,
						-1.7198311440340555,
						0.9129043340354189,
						-0.178676318022737,
						-1.3829194013051556,
						-0.6550727251892364,
						-0.921446921977417,
						0.11032523258533326,
						0.5618659798046378,
						0.5379333602953077
					],
					[
						1.1510903300838637,
						0.4270359502254135,
						0.2942005674782002,
						-0.27046776702910375,
						-0.5215878104563101,
						-0.06753792998630853,
						-3.8474513179582313,
						0.30067454505065583,
						-1.1852581133993376,
						1.292301282989425,
						-1.0778508106546432,
						0.16447175053169577,
						1.0690612105311244,
						-1.390011890357558,
						-0.9911071802293436,
						-0.03706275794386647
					],
					[
						1.1297274825552552,
						0.8454474812228717,
						-0.5915337371492405,
						-0.9811436025443259,
						0.9316000808603815,
						-0.8121362401724533,
						-0.2658918927044408,
						-0.23370795564879768,
						1.3127716205006996,
						1.0336318215552467,
						1.251938221270527,
						0.7394060076819311,
						-2.7094669328048075,
						-1.0135324423290075,
						1.0175144095649142,
						0.17336412297682077
					],
					[
						-1.4545551500084926,
						-1.4521960432442953,
						0.6881861587873807,
						3.3966297547099096,
						2.6259476311767678,
						-2.2002351391286723,
						-2.4266151946777708,
						0.46614859638257106,
						-2.0243359340147205,
						0.9616662231782268,
						2.2727802665893555,
						0.44552157813868326,
						-1.2617257607556522,
						-0.29833446959544035,
						0.5555293940265587,
						-0.26638591901497954
					],
					[
						-1.830695296409874,
						-0.5005968577142957,
						0.14208139394657204,
						-1.775240653973819,
						-0.3485054095837568,
						-0.3736761830349585,
						1.1373437641079087,
						-0.4315806572342325,
						0.9340023192321557,
						-0.67715385254213,
						-2.8169264410975283,
						-0.28008143811766734,
						-0.6537359815348774,
						0.6128151318358755,
						1.2024060406385817,
						1.387943671587613
					],
					[
						0.9955714402666407,
						1.2282433077434824,
						0.9716049809206245,
						-2.8128979962457223,
						2.459185735118206,
						-0.048764129106238174,
						-0.6286394173619428,
						-3.0273430778426156,
						1.1252146728412977,
						-1.6005962713603787,
						-1.002248820967111,
						-0.5995385113509285,
						-1.5342741248711869,
						0.6945795875052996,
						0.012925324503781963,
						0.7925154404135322
					],
					[
						-0.1435776374608096,
						0.6988301099281267,
						-0.07435118195690607,
						-1.085553635176125,
						0.22769419122095538,
						-2.228896539081591,
						1.0509260889227214,
						-0.03929682749531681,
						0.07886841732419655,
						-2.8720482790848516,
						-2.0191120216527105,
						-3.0785948134715238,
						-0.7063941572648296,
						-1.6576358309737973,
						0.7752244000623046,
						0.7601163689416651
					],
					[
						2.530206350596208,
						1.8001531759070803,
						2.7722194947833416,
						0.20965777879501665,
						-0.06504920223056694,
						-0.7148400990657704,
						1.0195797390784678,
						-2.494956184103687,
						-1.5294609874132457,
						-0.20660260328594288,
						-0.9012927119313595,
						-0.39937295930660915,
						-0.3803893007485478,
						-1.3693469813057466,
						-0.5939791336531645,
						-0.39367881471416194
					],
					[
						-1.0030310877008253,
						-0.9748611222701762,
						-0.8065669078903661,
						-0.4569065347689412,
						2.359904826911436,
						-1.8180887191842219,
						1.936555116468211,
						-1.2999198148069773,
						0.17500946352694108,
						-2.1748325291574635,
						-1.2442291735232218,
						0.5255757835204754,
						0.832037033984294,
						-0.5570933008719698,
						-0.14027846913598097,
						-0.03600551201200927
					],
					[
						-0.04877905099376206,
						-0.0924247831609242,
						0.3093011071651737,
						2.635415099819397,
						-0.6765020273862844,
						1.9412051346772734,
						-1.7124440378495824,
						-2.6019760511545624,
						-1.2061058375794214,
						-0.27024753006446295,
						-0.010692774209664316,
						-1.3832403394463817,
						-1.1032665129287362,
						-1.6137501422118636,
						-1.034892135808835,
						0.391419953618769
					],
					[
						-1.397355931110144,
						0.7004852810747692,
						-0.8055301918146794,
						-0.8889103871662034,
						0.7363569969804346,
						0.9838385766089139,
						-0.5833864043190005,
						0.3491354752980189,
						2.6629936642487513,
						1.6629602683371218,
						-1.937132103289595,
						-1.21779494467906,
						-2.020662123846147,
						-0.06180203820200779,
						1.6161358374850845,
						-3.8957443941412193
					],
					[
						-0.9511979071130597,
						-2.0171714464671417,
						0.5544730725463137,
						-0.6115604983315951,
						-1.0251352979093082,
						1.4252585222421197,
						1.8862696239690406,
						1.0706032914431662,
						1.0258399043190365,
						-1.3271285587311563,
						1.8341743462086029,
						0.4362549226545047,
						1.7826371030013537,
						-0.7694407321152994,
						2.2772851467610202,
						0.7282599721669669
					],
					[
						-0.6324521006115731,
						-0.8385591730712969,
						-0.1468688460169488,
						-0.9121549108093717,
						2.8542709758844755,
						1.8813271104874882,
						-1.013886764665223,
						-2.3567778682173226,
						0.03207783675173279,
						-0.3955091121835606,
						-0.08607425934902767,
						-1.960539736405802,
						2.5584376235744744,
						-2.540401565949774,
						-0.8149960637982212,
						-0.3682834433071847
					],
					[
						-0.5138227356904761,
						-0.38364839214186275,
						1.5862378990857486,
						0.7378185851463785,
						-1.4705280267768486,
						0.09077090552391143,
						-1.4659830301856103,
						1.4093524829385609,
						-0.9240184675371088,
						0.10110427499363449,
						-2.7451663461479585,
						-2.40539803729557,
						-2.210260143377033,
						-0.5353421173393895,
						-0.0078068610695171126,
						0.9484025415023691
					],
					[
						0.6726860525142973,
						2.0821336873079592,
						-2.105735356406331,
						0.15685489762766242,
						1.5316141028067878,
						-1.080014916297314,
						-3.622366578918175,
						2.185069096232879,
						2.004059239828125,
						-1.4899645383741653,
						-1.7835931640862415,
						2.2372393167597675,
						-0.7288443855344172,
						2.824607413698583,
						1.6142710182086633,
						-0.3216629565175855
					],
					[
						-0.06567488814224287,
						0.7887785512906795,
						2.180349510076029,
						-0.8311453904216946,
						3.8356655438812624,
						0.013808881264486459,
						0.23083665581374382,
						0.21160982508308784,
						0.594690892142416,
						1.5726769284806248,
						-0.770013467035561,
						1.3814448277118472,
						-1.6507137633579196,
						-0.5236964241517316,
						1.6669211471846923,
						0.6507034595666682
					],
					[
						1.031848288892377,
						-1.363721883339034,
						-0.32361053754949914,
						-1.3669876517351969,
						1.2098024782485919,
						0.12686920444497035,
						3.2874615222788988,
						1.4794148334325028,
						-0.6251997834742953,
						0.5003269269390733,
						2.1288291756205466,
						-1.5215639429290844,
						-1.5306266904274448,
						0.5184877403268995,
						-0.008503811631510594,
						-1.5489694840143375
					],
					[
						-0.8781674157914807,
						0.6783199348291848,
						-0.29226039078325117,
						0.2815619407987622,
						0.06601473218878896,
						-0.9003974053454982,
						1.059321711472057,
						0.9797781100341695,
						2.817565664736737,
						2.618699583796033,
						0.30978849176499135,
						-0.2849148432471716,
						-0.31864449021221025,
						1.3690864530834084,
						0.22829101559865891,
						-1.974911950915308
					],
					[
						0.16248481927045688,
						1.7971387588532215,
						1.1039326070186901,
						-1.530624638196468,
						1.3589735357038506,
						0.6168436471712042,
						-0.6920126722313038,
						0.7802910903142087,
						1.995819731294608,
						0.6828886714171689,
						0.7615833429502183,
						0.17254529257335074,
						-0.4648384456755125,
						1.3088143483152355,
						0.15683661058541237,
						-1.3866293763047932
					],
					[
						-0.09435779465660868,
						-0.7925203472555766,
						-0.7673353433158041,
						-0.7463227939101175,
						-1.4875941413114062,
						-0.22230110416024781,
						0.4845318853694014,
						2.9280985624757223,
						0.35668041613147516,
						2.251088324865977,
						-1.0079510904455333,
						-1.5478483496306163,
						-2.5058992103713114,
						-2.2310470080279456,
						0.31737521345200775,
						1.262596248846149
					],
					[
						1.2638087357025458,
						-1.7032833317159628,
						0.7311397211766233,
						0.7929724108577707,
						0.07408158319847939,
						0.14259486077024336,
						2.5488259253071273,
						1.3373800743897035,
						-0.6960244627555721,
						0.03599221974953029,
						-0.0144170136679782,
						0.729972479565439,
						0.9647734560407057,
						-0.6299334010917477,
						-1.1993506567969079,
						-2.426959465621064
					],
					[
						-0.2657764058228611,
						-0.5103100111000063,
						-0.44699464463668903,
						1.1940325638030032,
						-2.497023419872052,
						-0.9615226791305134,
						1.9235782378240953,
						-5.097122801074551,
						0.7039973527291532,
						-0.5769233724039657,
						0.4232948383662281,
						2.816895111450408,
						0.9510909341309091,
						0.670084935622354,
						-0.8003277494036845,
						3.468434769079244
					],
					[
						-1.5900386498690393,
						1.8926350166571788,
						1.4192062904511313,
						-2.3389957609276735,
						-1.2011061094436024,
						-1.8171960736904456,
						1.0439391541238523,
						0.3525571221772734,
						-1.291322126786009,
						0.1076079599062655,
						0.04038291227384774,
						1.1434319129314983,
						1.0853866530488294,
						-0.2812210994236009,
						-0.7161881876649815,
						2.1180499424699937
					],
					[
						-1.0552449965528072,
						-1.607205667629812,
						-0.6390951241856037,
						-1.1400519411257366,
						-1.30181643309774,
						1.3639550438565793,
						0.157966255162731,
						2.1684610942356515,
						1.6805416192737381,
						-1.5193436800313143,
						-0.0567184291653519,
						0.12992589636792073,
						1.1401037709977186,
						-0.9897257422065732,
						-2.3122353094009833,
						2.8033698034554444
					],
					[
						-0.023011565852032526,
						0.08343767820366482,
						0.6139988772202303,
						4.177914514880344,
						-0.777331108786518,
						-0.148602522556238,
						-1.4221813777269707,
						1.7395732043217713,
						1.143681126753495,
						-1.9633283917332018,
						1.2171061662675122,
						0.5940243462891884,
						2.4346365844310434,
						1.0117042403658347,
						-0.5337222563333318,
						0.3253599686014598
					],
					[
						-1.6917751491773423,
						0.38231353285729286,
						0.7797047019067337,
						-0.23978935648814056,
						2.902735007705506,
						-0.05167603078907371,
						-0.6787446053978314,
						-1.6560437280928875,
						-0.35969670531466946,
						1.3136286784882423,
						-0.5528431862457757,
						-2.6994350370267908,
						0.7489270277383773,
						-0.5506493704429305,
						0.9390279989228874,
						0.8032575381629817
					],
					[
						-0.8690058617705594,
						-0.2520089609112882,
						2.390506854405717,
						-0.7798142906667676,
						-0.6948460823266659,
						-1.4527583895878722,
						1.4359600377092343,
						2.063424368693072,
						1.3570049348525508,
						3.38742216899361,
						-0.7813571710114537,
						0.3328493043089711,
						-0.1302289242477006,
						-1.8301257142363963,
						0.3386821606354106,
						1.1781903953449093
					],
					[
						0.2928853050558613,
						0.22337936740042882,
						0.5923184336383609,
						2.133431783293108,
						1.5423617642638314,
						-0.04286217643794064,
						0.2599622232230521,
						-2.0477742666587013,
						2.0010736741086443,
						-0.4464126633563942,
						0.7290164180591509,
						0.3042970809400723,
						0.6165494468726374,
						0.6653670886801433,
						1.0745331835357113,
						2.0903724475277063
					],
					[
						-2.1614900569442845,
						-1.4047833901656783,
						-0.5214035484335429,
						-0.6841435296837521,
						-2.1871361044398627,
						-0.2993061458698923,
						1.3379737196321053,
						1.2789380130721297,
						-1.014160346802157,
						0.38446341297524095,
						1.0318159635652733,
						0.7673406180415897,
						-1.355324476932003,
						1.3053170177222895,
						-0.40282543973434376,
						0.7206562732466943
					],
					[
						-1.900201196548379,
						-0.4333270431669151,
						2.4754831938646835,
						1.3205077987859557,
						-0.4211046831996894,
						-1.5349110314442334,
						-1.5143453830096092,
						-2.660792086132919,
						0.1637201950513283,
						3.846897018220563,
						-1.5761157931205576,
						0.6796309450368988,
						-0.020930085158484338,
						-1.1522131962795619,
						1.309577679905603,
						-2.413389308983689
					],
					[
						-2.3291385113856204,
						-3.3010234645998437,
						0.1700302498606937,
						2.0449544129884663,
						-0.8195199773814439,
						-1.601058427486314,
						-1.2614447657845052,
						0.0013261090153427468,
						0.2671786909766635,
						0.031994954877882724,
						1.8279895722215551,
						1.7966317416349147,
						-1.1274429792752174,
						0.2958078511327077,
						1.5694293211777988,
						0.49517575667576597
					],
					[
						0.879921613553752,
						0.9624661672998566,
						-0.9423341656437343,
						1.8250550715377059,
						0.7880398495059522,
						0.23443527417274612,
						-0.8759522291009836,
						0.772326514888581,
						-0.1311058176532645,
						-0.6022648693434506,
						1.1983527798005953,
						1.072016806795976,
						0.7598547148677351,
						2.1166420918103364,
						1.2996819669384252,
						-1.0440961654676408
					],
					[
						1.7913489596885601,
						1.7339569418327183,
						-0.9424633504754596,
						0.8083938349861235,
						1.0374632530819279,
						-0.8689547134456341,
						-1.0478565752069418,
						2.6174218615976566,
						1.0790354595883647,
						1.1174587022749047,
						1.0968975392095561,
						-0.2390359028180173,
						2.917341955856653,
						-0.5972216512284277,
						-0.0011886616104349532,
						1.0274237345144446
					],
					[
						1.2349691944782826,
						0.15188218312889157,
						0.3039965269459621,
						-1.6322505598959771,
						-0.7685187510972862,
						-0.9903522821235902,
						0.7245001031980801,
						-0.2933751068028012,
						0.030943486045427016,
						-1.0477689191985913,
						-0.5338984927029256,
						1.0472197332424407,
						-2.1286361709182207,
						0.8817657851043006,
						0.20861145309081117,
						0.9616429819945795
					],
					[
						-1.9029681609528761,
						0.41820681340392885,
						-0.5476470907564064,
						0.2723038636009862,
						-1.9200537711012076,
						0.31892493358226204,
						2.1868128636718125,
						-0.1172811209978849,
						-1.2097922935859582,
						-1.8299239288312286,
						1.8627617615111902,
						3.3253988393912595,
						0.6975315476876716,
						-0.5813698289239314,
						0.5311315031296183,
						-0.04409002078141433
					],
					[
						1.4849864450680779,
						-1.642169004395693,
						-1.2430421050837661,
						-1.3497679475212394,
						-0.4370740762485855,
						0.07647169020858041,
						3.232709355980958,
						-2.8562265490460526,
						2.4459432355010096,
						-1.1542418251789759,
						-1.089026205470899,
						-0.3374774106881001,
						1.8365718319649036,
						-0.560241316751508,
						-1.9399690092801494,
						-0.4099447039466141
					],
					[
						1.0538818463390878,
						3.4543587162136205,
						-0.1260718896743942,
						-0.483540416997618,
						-3.165001737145888,
						-1.2262717406832193,
						-0.4956810900994113,
						-1.4781401691398002,
						-0.13881599163914554,
						1.8446123490571034,
						-0.46824442797945764,
						-0.8322011045918104,
						2.9299404380666036,
						1.4037882178795156,
						-0.07670825710571177,
						1.0824111475697265
					],
					[
						-1.0916290718289774,
						1.7531896833562552,
						2.0476575688452354,
						-0.7339621017205753,
						-0.43543362748288394,
						-0.28761938564862827,
						1.3833756273357622,
						0.07453283303392771,
						0.5979693869284385,
						0.29978791691697715,
						0.8234608862155453,
						-0.1741205515867453,
						-0.8350830059123711,
						1.838737978099285,
						1.8676343353913998,
						0.22389988562693855
					],
					[
						0.045399129783445485,
						0.5968584793260845,
						-1.4826871789309422,
						-0.4299207049974504,
						-0.8143627235079419,
						-0.6702417452681323,
						-0.055217215002181436,
						1.1378515751909628,
						0.09244428000810914,
						-2.5873436362827014,
						-0.9648698398916752,
						-1.0844299749611936,
						2.059554252846941,
						-1.1177237111000078,
						-1.1039236218817459,
						-0.47964889694876106
					],
					[
						0.8310150352003466,
						0.3016558300320549,
						-1.4284121246937425,
						-1.0815078012886539,
						1.4414675856396097,
						0.23987765458262703,
						1.042503319479661,
						-1.2389360799916591,
						-0.2748309643877872,
						0.6865112304603324,
						-2.3694193994804125,
						-0.976833769360711,
						2.28480714127351,
						-0.1739159744350807,
						0.14162302688357845,
						-1.602002581098945
					],
					[
						2.9491840001376817,
						1.8192017763867023,
						1.034448979424326,
						1.8504694032828468,
						1.3556639840873055,
						-0.6614655943142792,
						0.24660250982316148,
						3.5047289267294697,
						0.5529616031512707,
						2.20192705412415,
						-2.7915020794153387,
						-1.1000457808842032,
						-0.5364377440103126,
						0.2753893530337483,
						-2.1928102120173576,
						1.4772316844810522
					]
				],
				"biases": [
					-1.4666757984374508,
					-3.329416272534542,
					-3.430597657748239,
					0.02412079488708285,
					1.474840074685063,
					-1.8044135240576704,
					-0.28151929625929284,
					2.8001395296331566,
					-0.44340665382078687,
					-2.2192772435797434,
					0.16786417027978462,
					0.22001075015245503,
					1.3745518109537176,
					-2.202115830786304,
					1.0883645152782255,
					-0.7182523808314744
				]
			},
			{
				"n_inputs": 16,
				"n_outputs": 4,
				"activations": [
					"BinaryStep",
					"BinaryStep",
					"BinaryStep",
					"BinaryStep"
				],
				"weights": [
					[
						-3.279728236127174,
						-1.6945063839479766,
						0.15465243459926356,
						0.9227584695943519
					],
					[
						-2.8408942063994727,
						-1.9769463939204088,
						-3.5778147706471115,
						-0.5776369727641646
					],
					[
						-1.0322151988359989,
						1.1087499165104695,
						1.7018458535266194,
						-1.1951506486428418
					],
					[
						-0.8976020620457634,
						-0.9724958901801862,
						-1.9071873988594759,
						-2.020855817558448
					],
					[
						2.131767510193749,
						0.9972670047819595,
						1.8399406233814628,
						0.6296302653280692
					],
					[
						3.641711502736595,
						-0.18846639205448917,
						2.168563952414768,
						3.866270933966034
					],
					[
						-0.5359000719993191,
						-0.18052454308875707,
						-0.6198594323201597,
						0.2963139363988525
					],
					[
						1.1872573723646298,
						-2.0248896827653016,
						-3.7161220706395244,
						0.26327323536178715
					],
					[
						2.443638756876697,
						0.6976569944465075,
						-0.3328291546563309,
						-1.7245374744149857
					],
					[
						0.8759143295107057,
						-0.9478605191152532,
						0.7796113946420625,
						0.10147352072732478
					],
					[
						0.07221098697969408,
						0.12813467035107792,
						0.2688312570905484,
						1.1649882564771055
					],
					[
						0.998164420489128,
						-0.5325254174261265,
						1.1528725551417367,
						-0.29177508774387767
					],
					[
						0.051851331356931485,
						-0.4265490718750246,
						-0.5647700379373148,
						-0.2289767731732273
					],
					[
						-1.6291058754139482,
						0.7937056906687474,
						0.8747151095010216,
						-1.6724159533484135
					],
					[
						-0.6059377596973274,
						-1.3798850197149564,
						-1.0447876792519877,
						0.7855740615821949
					],
					[
						3.073775679542855,
						0.1543283585607816,
						1.329505985634825,
						-1.5208675829709108
					]
				],
				"biases": [
					-1.867406264290871,
					2.3476299480458125,
					-0.7727151684378573,
					-2.025377798158427
				]
			}
		]
	}
}