{
	"NeuralNetwork": {
		"preset": "Yosh",
		"Layers": [
			{
				"n_inputs": 16,
				"n_outputs": 64,
				"activation": "Sigmoid",
				"activations": "None",
				"weights": [
					[
						-5.629251179732317,
						3.800217893924186,
						1.30993175723858,
						-3.3842347049821293,
						3.529790878509333,
						-3.3044252113719588,
						-11.944434043349716,
						4.925562835737536,
						-3.310584511375509,
						1.5486203268041179,
						10.225378194004566,
						-0.7256763987835975,
						7.387311853288162,
						11.943426693129734,
						7.274767526293589,
						7.676727178033966,
						-11.310505785037046,
						6.685688280154293,
						0.20642070055989492,
						1.238225758190131,
						1.0446230967387093,
						-3.7860437694810334,
						0.18013629062668413,
						-2.3766878439452226,
						6.387410222555885,
						-1.9983696533916016,
						-6.763219713809822,
						-0.46263372583244533,
						3.258791148999499,
						-9.21794950693527,
						-2.398769849440789,
						6.431869448859998,
						2.9004196985085517,
						1.010291849896478,
						7.161805513857076,
						1.7521229847589996,
						2.573080858898265,
						-4.233870528012244,
						-2.87609466063551,
						-2.093994754174981,
						-0.13067211510319082,
						-3.514375924699473,
						7.731195184595104,
						-7.891500486559858,
						-2.604079272072757,
						8.595223969134477,
						-0.10519008170562943,
						-4.6381289146422695,
						3.5496398578316555,
						-3.0249826050083013,
						4.535669834187609,
						4.147451981038383,
						2.429737678056736,
						-0.9139664444063751,
						-6.012356591424008,
						1.8580938303330918,
						-4.042711073286179,
						-3.7228396871454232,
						6.398189198599117,
						-2.9235754804666714,
						-2.6292511575895148,
						8.113112363809682,
						8.459346765274598,
						6.983316757453547
					],
					[
						-9.14064826168625,
						0.8566405442863858,
						0.4048267240362623,
						4.037533846748252,
						-5.217807680556576,
						-1.1639305009367504,
						-3.074996772730864,
						3.2039854552162463,
						7.1148762958379725,
						-2.2338747744855154,
						-2.233191487492212,
						-3.2369986998161964,
						-6.8522127174511684,
						2.9162119649959766,
						0.8080350978332044,
						-1.5984411716011098,
						3.454480747875629,
						-3.788983382584608,
						4.203804529600668,
						-5.355789179637614,
						-11.497346134296292,
						5.922026646182926,
						-8.150158014919674,
						-7.108409968598076,
						-1.711649089863868,
						-1.55855697751314,
						-2.2226992452154386,
						7.00931560215019,
						6.236726651784877,
						3.299488183244077,
						5.55592907489915,
						-4.885544294678256,
						0.7315390301014447,
						-2.3319467880166393,
						-2.953945758495675,
						-2.3061531338974177,
						-2.843264839664241,
						-5.4369546798651545,
						-4.889129567098876,
						0.15432761853827753,
						-7.379411601737104,
						6.6862036144524,
						7.91141669638953,
						-6.572030957682774,
						3.02313008442236,
						-0.5037142134750923,
						1.4711394537138553,
						5.487149665546019,
						2.2063399067096325,
						-4.276455318253666,
						-6.968036651264871,
						-4.035708581471951,
						0.38214757134639055,
						-5.538129519959167,
						5.8725266236079605,
						-9.165292424283283,
						-5.821198770429264,
						-2.5012633739908905,
						-3.6343802035182295,
						1.1715635483482965,
						-2.816119647917971,
						-0.3109732326762481,
						-6.350749905121698,
						8.203804613806536
					],
					[
						-3.73944618917501,
						4.551898540297727,
						5.744148499767948,
						-6.131533616286583,
						-0.4325413001340345,
						-0.31691015186121185,
						1.8195164989555104,
						1.769236935324114,
						-0.7825620939124528,
						1.822750041649262,
						3.4064128110826317,
						0.034839039687480255,
						1.0184941552257927,
						1.1466288024624647,
						0.0535564230631172,
						-11.533121489513036,
						4.998942613566824,
						-8.677428694970338,
						-7.351441248913317,
						7.15990206453412,
						-0.1497313668216988,
						1.890125858823398,
						-6.104319102082524,
						12.543270767340399,
						-4.190689797444294,
						-4.4605945737487644,
						6.185627090993661,
						4.64054096099494,
						2.5591205450323833,
						-3.0978359627415433,
						-3.1820760336576797,
						4.769044520167641,
						-7.149654963439133,
						-1.5217880368036063,
						-4.926253953960197,
						-3.1395727825202147,
						7.124053481562303,
						1.8284361475596702,
						1.5714797901609878,
						5.811890695638838,
						-0.44942530103358275,
						1.2515817717397932,
						1.1838821830416324,
						5.68770147441842,
						2.396679709533978,
						3.8484599849854235,
						2.299910781428911,
						-8.65285330761689,
						-3.5495090175022423,
						-3.5933134021938367,
						-7.375197181276502,
						-4.01551473872945,
						4.390682478352604,
						-5.509671813456922,
						-2.169046492563718,
						-2.623836881265254,
						0.9149928085302493,
						-7.275763191539801,
						8.011266147580452,
						-11.14230946000964,
						6.939073597776043,
						0.40642357688001185,
						-5.211454661871309,
						2.506233199307594
					],
					[
						-3.584459933629525,
						3.3852540638478743,
						-4.116829526586062,
						-1.2921473570480215,
						7.305580371991954,
						-4.324162811055265,
						3.4296305107148015,
						1.789486362590656,
						-3.5348096020698883,
						-2.7968978287947963,
						-1.645165066358752,
						-8.032031969030125,
						0.6058435409808068,
						4.067648217278382,
						3.424413348222366,
						8.209647779230874,
						4.538226460634288,
						-7.990805541524421,
						4.06966208218264,
						11.226587515468907,
						-0.710318773243912,
						-1.7403925472218937,
						3.708546896530131,
						-3.048835511072371,
						-1.3693299461661932,
						-7.073885375162558,
						4.090815081302675,
						5.368629555470818,
						2.035891684862184,
						3.111748451638742,
						7.113823655622537,
						-0.7207123814665157,
						3.0701133363658166,
						9.290531773196783,
						2.611258847387821,
						0.694972547661642,
						1.4950260157521587,
						1.7584058630248198,
						0.9563299212987562,
						-4.584683418817922,
						-0.9076432469722281,
						-7.088274543692157,
						3.8871334385781067,
						-2.21225346801223,
						-4.669080257512094,
						-3.496874199662585,
						-1.4297431869773976,
						-0.8557461218176616,
						4.52157382817581,
						-4.285383541468127,
						0.5492203326984946,
						-2.4317993476407733,
						-0.567398063649177,
						-3.1270425200092866,
						0.20673618475759992,
						2.9798033969240243,
						-2.6791671704858873,
						-0.19849814417867495,
						-6.476737347189118,
						-5.899094253430172,
						-0.23680119323074467,
						5.594072229951959,
						4.479660191345331,
						6.7210914919454785
					],
					[
						5.6272069764109585,
						-3.014016260990307,
						0.245574864306629,
						1.3482781551740115,
						2.953236741181411,
						5.215208320081089,
						8.277381875972527,
						1.6798858040416504,
						-1.7421064175854082,
						2.0725331885337774,
						-6.943953248955397,
						-7.340671988042915,
						0.8989933292213335,
						-1.1599341681026538,
						5.547240177765588,
						-2.1249380023836535,
						-2.5795867295657735,
						-8.82803828352275,
						-6.066924214199759,
						-7.286718962872828,
						-3.04292972672969,
						1.7465295736400683,
						4.286769888398519,
						-1.0955838886575129,
						-7.812112622965893,
						5.269080258599824,
						4.174924175421722,
						-0.790251041435206,
						5.413555789818416,
						-2.9538092831210183,
						4.063427416173192,
						7.632870625348801,
						-6.55960099825984,
						-4.14459633657265,
						-5.968519109615087,
						4.33395160137581,
						-1.0169123749971176,
						1.2084410604928264,
						1.555468315262635,
						-0.12012838117392041,
						1.7411029439252579,
						-3.097218987273544,
						-6.190326768676805,
						0.22734167968411992,
						1.991891146862299,
						-0.27486692548216,
						-6.3850776083037095,
						5.837676105297262,
						-2.9612122740215185,
						-1.2098026970276612,
						-6.138182547559174,
						2.157168887953333,
						0.5761273999727896,
						-6.62199256129218,
						-1.084747842547695,
						-6.156645143163139,
						-3.7015442861579246,
						-8.370563637502746,
						4.209687418513486,
						-5.439683968879415,
						4.392110939305012,
						-3.897205660444481,
						-5.141061179441683,
						-5.435172473591004
					],
					[
						7.430493206127321,
						5.739775793618975,
						-4.308073257496869,
						5.694341717842366,
						0.46798578235599086,
						8.580720536869057,
						1.999775177944302,
						7.632767026919594,
						0.37917829687071664,
						1.3149860587383209,
						-3.7582884727509507,
						-2.6644640096583982,
						0.7816893516290854,
						-4.97726543420934,
						-7.915494814619588,
						7.7329506505424055,
						-5.87054813761646,
						-2.127086986418769,
						5.370536960818176,
						3.3740302869084084,
						-3.3180575265668963,
						2.6079231937828573,
						0.8657542527379918,
						-4.566179007708143,
						2.0080939418944634,
						9.468578455168027,
						1.2943764917731992,
						-5.126243010358211,
						4.887798309559737,
						-3.663050156939509,
						3.3770632490740797,
						0.3033570860943715,
						1.443952167842429,
						3.6191278587974227,
						7.149727776463386,
						-8.933255665861534,
						-0.9329336102469674,
						-1.5366026729739848,
						-0.11412390896673094,
						2.7309624586609567,
						5.688587338314733,
						-10.553722474694737,
						4.679348562095598,
						6.997448381621351,
						-1.6876154046730407,
						2.5329605276689846,
						-2.9100049580180882,
						6.314287982504346,
						-0.6968485950460859,
						-1.9842837551955241,
						-1.1035540260274432,
						2.132525952526143,
						-4.704401453414425,
						0.25448042919518765,
						1.7575645429801643,
						-1.2870341476928062,
						0.8752162398541791,
						-2.6653557034217856,
						-1.9871247239283099,
						-1.9160964812430754,
						-1.614373692712742,
						1.0218032280649085,
						-10.586384184128592,
						-1.0122102616015844
					],
					[
						-7.3579517829892644,
						5.020745159243995,
						3.7120340005308483,
						2.871999453976804,
						-6.755657558929732,
						6.976084312080445,
						-4.991094712632376,
						-13.366050028489617,
						0.7397499376670404,
						-4.066484067166925,
						-3.3447744559288757,
						0.043439581507846936,
						-4.454729857480856,
						-3.8924016902404523,
						-6.042081276938219,
						-5.2569656652376855,
						10.223112812454815,
						6.337814531811057,
						-1.9912621599958311,
						6.995102380208061,
						-1.4074149520354045,
						10.673915216667735,
						0.48428961868410414,
						8.03089988614761,
						5.188135662930899,
						4.406536584926012,
						-3.105297025099734,
						-7.186305036660852,
						5.915887971886458,
						5.017827464562141,
						9.867108848351863,
						12.175315295990586,
						6.4752046025155945,
						-4.119626463637709,
						1.2162956226849861,
						-7.3776122728472275,
						-2.6407350039061637,
						3.7974515582113817,
						-8.877502323741135,
						4.465049095573373,
						-2.172227138495099,
						-0.4085592982212197,
						8.12163542732685,
						-6.358851168982245,
						9.540060940045151,
						2.424457630942732,
						4.089491149010591,
						0.9338186418272856,
						5.046290287334406,
						4.2661743477866,
						-4.07080633471532,
						4.241028023523948,
						2.1139629697765856,
						-4.605079736957733,
						-5.687758125986387,
						-4.136724889603272,
						-2.4013886754719103,
						7.389737605768574,
						-7.378151071381642,
						-8.33121099749759,
						2.7805543464336893,
						2.8194615506338807,
						2.2197583949695265,
						1.6041635116060395
					],
					[
						-7.017814847428566,
						-0.1307914334311635,
						-1.6177088225735372,
						8.617511589530153,
						13.607946239989209,
						-3.09677215802231,
						-13.12750208174916,
						-2.8695732467612562,
						0.5797879807982567,
						-4.658427473575972,
						-9.821184980064647,
						-3.041790913487132,
						0.3534797630941823,
						1.000287584279737,
						-4.9491943088696235,
						-0.5836074694742218,
						-0.6242305661697645,
						2.1114680885070274,
						10.273613704752988,
						-0.7376643871347132,
						-1.3413688855227213,
						-9.215977938644787,
						0.7831699697529009,
						1.9076824789625224,
						0.9883188618927587,
						-0.9170965716040914,
						-5.979249874563663,
						-4.909198896850658,
						-1.7530542272276555,
						-6.368133815509689,
						-10.591095123245138,
						9.152068948582349,
						-1.178904498864234,
						5.101508898843511,
						3.928218554798545,
						-4.347253363936745,
						-0.8982176655889373,
						0.8241817249215138,
						1.1251850070969005,
						-3.624128577508865,
						-3.9089094158172686,
						4.24242509599215,
						-3.066692830851087,
						0.8217742819318984,
						0.18033754872831706,
						-1.3291478253216347,
						3.8930857911197556,
						3.6578265267824808,
						-7.979777854609878,
						3.0910182555536663,
						-2.021968140611744,
						-3.2916229933370467,
						8.309510245288996,
						-2.8200292388525185,
						0.27866963314889137,
						-2.7325202418989254,
						-2.122838492568784,
						-3.3716445967043676,
						-4.149359296510395,
						4.746885328641876,
						10.171416218076645,
						-1.0559498897624673,
						-6.654729782317321,
						0.2929660226916399
					],
					[
						1.1676164827669142,
						1.119353765735021,
						0.5292707493303815,
						-1.6993300633187718,
						-1.0903783032053675,
						-9.9264353132488,
						6.75281692329531,
						-2.744360459428361,
						-7.290552445353327,
						-7.269763890826572,
						8.008440250792898,
						2.469076408636613,
						6.657629530729324,
						-2.171717292900058,
						7.524819259719078,
						0.6026782268627497,
						3.236545773819525,
						8.311150507641429,
						-4.290739090898899,
						2.256085614887497,
						10.321529851667982,
						3.7577481319025137,
						-2.886197039292705,
						-0.16180661747495823,
						-8.052233324842874,
						9.07311518679685,
						10.69243247792604,
						-2.8370347895019257,
						2.711491834370429,
						-3.016050744702892,
						-4.617839307334836,
						-6.45005882896641,
						0.1408848282096552,
						9.192080044063363,
						6.342245276117411,
						-9.77025471582452,
						-9.285823682342516,
						-4.389104969786823,
						-0.029918316935856004,
						1.8035365637314549,
						2.38255777532171,
						-0.48455048727147443,
						6.37442410035105,
						7.079751278350247,
						-1.5576722080037801,
						-5.852986009701271,
						-0.9795545069808337,
						0.28202248699519666,
						-2.924300095833116,
						-1.8811750476220634,
						-5.169611679220025,
						3.966230571790603,
						6.409067276326392,
						-0.8347768147302819,
						-6.653807575667075,
						-1.7244388831893818,
						-4.471044103037439,
						4.338719528475243,
						-6.953772736076977,
						-7.481397669102902,
						-3.1000112500768524,
						-3.30334701545658,
						5.050682911084038,
						4.047198571646174
					],
					[
						2.120010788390784,
						-2.074586581730403,
						3.7410767355778134,
						5.1922311813887845,
						-0.5759660152486036,
						2.2559268352521693,
						0.10583708361462574,
						-6.474807745808257,
						4.111220174303761,
						6.01419466617398,
						-6.058430088078703,
						-4.699257149411612,
						-9.712993349215129,
						3.1196756997489823,
						-3.6715880750022585,
						5.6550485431167115,
						3.733062657647777,
						-0.27344256763492975,
						-3.8310924243912434,
						0.9631711057780039,
						-6.575657226494936,
						4.531381864195088,
						-2.1222915411320726,
						2.1767214447042216,
						-0.5917576835785147,
						0.9790443138930505,
						-6.14209800656612,
						-1.3186248215036556,
						3.0029980223350066,
						2.167992738283592,
						-0.6709121286825894,
						-2.439926752929784,
						1.0685545656094702,
						-2.1628700784426487,
						8.420337774098018,
						1.6605407326962773,
						13.839769413584046,
						2.8053635946177318,
						5.561024401098596,
						3.3088970209594573,
						-1.7021275359976737,
						14.908267553125244,
						5.536689583864452,
						13.480035641730794,
						2.0039576774505132,
						0.5671030030529111,
						10.86107049890208,
						-0.3362284555169117,
						-1.508079741608785,
						-1.6319821672975514,
						-4.190744660784616,
						-7.12908926856757,
						-2.2323019124383943,
						6.4134305566824725,
						-0.568271480441034,
						-3.9492465453256203,
						4.61676734754574,
						-4.063762681298452,
						-8.311934785935254,
						1.7248408439904765,
						-7.3667469552813225,
						6.241754689081178,
						-0.3211669416940224,
						-3.950306064481042
					],
					[
						-12.440593875324154,
						6.2276893436046805,
						-7.761284249475862,
						6.387996952461344,
						-1.3932901952320844,
						6.030085277190025,
						6.437747487830192,
						3.208760973757136,
						-0.2711074712652416,
						-1.522258061086331,
						-9.66262921372753,
						3.6752137638790483,
						-0.02207747172434503,
						-5.1044662766026105,
						-0.10428090300106085,
						2.838839150809023,
						1.4598362435300885,
						-6.849212054393875,
						-5.399343158431954,
						9.236588996680346,
						5.220132632548447,
						1.5418071472998331,
						5.21268462571334,
						-4.391960675546451,
						0.7755351569137853,
						-0.8362096774997327,
						-6.478668426013187,
						2.6078299546229107,
						-5.136366465981176,
						11.202112719822766,
						7.924518703059251,
						0.09246802163038259,
						8.977015267122226,
						-2.9169487524690836,
						-2.0323129702087646,
						-4.088516307061461,
						4.517913080528558,
						5.554237122246117,
						-0.809757200660733,
						0.9581954115356072,
						-4.4392935768456825,
						0.7120200085002955,
						1.674995873186805,
						3.969984799734692,
						4.787403325800121,
						-4.401190341508461,
						3.336813800401789,
						-2.783327905709335,
						0.5055625799957022,
						-12.428788609998577,
						-5.947192102527538,
						-3.6319241221483587,
						-0.8276480287012625,
						3.0675816675781715,
						-0.10423719364354023,
						-3.481835642732688,
						12.716753768591012,
						-1.655478888995336,
						14.672591403481889,
						-6.6492053873622545,
						0.6343569759328235,
						5.247996096310857,
						1.7645851937325467,
						4.699132048347383
					],
					[
						-4.172231377337719,
						1.5327939782684854,
						8.082312851322976,
						1.9369842416459682,
						-0.8859795995613868,
						3.915828377940554,
						6.506223321311459,
						6.638308683452383,
						1.8067466552744962,
						-2.7724171872828007,
						-3.2386799178496988,
						2.4437299715035112,
						-5.830966372711418,
						-1.091348277982412,
						-2.2581613840126784,
						-2.8433317287312936,
						12.710641214295217,
						3.9736831097253837,
						2.3039399720897533,
						1.9417257380564554,
						-3.340793932570075,
						8.790395015181755,
						7.700206976765347,
						4.743970345672466,
						-4.088356887159145,
						-1.4937347470536975,
						3.361044946223616,
						9.272352207270536,
						4.736909658393706,
						1.4723927784398547,
						4.173738804207717,
						7.8870270296167275,
						0.6192304721992097,
						0.8074353286942287,
						-3.845075970192109,
						-9.762697851102917,
						1.548038865613378,
						-5.272715513821747,
						0.48749901839754395,
						0.8942727859142342,
						-1.0082046578257469,
						1.4978886555947735,
						-5.964148651361832,
						2.7756292595239884,
						-1.4223086410507082,
						2.8974882237194852,
						-1.0178283763577956,
						2.896141966146862,
						-9.497798488416915,
						-4.297654910562563,
						-3.6554066087993426,
						8.14155134821392,
						9.931091707701084,
						2.5156773212112973,
						1.6468771446640451,
						4.450890974309856,
						1.1103190676914054,
						-6.771672030984387,
						5.753753207591657,
						-4.073444705548458,
						-4.099137080371242,
						-3.7539513766772736,
						4.305080404932764,
						-0.6217249509840963
					],
					[
						1.86541692159038,
						-8.873733410060048,
						-4.731775300739329,
						1.493604633069859,
						0.8476598261825248,
						6.4414748541967395,
						3.1341889377337164,
						-1.8307677463728032,
						4.748929254321416,
						8.280465701090096,
						-4.141024296120705,
						0.712073965216019,
						4.710820383066266,
						-5.100912513142162,
						-1.3568882877550483,
						-3.858416089477654,
						-2.051181865470988,
						-3.4747083312357505,
						1.86169004093883,
						-3.399983550180711,
						-3.6288836519635868,
						-3.1645974984497793,
						-0.8658119275100445,
						4.850415699253076,
						6.5175066051571795,
						1.229551901214343,
						4.123508297374336,
						-7.824307409786495,
						5.123106409123736,
						-5.366685960993325,
						1.5923108554396401,
						1.4261855674102453,
						3.014279234578527,
						2.964239609417457,
						4.30958074793948,
						-7.129816919316999,
						-7.777280310987448,
						-8.193698790607343,
						6.236772286998159,
						-1.451585279903732,
						0.7669752921968943,
						-5.797538432735704,
						-8.404361326247273,
						10.070060514684364,
						-4.178526978192782,
						-5.393413307457389,
						0.010895611769094732,
						-4.547108438665947,
						-1.0522715144998374,
						0.7549357263356851,
						5.469355603036109,
						2.0243149051364537,
						1.493755605394761,
						8.198576731540054,
						-3.917849909908348,
						3.183138505014422,
						5.401097163719544,
						-2.1273062588227067,
						4.420342248105344,
						-1.582842761444819,
						4.579973225719239,
						1.5787937204562934,
						-4.697831861094701,
						7.950909116567625
					],
					[
						4.921788548533237,
						-3.44897771002839,
						10.472509865619207,
						-6.966452622344162,
						3.5641775742291193,
						-3.887262788233446,
						3.67461780870695,
						-3.5862645898020005,
						2.5666450456104393,
						2.731939747146243,
						4.573238316410259,
						3.983365952854545,
						0.2712947805358843,
						6.73409994846365,
						2.8429220086517764,
						-1.5485366582534248,
						7.9659509173313,
						-0.021219364931220785,
						-5.728233802547122,
						-14.049710397288315,
						-7.7893477154276045,
						4.573473661577568,
						1.7141829773162316,
						11.089315144385635,
						5.893504441344429,
						-7.504014777154828,
						1.5863856501639715,
						6.204969007048503,
						-12.4632869480372,
						-1.2328303749387852,
						-0.11261464443839295,
						-2.620855154861302,
						-0.20070370405905358,
						5.23022690285437,
						-8.77077865616854,
						0.23829823214786722,
						2.115844011143532,
						-1.1286634568930396,
						-4.418809928161001,
						-4.472747498653703,
						8.106496030878201,
						3.5672097196503745,
						-3.921414288658375,
						-0.263927996839445,
						-2.0879458060342477,
						0.5280774085200347,
						6.992319897602732,
						-4.594013709560079,
						-2.8179048355790473,
						6.584492386071957,
						2.8891110366620336,
						-10.283767561057068,
						-0.11020114747102955,
						-12.30716553377868,
						3.6292036592405084,
						0.4445123059553858,
						6.312484665033957,
						2.137853848818753,
						2.825077027350335,
						-2.784523419209547,
						-3.0479857513186244,
						-3.8774918810730394,
						4.705164883643683,
						-2.447610451131414
					],
					[
						4.944654359039636,
						-5.1715866821164065,
						-6.986902282720485,
						-2.410278221839077,
						2.749939331321116,
						-0.07227697492336566,
						4.634714407715172,
						-3.8503807176397165,
						-8.053242984802212,
						2.0685036176456655,
						-2.7575148798803606,
						-5.042573316508837,
						-0.10925863939627474,
						-4.690225706771198,
						9.168264629091228,
						5.824005408373406,
						3.363943943913276,
						-9.003343777236633,
						-2.8101653375981455,
						-9.736626600693825,
						-3.388305828393372,
						-5.783455460338106,
						3.9952239513462557,
						-2.4066151195182837,
						-3.411534719814514,
						1.098113428607484,
						-1.8738274963309536,
						0.3101485917136777,
						0.5783894758729473,
						6.566045345277969,
						-1.9092720906820684,
						0.18650919367913082,
						-6.6480871838868065,
						2.912939249739443,
						1.7143617689627715,
						6.707423806158614,
						0.2407406643410089,
						-4.723358366589196,
						1.7467157770409338,
						-2.695427388765336,
						1.3556909620031514,
						-9.653632127551317,
						0.5725791742939218,
						-4.955390757783197,
						6.487866660198271,
						-2.794751768214171,
						-0.20932689901997276,
						-4.691738173776386,
						1.3530748705755231,
						-8.389858078807578,
						7.977618245270513,
						-5.457303599549686,
						-1.664685300902847,
						-2.7268423664775994,
						-4.032852136556601,
						1.8364116875567762,
						5.256960301436512,
						6.808161931067997,
						-3.5745617288166764,
						-2.963430793367742,
						0.4057492768968979,
						12.674826658215974,
						-4.572780510996293,
						-1.5902954894955579
					],
					[
						0.24629344015674537,
						-0.7622288082932309,
						8.571505729043851,
						-4.0444234172659135,
						1.868873435406439,
						-0.4808247400009365,
						-4.019086138548766,
						-6.437489514423621,
						7.240488132733436,
						6.027025623720211,
						7.793951688263725,
						-4.811162839440458,
						0.24576181033570094,
						3.11025630526723,
						1.7031642420919582,
						-3.058333568266688,
						1.1185840634384547,
						7.040759418793162,
						6.893921518059627,
						3.204202978106369,
						-1.527808958768012,
						-5.2122612334486496,
						-2.8192779864076725,
						1.4570221216952854,
						3.5829136522914777,
						3.4808712776336255,
						-9.316441967077777,
						3.075075350954073,
						-3.169016710239504,
						-0.6499837158590592,
						4.263339741448233,
						-12.76037832756699,
						-0.7681943046628318,
						9.320469258255729,
						-6.976305431681657,
						1.2949881591602153,
						-6.003755383616455,
						-2.1556118937645015,
						1.08948869265634,
						1.980975545983211,
						0.5060809576257026,
						0.23181264339594618,
						-2.2102370694115483,
						3.715806980746899,
						9.172553819307174,
						-1.1782127641895537,
						13.297313455909997,
						1.7841005448542107,
						2.4898027718238085,
						-6.368812787564141,
						3.1781277326433326,
						0.6187074405853761,
						-0.5361296656726908,
						-9.761901788846096,
						1.4449645726475173,
						2.0197575578972216,
						-1.2234208084504417,
						5.566397521963147,
						3.491947615590438,
						0.8126238596988747,
						0.5985200668423174,
						1.7239141240548195,
						-12.277723075759656,
						0.029416804114859474
					]
				],
				"biases": [
					5.14389464802673,
					2.20166906624747,
					-11.177997554213773,
					4.696258455622877,
					-3.1157552216088495,
					-2.5033792864866946,
					-4.324773003345464,
					-1.7293012332970532,
					4.068155629175426,
					2.3875622453259298,
					7.792782233344008,
					-11.075500292350647,
					0.22259086281500617,
					3.1787466441781635,
					11.207643119372115,
					-0.11234157122307278,
					-2.1051400365151753,
					2.9774511988674046,
					2.094258132751619,
					5.098177102768939,
					1.0818696017601304,
					-4.359209793893573,
					-2.9075534020424043,
					-1.4498600625079918,
					-1.6537344651924433,
					1.875005900881883,
					1.4243719695897146,
					7.847849154209948,
					5.915785344384275,
					-7.418717267205735,
					-2.8937326050034526,
					-1.1409973592730518,
					-0.9112249509700174,
					16.12840876754552,
					-6.860180845874661,
					5.027843330541471,
					3.4880939157139808,
					5.84033279437119,
					-2.3679930305668235,
					-0.7469678201992511,
					7.475377882824987,
					0.5350300570822817,
					7.4365432135412455,
					-1.7895729014351158,
					6.153143910465342,
					5.097430867575478,
					1.9135918599121344,
					-4.931873652701715,
					2.3792689225589814,
					-1.5503964428169057,
					-4.129215456643549,
					6.4577156623984004,
					4.643384733029036,
					-5.169601198978324,
					11.701813816360582,
					-9.095980013783118,
					-0.5859220889137774,
					1.8745104969657533,
					6.393906942230453,
					-4.86046281864007,
					-3.6979146578559696,
					0.880338798868023,
					0.023168530526799014,
					2.60593640752744
				]
			},
			{
				"n_inputs": 64,
				"n_outputs": 16,
				"activation": "Sigmoid",
				"activations": "None",
				"weights": [
					[
						1.072849726596321,
						-1.1915935499973718,
						2.825612362632083,
						-2.3227030404233133,
						-4.614116822863813,
						-0.3612491466524149,
						4.619160892492157,
						-7.902953570719863,
						0.7640478794909599,
						1.444201881338802,
						-5.116392771844015,
						3.2933561433571734,
						-12.373650644468317,
						5.4991136696980485,
						1.0409544098410959,
						5.968846301115854
					],
					[
						2.94090957612149,
						4.932672149931997,
						-0.5553986741179228,
						3.8370064617886013,
						-4.807246453881473,
						0.673231526400587,
						-1.694141819430188,
						-7.69692528940357,
						3.315275667212543,
						-4.0941031743786604,
						-2.041732153602548,
						-4.57620755926762,
						-7.566338367210744,
						4.779252454697664,
						-3.358573151250907,
						-0.9413668249808523
					],
					[
						-2.7593766023883237,
						2.165040849980521,
						-4.437622540556317,
						0.9790636299255635,
						-4.189535583183681,
						1.1765242124468875,
						3.0645223995688733,
						-2.200961568877883,
						0.28838177931350195,
						3.52839749744662,
						-0.8655418386773528,
						-9.57086787111417,
						3.4804432485141628,
						0.8207438313828996,
						-11.607718232888798,
						-0.5274537516453139
					],
					[
						-4.706557252914329,
						-2.04220267750168,
						6.72872220417382,
						-1.7267156712405511,
						9.759419973372692,
						-1.8995089063930102,
						-2.774959919408534,
						2.9942440494449407,
						-0.8736019597662867,
						-3.4853628668992886,
						0.8089741858602288,
						3.7461870292452386,
						0.6595205649214811,
						1.4017444413349336,
						-5.147992230677792,
						-2.436575912627472
					],
					[
						-1.0283878724154052,
						0.22845988597035827,
						-7.242180483665571,
						3.9404967089371876,
						-1.8820216018324953,
						2.554745624494449,
						0.6566804214945063,
						-6.927853443893102,
						5.523264331205945,
						-1.8930724948428659,
						1.2996285431673271,
						1.6616473997224424,
						-0.1832819808187459,
						-0.7514647394622952,
						15.597520368250054,
						1.6952454453714285
					],
					[
						-8.003051084927726,
						3.1719853408012297,
						8.855961479003158,
						7.471034873774246,
						2.1843849010433214,
						-3.0934907070312443,
						9.978015754260863,
						-2.8810064124910046,
						0.956568562231221,
						-1.490388008428868,
						-4.12640286166057,
						-2.3740551572789097,
						0.08221004603244603,
						-4.2255561487335935,
						-0.888460581690511,
						-5.520496378394933
					],
					[
						2.868240753358342,
						8.131598336871063,
						-3.4368436511081986,
						4.726360609719579,
						-3.5603718388660326,
						-3.4844682000931533,
						6.855668265312821,
						1.7364347680319734,
						7.495588715843457,
						1.3337115216755253,
						-0.675355939397076,
						-4.343967860989288,
						6.9709117514026,
						4.2015859495277015,
						6.7164785867400925,
						10.635294403167107
					],
					[
						1.7389938332953863,
						-6.550564412961923,
						6.4972874373217975,
						-0.43934053496632763,
						-2.903724228329584,
						4.042708658918658,
						5.654677775588485,
						3.53082379045152,
						6.397380546123534,
						1.6776259848407618,
						9.654028946011774,
						4.928307687036692,
						-1.8874676552844583,
						-3.5081796544156725,
						-0.48889196864911133,
						8.200726437233707
					],
					[
						1.2500785332868902,
						-2.413044972255743,
						-2.776816951020165,
						-5.408137157365124,
						4.12987650389425,
						-0.7446965297196053,
						-0.8487357293192253,
						-3.339503228002761,
						-1.3691336077345468,
						-4.501322849724175,
						-4.784499920501549,
						-0.6222849813647655,
						-3.453634050140258,
						-0.43161619200263057,
						-6.304770839273376,
						1.6288933743771583
					],
					[
						-4.040670360278831,
						-8.3834836292353,
						-1.7942247451992626,
						2.2474210281474063,
						1.6608046513179509,
						-1.6919667128333522,
						5.544683456799669,
						10.179496074714908,
						-1.520987964546622,
						3.44498790582476,
						-2.863243331347596,
						-0.4182501840372338,
						-8.787799427177921,
						2.6779736614717997,
						5.4300251849466195,
						8.550276571975417
					],
					[
						0.0609353613688558,
						5.01110203322727,
						-7.159902539294963,
						2.9759035689921274,
						7.439928279626258,
						2.2671225915429254,
						4.210402312608983,
						0.3453218477974311,
						-9.499007196049906,
						0.28976882269301213,
						6.298778150440128,
						-9.17744905929118,
						-4.33758290595745,
						-6.3456942413098885,
						7.2017504340449126,
						-6.134636326430247
					],
					[
						-1.6447069795817202,
						-5.57160026808085,
						-1.0052176113364513,
						-5.549721335815079,
						-2.300752436892393,
						1.6881343653582976,
						-2.592487491075352,
						0.778825948664021,
						8.29132630496706,
						-9.204741053086302,
						5.125123477186329,
						0.4086595097094121,
						-3.373965044961922,
						5.34436012940751,
						0.2588930672392418,
						-6.38606624803982
					],
					[
						-0.898839376731461,
						0.327244328159536,
						1.1347960794456429,
						4.849881517550764,
						-4.5808602297525285,
						-3.91653028688519,
						-9.595604805839208,
						0.6325552468077223,
						-2.067204490546149,
						12.630550055842688,
						-2.9076916113525217,
						-0.07446470670167347,
						-4.37325959618763,
						4.604669276889725,
						-4.633826455804388,
						1.5516320312865883
					],
					[
						0.03204043145055596,
						1.2851709532392688,
						-4.957590473000625,
						-1.4330149897853202,
						-2.6604732566938663,
						4.220698080336531,
						-4.357307786056109,
						-1.753012351362893,
						6.214271548982088,
						-2.1488318239783513,
						1.7726977802208612,
						1.2339518753464414,
						9.561162948549187,
						5.096959631662104,
						-8.360334922393912,
						5.064082111813004
					],
					[
						-4.426502272379744,
						-4.488792373092353,
						-0.5233503360607235,
						4.6958233194958705,
						-5.993302943393743,
						0.46961032689873977,
						2.597747230041549,
						1.500950534956319,
						-1.7352462282521346,
						-3.3768250376285267,
						6.261803958462846,
						3.5820745949566875,
						-0.8159557383132535,
						-6.493860585976518,
						-2.565144455614547,
						1.1155780626052993
					],
					[
						1.3931027139683063,
						7.175546618983261,
						3.4863957388378615,
						-3.468716932820543,
						-2.92669327069742,
						7.633447308161524,
						-5.961544527365633,
						-0.2987178421582271,
						1.0950426823404005,
						1.0876910205605599,
						7.282818521605893,
						3.2072898562838827,
						-4.1814385797724904,
						-3.1144158458851936,
						-1.8189786093892428,
						-10.147502026630129
					],
					[
						-1.8508051730363848,
						6.120761317466398,
						3.049959233357941,
						1.6845315345548215,
						1.9879887391669173,
						-5.219740498351953,
						-5.7821938221521725,
						7.947189867462228,
						2.820640874373419,
						-5.02922337319007,
						3.4754541718579093,
						-1.4910434900131708,
						-3.0158127076930326,
						5.930383932238852,
						-5.6305221490670245,
						-4.20794926093215
					],
					[
						2.8774557969142776,
						5.734437954150988,
						-11.199028664047846,
						2.035184547879444,
						5.796170872598916,
						-5.60572522536123,
						0.25026011945652116,
						5.843294701880316,
						0.027306818754246676,
						4.626150685876468,
						6.008645400581084,
						7.14480660779049,
						-0.5160569552604568,
						1.3758137441672478,
						0.3561858247413755,
						3.127567907872339
					],
					[
						1.196310186092874,
						3.8048133657825853,
						10.46496367022025,
						-5.189020358350033,
						-5.793834051388238,
						0.19931768464211527,
						-2.2691383355721895,
						2.299804165475319,
						6.606120854923575,
						-5.356003907267656,
						-2.56811708619599,
						0.17888919816901705,
						-1.030780194155946,
						1.0815137384058455,
						-13.365083777487783,
						0.45591764081769304
					],
					[
						-2.915981100956658,
						-4.282872406330746,
						8.218591261110154,
						-11.82505069202673,
						-5.633790019839935,
						8.117743884749522,
						0.7997957501940358,
						-1.3791308649363736,
						2.267933395184446,
						2.7432329793410113,
						3.2416270930016235,
						-7.88948667813177,
						1.8469907135291428,
						6.451838396945619,
						-7.473358740087115,
						-0.23168943921749297
					],
					[
						-14.848378479227405,
						-2.9243542029807092,
						5.72913000879705,
						9.659198487463625,
						3.0026290664401483,
						-4.266918220854887,
						4.002840544171764,
						5.370354909683095,
						16.676582407600836,
						-0.1604203525478141,
						-1.4130494224551835,
						1.9126790438234553,
						-4.136230242226891,
						-3.383693888164218,
						6.140411778683961,
						-4.707025695544808
					],
					[
						-7.642187294578674,
						-3.237234139403367,
						-0.12856991587464006,
						-0.49362696542097617,
						-3.402497280223545,
						-3.729928985598036,
						6.442712439226789,
						1.3840107742489847,
						6.310129278738216,
						-4.230450349002211,
						2.530515120255548,
						-2.7551680117688724,
						-1.31347003350628,
						-5.198509963654105,
						-7.393686837203624,
						2.4639794872474625
					],
					[
						6.797913478255559,
						3.957664306432802,
						-5.421526427291109,
						-0.6384625019096136,
						-3.8040959941997787,
						12.236174279792685,
						3.676273202189119,
						0.0826586833657933,
						-9.208024295090858,
						-7.584182673368188,
						-2.1319495843630345,
						-7.944395480440854,
						-6.901609855691153,
						0.5884937074445921,
						-5.266793534773221,
						-3.0032822267071926
					],
					[
						-2.4444462223367602,
						-0.515947547129802,
						3.906834992309658,
						3.983739458342843,
						9.668171495747131,
						0.23723096351945822,
						6.080932623919693,
						2.185200904819459,
						-3.6508381840681694,
						0.8548395142700522,
						-2.691892945391168,
						-7.004408869752861,
						-6.487322805574453,
						0.3656876867064395,
						-0.5405748270837492,
						-6.1954767368027674
					],
					[
						9.613009379856527,
						-8.57474520436852,
						-0.5762765841393823,
						-2.366557006957727,
						-5.3068334119610405,
						4.199835865170343,
						-16.888830004443854,
						3.62823487028702,
						-2.9570037238436155,
						-6.747343011711971,
						2.854798679730021,
						-9.46450701233444,
						1.9048768262936058,
						5.136180611648757,
						0.3441382772336011,
						-0.20619649087934006
					],
					[
						-4.382473022410697,
						5.515206787080128,
						0.2881617341255583,
						-1.974193306441793,
						4.995421025835809,
						-2.810620915286786,
						5.513571425179551,
						-6.631587909152741,
						-1.8527931085710576,
						-2.740679861843294,
						3.4771805042162005,
						-0.8921977626440859,
						-0.35069838008365634,
						-2.9136920273170537,
						-2.271641325480064,
						-3.198102869616698
					],
					[
						-2.2163081170252106,
						-4.298787140445486,
						3.568217280371927,
						-2.399052102246487,
						-0.01210231020817465,
						-4.270748031542361,
						-2.2878946552584116,
						0.633589351296344,
						6.619128918413021,
						0.209731162655621,
						-3.7509766011760943,
						-7.81158718056902,
						-0.15186354836926952,
						1.1212417738400375,
						9.361441460067702,
						-0.6535149888681767
					],
					[
						5.707300510744112,
						11.079142938239183,
						4.356473175725792,
						8.272895895468865,
						6.156814176487983,
						5.837521184944384,
						-7.090370669822614,
						2.332096001471501,
						13.417600418140708,
						8.516107320480012,
						6.015933411617984,
						-6.03717761664372,
						-3.8769897935354622,
						-2.7140041217151243,
						-4.426277922706224,
						-0.8065236662097744
					],
					[
						-0.49618870632953954,
						7.092322646516379,
						-0.840024465530476,
						-6.114895116118486,
						10.031528648333865,
						1.5158795214074055,
						-0.7382566608107077,
						-5.788904179866029,
						4.297844768142021,
						0.5143635114261887,
						0.36554915755888445,
						1.0535130496057739,
						1.6504940976322668,
						0.8068488040484956,
						0.3166000447139082,
						4.5496632504809815
					],
					[
						7.908671696391051,
						9.383304887459113,
						1.986778946691024,
						-1.009978954694439,
						-7.609493576389945,
						1.7236525238447478,
						3.6895659292038827,
						2.197107490168486,
						-2.4471855614901683,
						1.2991278707115836,
						-2.2275807571629445,
						6.911774592576707,
						2.3662517624733317,
						1.2052246746946507,
						-0.17868462318643247,
						-3.108981675678149
					],
					[
						-1.2980117322159372,
						1.0621260053112374,
						-6.081774914072125,
						-1.7768638508253027,
						6.0386724749111815,
						5.297137403543352,
						1.3622919884607418,
						-0.6863244474331631,
						2.6954353989744932,
						-3.4705537576391974,
						-6.087155024598264,
						-5.983829044534967,
						-1.2740599271935609,
						-8.922438971912111,
						-3.8701874542962034,
						9.65828909018552
					],
					[
						10.591600308855025,
						-0.6904460597280249,
						7.743114872556488,
						-5.610289359335332,
						-1.3162875422096452,
						-1.2747325745771088,
						5.11309285668622,
						-7.250781656150041,
						3.1929813639617386,
						1.7023166287440488,
						6.9024606709516565,
						5.445328590412089,
						0.06511514763950836,
						-2.9370971080039894,
						-3.5507518039643005,
						-1.167785442694933
					],
					[
						0.883535779290029,
						0.34972867206273917,
						5.455161416362804,
						0.7639403296829153,
						2.2367521402600445,
						2.840080377408717,
						-7.779043238918903,
						1.1999373411964775,
						5.679829505445733,
						-10.633336253891954,
						-1.9706913899300442,
						13.999583079919907,
						4.733382055363542,
						-2.126055515441713,
						0.321804699308155,
						3.1786259851238725
					],
					[
						3.9046335601124835,
						-3.4790328771175263,
						-1.0557815255456133,
						4.678132752897288,
						13.09704367784654,
						-2.496870498134314,
						8.981919073915444,
						-6.575030746259759,
						-11.819915388587486,
						-5.78894755228738,
						2.351805827444283,
						-5.6397871999499465,
						-3.4609958717356237,
						-2.305580431570062,
						-1.2569306822247006,
						5.845988593877998
					],
					[
						5.865405092492954,
						5.710628140997613,
						5.662960979992018,
						-0.8021009931748363,
						2.8707614947428763,
						1.4847760595425148,
						-4.1839743198583825,
						-3.721822031646777,
						-7.507622296674863,
						-4.088634624623283,
						-1.5806735746198404,
						-6.011132043317891,
						7.617652889889136,
						0.9399811160051901,
						-5.916892431848634,
						2.3939989179028953
					],
					[
						2.941388120101054,
						-2.700364436407066,
						-5.599263357398252,
						-3.9540440293219623,
						1.2173284299463107,
						2.920327566885834,
						-2.345441316602244,
						-7.231854165971511,
						0.8420201957891695,
						3.212722111158038,
						3.728991316660076,
						-4.895388235519114,
						-0.16810531543842644,
						1.154712275522798,
						1.0782078533062704,
						3.3903389919922997
					],
					[
						9.564157360491818,
						-3.4621664301022625,
						4.172489667159211,
						5.652274569200178,
						-6.767956822685641,
						5.914607750457775,
						-4.861513626935227,
						0.2901327897692685,
						-1.415629901664687,
						-3.1178772491506694,
						2.616176234646567,
						-8.417252557519591,
						-1.3116460225275015,
						5.406619848898191,
						-1.385364481633268,
						2.387702023865636
					],
					[
						1.805606638985794,
						-3.6730999535619295,
						-5.673060782813365,
						5.400347749166968,
						-1.8974388178290842,
						-5.320362133637838,
						3.5786307401146558,
						-3.3606560875049816,
						-1.1670640493364646,
						-6.0825971956753895,
						-9.790673197756485,
						4.679009582733621,
						1.1741903022493567,
						-5.015924886546377,
						-1.5598136982853918,
						7.610409303989624
					],
					[
						4.174896239775736,
						1.4431898573232942,
						0.7883005422151614,
						0.4698270978844938,
						0.026575100084821668,
						-9.629447324410208,
						-0.241594873320796,
						1.440850466153989,
						4.735796153076306,
						-5.390080334422586,
						3.8551031822713226,
						-1.4471247980147395,
						1.6914408099240303,
						-3.833604033433574,
						0.20980265366479683,
						-2.7456471031824035
					],
					[
						-4.002198457165822,
						3.035570819851904,
						3.129186238337655,
						3.7960251450994953,
						-4.9604564579311345,
						5.76148957359266,
						0.562903908162107,
						-3.5199693338124205,
						0.6560328033281833,
						1.0482062495444322,
						1.073946729351965,
						3.103676792597608,
						-2.8847391669226625,
						-6.896094514424327,
						9.706676429338321,
						0.9943038652851461
					],
					[
						-6.252630991796458,
						0.5343580673801291,
						-5.077006050070959,
						0.7564616224567561,
						-0.5619389667943729,
						-1.9087691049151336,
						-1.178158612367375,
						7.8487363939919925,
						-3.696236860411928,
						-0.43692530263503115,
						1.0342870327045577,
						-8.543810820687629,
						0.2524324360534112,
						2.651274119365267,
						-1.1417130554501687,
						-3.7739634277815726
					],
					[
						-3.69928161083788,
						-2.438779230222313,
						2.9629089966254067,
						4.221988514420281,
						-2.6389503500263367,
						-4.873844376987749,
						-1.057792204420103,
						-5.61999563943714,
						4.424246038439897,
						4.429260183618193,
						-2.450953664565947,
						-3.956483901219212,
						-1.8324235218990732,
						-2.0062170221399493,
						-8.098316532381173,
						1.6389075456516118
					],
					[
						-2.1672469577822553,
						-8.737480319817827,
						-1.6571676078771562,
						-1.913290778084336,
						-0.13912321259972643,
						-11.644776832077564,
						1.8744395175596962,
						7.916341315520356,
						-0.9382603804960875,
						-6.616150611410277,
						-7.592858091945673,
						-0.5384198283402726,
						10.110688451891383,
						5.720945840697462,
						7.686363796257087,
						1.6457267805689877
					],
					[
						10.448708147093443,
						-5.880145802190315,
						7.522821599853736,
						0.04451790847995604,
						-0.29136903086814253,
						6.5086959380530995,
						0.6236264277280976,
						1.5576278430905153,
						-9.376934821481063,
						-4.56265995722131,
						-6.74900699178872,
						-0.25067841450250894,
						-5.0648795087027265,
						-8.810419138560563,
						-2.3522832017042012,
						-0.9929906751954286
					],
					[
						2.389817421361843,
						-0.3869589664143742,
						-4.812952668950677,
						9.66364473126997,
						-13.331952390380948,
						3.800429659435142,
						6.355895211632744,
						0.5449374466976367,
						-3.490920157525588,
						13.966961435394618,
						0.8211152121048713,
						-1.789237755223585,
						7.351900164434825,
						-2.395079965846162,
						2.688162599367302,
						1.0859385925189402
					],
					[
						-0.30357989367097954,
						2.614022288790012,
						-2.1296230654037265,
						4.868435425028596,
						-1.2958048151253911,
						0.9577045769893258,
						10.803521215094833,
						3.17892016837985,
						1.1043044711427152,
						1.0341926851236862,
						-3.5991274287386923,
						4.316673253704156,
						-6.617805037788485,
						-1.212762513826009,
						5.276455094853824,
						-3.6046901844733803
					],
					[
						-3.4027362249124997,
						-4.662771743902858,
						5.026885388086201,
						4.880023451710621,
						0.9373588298987878,
						-2.3160037235671647,
						-7.114334569208722,
						7.416713105541945,
						3.789589302628307,
						-1.3429773056372418,
						0.2374141455363459,
						1.9703511398287097,
						1.9721367128532934,
						-1.7329146370146473,
						-3.796046473812164,
						-6.059403292629844
					],
					[
						3.2464398592796466,
						-0.345216764559687,
						7.738120757131792,
						2.8390986582483584,
						0.9373810982111368,
						-1.6370081126563805,
						2.3008062865330947,
						4.443513567754869,
						-9.376239906984042,
						3.8431711774558353,
						2.206259807045373,
						-5.904134290867025,
						-0.23488937119307868,
						1.2916519639810655,
						-3.1687454847762786,
						1.336348626006573
					],
					[
						12.626857361938457,
						7.108223723017575,
						-3.660578799182834,
						1.704490432098133,
						3.325166668473989,
						2.061313496055501,
						12.70679339422055,
						3.503117723445904,
						1.5892598311924317,
						-1.146994537563924,
						-2.8125020559594316,
						0.2613239436964427,
						-4.432568482508297,
						-3.8928460759720704,
						6.691005408495286,
						-0.27637893149973947
					],
					[
						7.692368085171202,
						-1.6465856618964465,
						4.071175601116367,
						3.36526190180526,
						0.16450099432605944,
						4.701341095537066,
						-1.2059908777142327,
						4.313123479647185,
						-6.379443001639109,
						-1.7369422947139366,
						-0.5391397201729113,
						1.441415229751887,
						-2.2484192839860038,
						-3.6425452654686747,
						4.4995517048055795,
						7.755942412785141
					],
					[
						-8.948297863311167,
						2.3944659967611224,
						-4.191021800062025,
						1.794594212771724,
						4.09152451394556,
						-6.618785600593063,
						-11.77101765274214,
						5.536509590196326,
						2.339667506662683,
						-0.9653519642535052,
						6.37315513441367,
						-0.9669014164819626,
						11.335483556599815,
						11.345471728752267,
						0.7423526845284496,
						-3.8519574469604674
					],
					[
						-0.6241724864235652,
						-4.702016600061332,
						1.634229899932183,
						3.7136907761401243,
						7.304359070588899,
						1.480014228954761,
						-1.260126700330184,
						0.3013181733622166,
						-3.8646526695645083,
						-4.374048043889853,
						5.2579260216716515,
						-3.227381443178153,
						-11.781229707229528,
						6.108338738560059,
						-1.0719044332425642,
						2.160317046875104
					],
					[
						8.553110039724798,
						-4.473833000512497,
						-0.5255746645976356,
						4.109934960513619,
						4.771215898401892,
						-1.8027039464617596,
						6.2938661086417405,
						-3.882307141267108,
						-9.206031312659205,
						0.011978491829806037,
						-5.007463572766494,
						-3.1175198812351645,
						-5.958886387216179,
						11.539654320724434,
						-7.0437409863075855,
						2.6139774371966746
					],
					[
						-6.020829880224456,
						6.005096896088151,
						7.44059544741161,
						4.571414242221329,
						-0.5354638864358562,
						5.229603221023129,
						-5.3009767668777945,
						1.4827598439104983,
						5.628727652852492,
						7.047104343042887,
						-0.6735175539513807,
						-3.1003449014020124,
						-0.9400996252249997,
						1.2220226730119252,
						11.321930177715855,
						5.100821796055796
					],
					[
						-1.6617853491274102,
						1.8218214810834397,
						1.240366699119504,
						0.26502135599659044,
						13.76073022598359,
						4.6555649138867095,
						-0.10191003742123797,
						2.765975469529117,
						0.6383962581774368,
						-2.9536827592425072,
						-1.8764213414835593,
						-0.27421409450868345,
						0.5744165897157993,
						-5.781367115285353,
						-3.324603205980426,
						1.1307666278780744
					],
					[
						11.438902105155458,
						2.2812558684615087,
						-3.3553084230891295,
						1.8436653217601844,
						5.433107693618651,
						12.18150938851318,
						-5.352444889656426,
						-3.0948108363895055,
						2.2874285607163416,
						0.14268627773748394,
						-2.6958673546199976,
						2.593415177581303,
						0.5199514014365241,
						-0.029188751607243452,
						2.323378946197165,
						7.433516493324548
					],
					[
						4.35119931513256,
						4.511266774024419,
						3.130312377277012,
						-5.400218809143741,
						-11.933486822216791,
						4.861342455475467,
						3.007799928899212,
						5.043498574330749,
						-0.6704690437429213,
						7.016130119731008,
						-6.524330491392302,
						3.8582598791526475,
						-6.25559863771568,
						7.829690578015276,
						6.159806905712843,
						-3.901497409604276
					],
					[
						0.6144344424016479,
						7.959200192997297,
						-6.027698424676338,
						1.7126611386299386,
						-2.234228487995384,
						0.9306460028932839,
						-1.4638001349436118,
						4.321046289549341,
						8.175179631773748,
						-2.289066006904854,
						1.8072928104538333,
						-1.4963022766175142,
						0.7379584554881018,
						-2.191231535271169,
						-3.325750750597711,
						0.17549716119844946
					],
					[
						-3.685557646361506,
						4.888154626346776,
						10.841843457400598,
						4.338117580423544,
						-2.576718746273866,
						0.0601109561881598,
						-0.14206036941498218,
						0.6179751246869775,
						-6.521862355992521,
						-1.6280537957281838,
						-3.715880983795314,
						-1.9128772976008572,
						2.9632371779296673,
						-8.697287064334278,
						0.13463957486271116,
						1.5644247362990154
					],
					[
						-5.704215663367161,
						1.7470020911809254,
						-5.204222028691943,
						0.5135066485105411,
						8.157185135659166,
						-3.2891033049563303,
						-6.40422763651521,
						0.12132310362562225,
						3.3070240409481846,
						11.34713550661519,
						1.0324048335002185,
						-7.015599562576231,
						3.003853807096328,
						2.3367177796532372,
						-3.8958045563893373,
						-3.8468283451801057
					],
					[
						5.665443921315224,
						-4.910573039292671,
						-9.753806265520476,
						-4.929369382555278,
						1.6480579458231328,
						-0.41351930142824184,
						-6.083392331284552,
						0.6160623427017983,
						3.455340203750228,
						-6.841733707876126,
						-4.460378940928347,
						2.0438700395849594,
						-3.9316370678835217,
						10.850311702834034,
						4.528699170466899,
						-6.965987279711732
					],
					[
						1.1721632485606488,
						0.24975889733061993,
						-6.204967167333066,
						0.26042877889153343,
						2.3997925249513483,
						7.123387381752867,
						4.120201955938502,
						-0.9203932541411837,
						4.535501514946603,
						-2.0357645610784028,
						0.13515759864242816,
						5.96200538979195,
						7.103852495669762,
						0.33972599750888605,
						-4.972296524977777,
						-10.624173181336111
					],
					[
						-11.26016329192139,
						-2.9238891549413673,
						-7.905853550292571,
						1.5746205329983303,
						2.99673891049607,
						-0.25918544349422035,
						5.70865189631565,
						-0.760806104002906,
						-7.067397212925834,
						-2.657474447254154,
						3.0690685905068635,
						6.398975225834764,
						3.854287940389803,
						-3.2357984222763445,
						-1.5254651403574178,
						0.463655908748047
					],
					[
						3.420301496658898,
						-0.05635747841788308,
						0.20517729192170273,
						-3.7899145990876915,
						-4.384268203661212,
						-0.6939616113454942,
						-0.9486878648561865,
						0.07421214650579555,
						4.431472871345426,
						-3.367327969034972,
						0.7726820116756794,
						0.15001967015376805,
						10.283714227937077,
						0.6143531665641705,
						-2.6637519966868988,
						3.136205010393616
					]
				],
				"biases": [
					-5.361582490005187,
					3.772452581413034,
					-5.236434627754362,
					-0.7964009779683173,
					-2.346559497042961,
					-3.744847645346403,
					-2.584070932212298,
					5.866595635394157,
					0.9404634621339805,
					-3.8271116608969264,
					3.9761562722507766,
					9.879379508455662,
					-5.198093723750017,
					6.6551362753056,
					1.3874528694935473,
					12.001740960191805
				]
			},
			{
				"n_inputs": 16,
				"n_outputs": 4,
				"activations": [
					"BinaryStep",
					"BinaryStep",
					"BinaryStep",
					"BinaryStep"
				],
				"weights": [
					[
						-2.4107600703829086,
						5.609023494835869,
						-0.08826338317564081,
						-9.85959462614841
					],
					[
						7.9692347258465235,
						-4.125531541505719,
						-5.599160944210535,
						4.9678156172831685
					],
					[
						-0.7791632407530559,
						3.4061568188480975,
						-2.716041097365746,
						-2.410609484717568
					],
					[
						-5.962176211721104,
						-5.934416174279534,
						5.559946592111192,
						0.5142632747077869
					],
					[
						-1.9619286670027467,
						1.133369443676428,
						5.617381448080016,
						-2.792110825403935
					],
					[
						2.3873530825200344,
						-9.557021002061234,
						-3.0907046985183326,
						0.2979950759056365
					],
					[
						2.2112199663797782,
						-4.993253331929049,
						0.8590641426904971,
						-8.561996304265818
					],
					[
						-2.584246168662256,
						4.74554707977221,
						-2.7696229074055307,
						5.414116387776696
					],
					[
						5.953512197351086,
						-2.362120601883251,
						-6.4141458777230325,
						4.656802643123081
					],
					[
						-0.9679432078664445,
						-4.732891529881,
						-5.978638462417472,
						2.371796447099783
					],
					[
						2.564267879494772,
						-4.555868160003182,
						2.315368553732552,
						7.710756815106902
					],
					[
						-1.8256087806659478,
						-4.114062619946621,
						-2.3770126255511705,
						10.3988309369622
					],
					[
						1.3561811375009547,
						15.426611154835813,
						-1.2180842217165766,
						0.8496723988049142
					],
					[
						11.476805446155792,
						-1.4168039545903632,
						3.0901865893361036,
						2.3438599206233333
					],
					[
						14.526139056768422,
						-6.593438240598495,
						-2.5359792270911847,
						-10.299170894724563
					],
					[
						-2.1760318069121705,
						-7.732080568079305,
						3.2361061938469935,
						-2.8328161794744076
					]
				],
				"biases": [
					-0.9678780026009522,
					2.4029524188388223,
					-5.081501370329344,
					2.3044927528634975
				]
			}
		]
	}
}