{
	"NeuralNetwork": {
		"preset": "None",
		"Layers": [
			{
				"n_inputs": 3,
				"n_outputs": 5,
				"activation": "Sigmoid",
				"activations": "None",
				"weights": [
					[
						0.10033615980410292,
						-0.1078779049439651,
						0.03610811801467519,
						-0.0057011513954221375,
						-0.11018780166414073
					],
					[
						-0.03612527776063431,
						-0.06163871107507867,
						0.03669625878590712,
						-0.09007282314331577,
						-0.004334165919962568
					],
					[
						0.040538427910309906,
						-0.0833183301353063,
						0.092599524086746,
						-0.1862243311197838,
						-0.1299833414386392
					]
				],
				"biases": [
					0.27660447955883766,
					1.1077469708013024,
					0.7306620556945786,
					-0.9876303426795718,
					0.42720781798707513
				]
			},
			{
				"n_inputs": 5,
				"n_outputs": 7,
				"activation": "Sigmoid",
				"activations": "None",
				"weights": [
					[
						0.04560020154631977,
						0.08779768953756596,
						0.003962360258831867,
						-0.08689624620872767,
						0.0685605910510002,
						-0.011233680827240581,
						0.15495804257402068
					],
					[
						-0.029073441860389133,
						-0.028827825790666884,
						0.014085919333855505,
						0.1296319647639708,
						-0.042980899442726095,
						-0.04063453678839585,
						0.11330443802850321
					],
					[
						-0.09079122643052522,
						-0.02513215731170289,
						-0.01685869080639268,
						-0.036361497364265104,
						-0.04811984369723832,
						-0.09574414771465717,
						0.0071713724487199705
					],
					[
						-0.08078183231258076,
						0.14691251520014956,
						-0.1546270239608461,
						0.018760673273596734,
						-0.11711212644725533,
						-0.022715706037161,
						0.042697498687519
					],
					[
						-0.03824463557012831,
						0.15012757816491662,
						0.1069499100663196,
						0.07323923390808192,
						0.04495092511207732,
						-0.006285104673941855,
						0.006826407478234858
					]
				],
				"biases": [
					0.6469874663047306,
					-0.39383493442508416,
					0.7106449626838456,
					0.16475559210713778,
					-0.016756892462216275,
					-0.7904022085891591,
					-1.307667191569613
				]
			},
			{
				"n_inputs": 7,
				"n_outputs": 9,
				"activation": "Sigmoid",
				"activations": "None",
				"weights": [
					[
						-0.05397077533544492,
						-0.03867694659469422,
						-0.02192202844985776,
						-0.062378847251591985,
						0.11385424119292967,
						0.011072828228202911,
						-0.04445861662468496,
						-0.06440548226437698,
						0.04457360394676928
					],
					[
						-0.0381843597283922,
						0.17894449427850578,
						0.12135003569091085,
						-0.1423157282232892,
						0.041123874577791215,
						-0.10152853829566988,
						0.10471065568721204,
						0.04004512296281364,
						0.061837906362260935
					],
					[
						0.06865463492008854,
						-0.06013185913959257,
						-0.15790180136351828,
						0.026345378783548534,
						-0.0286132153758656,
						-0.01196150372351735,
						0.06995593552117788,
						-0.07891661837274155,
						0.06777167762713612
					],
					[
						0.053910137737507,
						-0.23688759312314198,
						-0.006729093254307374,
						-0.08459675452120269,
						-0.06108719868570646,
						0.19181920093735713,
						0.06462210092606242,
						0.06814938041217221,
						0.10743690909884518
					],
					[
						0.035690120899838425,
						0.08405459630511837,
						0.030149530225121318,
						-0.03153812538139331,
						0.17662761051805334,
						0.06603905330700048,
						-0.012892354539277574,
						-0.008507917606838935,
						0.05918200212373505
					],
					[
						-0.15006515320174718,
						0.048539472211711815,
						0.08152414835549243,
						-0.13189040780638925,
						-0.04789290370825174,
						0.01866128603088601,
						0.028839135977459403,
						-0.006233155504051984,
						-0.10328001864020396
					],
					[
						-0.15551091820829033,
						-0.03596749859352364,
						-0.14634256925414585,
						0.058821103881714645,
						0.1440199892184406,
						0.18427090134897187,
						-0.07590059967275482,
						0.14985251911605937,
						0.043232089846272
					]
				],
				"biases": [
					-1.7876138427537955,
					-0.33234376574781477,
					0.21146599667218152,
					-0.52518624566172,
					-1.0766828618195021,
					0.879749821018482,
					-0.4922715834102193,
					1.4103566361119735,
					-1.2505707889964448
				]
			},
			{
				"n_inputs": 9,
				"n_outputs": 11,
				"activation": "Sigmoid",
				"activations": "None",
				"weights": [
					[
						-0.09382512501987993,
						-0.07879241293195197,
						-0.25994027222009136,
						0.017668132673518952,
						-0.17119231299871843,
						-0.14813312871047782,
						-0.03647454768602931,
						-0.06188537092957641,
						0.1016451765070202,
						-0.018768761296987208,
						-0.0644442272217806
					],
					[
						0.2058873856010459,
						0.05999127488305605,
						0.07847869493597642,
						-0.11179782849076386,
						0.09506393175668397,
						-0.19949867187084327,
						0.08650237519878569,
						0.11553851798428053,
						0.0020219392173362752,
						-0.1520870372817987,
						-0.012399244137445647
					],
					[
						0.06460374488274735,
						-0.16342340201203698,
						-0.11082620828058509,
						-0.06508576012946318,
						-0.0024822879903607844,
						0.026977074822417055,
						0.04827781809293069,
						-0.15960886452531678,
						0.00876695502440931,
						0.055518078261133245,
						-0.15102068501561983
					],
					[
						-0.040460136543518384,
						0.03149822853044881,
						0.2000267400043243,
						-0.14067938459624602,
						0.06782009574121735,
						0.1440535198688344,
						0.03559342236987491,
						0.1498044662957477,
						-0.0018304987833452782,
						0.11144313655882099,
						0.07799466109280638
					],
					[
						0.02315797745948121,
						0.07537472240569228,
						0.14994816948354248,
						-0.07684921975212687,
						-0.17599385160224923,
						0.023922088875808104,
						0.17831873172705948,
						0.010824610144209093,
						-0.062297748838585,
						-0.18040037353212257,
						-1.0965160701568984e-05
					],
					[
						-0.02995416669054443,
						0.049564718473245596,
						-0.033860562428692856,
						0.1435018394278143,
						0.06288339441848594,
						0.015610613818741952,
						-0.01320154450709028,
						-0.015971412214788518,
						0.005665556977493157,
						0.023487445364770716,
						0.14305468559473614
					],
					[
						0.13799038442453815,
						-0.021429375330641636,
						0.10063170870191396,
						0.20980704587871735,
						0.16445658131315138,
						-0.043966625028376644,
						-0.13763745353223245,
						-0.05326809374028083,
						0.06817247526724352,
						-0.0389489108035113,
						0.17198185545144112
					],
					[
						-0.11535396949250894,
						0.192764039812315,
						0.021524610187421793,
						-0.12362536415351016,
						0.0053800797588082604,
						-0.09905774173212717,
						0.19997277718551143,
						-0.06991048441379909,
						0.12157729371200546,
						0.046085132215988,
						-0.015057847322996892
					],
					[
						0.15326204593290718,
						-0.03370473790358623,
						-0.08743349497421711,
						-0.013707209557290493,
						-0.1882619058120505,
						-0.024878873204575068,
						-0.198971190315137,
						-0.0668957369343151,
						0.12369114125025016,
						-0.030960578769908705,
						0.07787256071169169
					]
				],
				"biases": [
					-0.07029710779930795,
					-0.1723768717766068,
					-0.08188430099729252,
					1.4630433720331733,
					0.47727343135430655,
					-1.3766109249391336,
					0.1342250795059347,
					-1.3493229027939317,
					-0.43876473339137245,
					-0.38395149470009726,
					-0.1756195984458003
				]
			},
			{
				"n_inputs": 11,
				"n_outputs": 13,
				"activation": "Sigmoid",
				"activations": "None",
				"weights": [
					[
						-0.1630080775213267,
						0.02052020200956003,
						-0.21075589423661,
						0.012640180957749075,
						-0.1599611677093024,
						-0.1125730168842944,
						0.06756902569311472,
						0.10861567194938045,
						0.11114338386770294,
						0.05509196633217709,
						-0.00016130645899122315,
						-0.09223779245412618,
						0.07018733739829847
					],
					[
						0.17243126851270946,
						0.03157700549826727,
						-0.004050579501432367,
						0.13693855911353542,
						-0.06037268301975335,
						0.045201059203778794,
						0.09982787990920788,
						-0.1142382622750468,
						-0.049120436482721824,
						0.147407227314842,
						0.021144525753104743,
						0.05325946068891653,
						0.03964824360546637
					],
					[
						-0.07751985599361859,
						-0.1162861282747699,
						0.014373029146643256,
						0.020025188212455056,
						0.006911305397332108,
						0.045286942749471204,
						0.018515110963428578,
						0.16210334913295732,
						-0.16056601609789514,
						0.06643024930984284,
						0.09794332076839139,
						0.11281987027975149,
						-0.10345405284413439
					],
					[
						0.19844025907097212,
						0.20042701474145833,
						-0.08547907410950349,
						-0.04491438299954373,
						-0.12343878268612347,
						-0.08411309515470843,
						-0.09621629921587835,
						0.04893099477881963,
						-0.058272861068404826,
						-0.10117392151288476,
						-0.002466589252563455,
						0.014227108978483609,
						-0.11242139108146432
					],
					[
						-0.007715917837334245,
						-0.09069083201334036,
						-0.16810701901488717,
						-0.06762097232992563,
						0.11007928391244025,
						-0.06185343223684804,
						0.05265300444968837,
						0.19284962669633438,
						-0.1423728911326502,
						-0.10537692893079718,
						0.01152068390104894,
						0.18976311046534738,
						0.03343231865118644
					],
					[
						0.06929753709798517,
						-0.01817838523881961,
						0.0945633994043304,
						0.016992413071603967,
						0.01450767027971964,
						0.1653710485685317,
						-0.07552262133741174,
						-0.18681836477481326,
						-0.13139316910377727,
						0.043416437904437964,
						0.013787056280866473,
						0.1560244014666768,
						0.13786251814771816
					],
					[
						0.002849378839064861,
						0.029106808307698157,
						0.0790258025437066,
						0.13147722423905536,
						0.0004672658488738622,
						-0.0332601514493281,
						-0.15882076632702521,
						0.14921977467492795,
						-0.07688356984364395,
						0.04364536981616968,
						0.12419704427696197,
						-0.10821762606676662,
						0.0007180837036911383
					],
					[
						0.09369935070633525,
						-0.17298226725524662,
						0.05166238236198152,
						-0.03236718747350086,
						-0.09201322436572233,
						0.15319644376549554,
						-0.10395164295521196,
						-0.3072106536169392,
						0.19918311342907025,
						0.0772369842876997,
						0.10705077070638301,
						-0.22813833941165784,
						0.05871455131935069
					],
					[
						0.0817130968622297,
						0.1762502857860909,
						-0.12117044013374803,
						0.006534771723879069,
						0.04689962879254994,
						0.0007793150074927351,
						-0.11238632383340524,
						0.16739997186008054,
						0.10111841496983842,
						0.09216006290949197,
						-0.029544948518816613,
						-0.08031365959339033,
						-0.0015361332393293739
					],
					[
						-0.1286555803386644,
						-0.020815892607551484,
						-0.011376762161096211,
						0.07395557836255313,
						-0.0866821145628318,
						0.0011484927252582975,
						0.04767624794240132,
						0.04218853156015155,
						-0.06535254688350527,
						0.05170596295837862,
						-0.06129408442673412,
						0.039631086187825675,
						-0.025206900329727458
					],
					[
						-0.05126091037626934,
						0.05113208050548031,
						0.1228021816166846,
						0.14928972934406234,
						0.17408902306157037,
						-0.13744984918528685,
						-0.12615275227238207,
						-0.21264048892727036,
						-0.14893163022843736,
						-0.11985182786919024,
						0.10663955618667068,
						-0.15957290234460392,
						0.09276353147317104
					]
				],
				"biases": [
					-0.3690078567088079,
					-0.6379545447058437,
					1.1763835957633337,
					0.18323409509459307,
					0.7452984135329834,
					0.41727798769110447,
					-0.05395860233871541,
					-0.3969616665191106,
					0.396065824389665,
					0.25446676075911784,
					0.48223129328625697,
					-0.038605019888831464,
					-0.5372955539799897
				]
			},
			{
				"n_inputs": 13,
				"n_outputs": 2,
				"activation": "Activation",
				"activations": "None",
				"weights": [
					[
						0.030888826277326593,
						-0.059947167406704
					],
					[
						-0.054865077196547145,
						-0.0005640518668959117
					],
					[
						-0.06666950886947753,
						-0.1445550976290671
					],
					[
						0.18093850498864533,
						0.009456634817564293
					],
					[
						-0.01042680760188699,
						0.03083110355054827
					],
					[
						-0.04568239679344962,
						-0.1330073504361565
					],
					[
						0.1380187203007269,
						0.08432263504123125
					],
					[
						0.09876663407757345,
						-0.008575059011401973
					],
					[
						-0.2136223826404846,
						0.07989372002271725
					],
					[
						-0.017855914046142056,
						0.08365706128268946
					],
					[
						0.08719495388575275,
						-0.08675184814188532
					],
					[
						-0.10021335316188025,
						-0.049469344736199516
					],
					[
						0.11742950624914308,
						0.02374967353952757
					]
				],
				"biases": [
					-1.1843056171480442,
					-2.041994928438965
				]
			}
		]
	}
}