{
	"NeuralNetwork": {
		"preset": "None",
		"Layers": [
			{
				"n_inputs": 2,
				"n_outputs": 4,
				"activation": "Sigmoid",
				"activations": "None",
				"weights": [
					[
						-0.030819367847639223,
						0.007113018565582787,
						-0.18767563489711525,
						0.04383012286632303
					],
					[
						0.2075203805566529,
						0.0038268486112687794,
						0.06280239887015278,
						-0.19703431016023054
					]
				],
				"biases": [
					-0.8707118283994892,
					-0.03883305254927332,
					1.2870658657294245,
					-0.2233643182601108
				]
			},
			{
				"n_inputs": 4,
				"n_outputs": 6,
				"activation": "Sigmoid",
				"activations": "None",
				"weights": [
					[
						0.08758831319896772,
						-0.10797153729789673,
						0.0434109770828216,
						0.10176415222922826,
						0.030593571522938137,
						-0.029640142213949474
					],
					[
						0.014126010154858005,
						0.18379245593914434,
						-0.007757608708126517,
						0.0745645853505712,
						0.0056978978123571195,
						-0.03959560222043007
					],
					[
						-0.09035123653987821,
						-0.03173382100624441,
						-0.08830843352505773,
						-0.01525429969028238,
						-0.10753631336570844,
						0.10773514083518763
					],
					[
						0.061763214213246743,
						0.08222459579249748,
						0.003179733866788581,
						0.00933073691710582,
						-0.1368154225591621,
						0.0797634840677779
					]
				],
				"biases": [
					-1.1196647122263919,
					-1.1746573805706446,
					1.026916568727184,
					-0.7313665030843329,
					0.5970074579858788,
					0.01899240611539648
				]
			},
			{
				"n_inputs": 6,
				"n_outputs": 8,
				"activation": "Sigmoid",
				"activations": "None",
				"weights": [
					[
						0.03162498225959857,
						-0.017444029591923815,
						0.022009780179842207,
						0.10594052991782005,
						0.11211719002489168,
						0.10628423401878168,
						-0.008565547745804772,
						0.1555020693767867
					],
					[
						-0.04370420319498388,
						0.17140163757027665,
						0.02761196901799111,
						0.013452980587101244,
						-0.13704250566661144,
						0.06488100214450841,
						-0.0938425025358694,
						-0.07874455652975824
					],
					[
						-0.04781822679514091,
						-0.04711755265822679,
						-0.062098732856921114,
						0.15316118691532088,
						-0.09154534026652299,
						-0.0772859647984937,
						-0.12424920038836754,
						0.06806861398500476
					],
					[
						0.08887531549975716,
						0.036906070155048994,
						0.24240156210820546,
						-0.05474473028222926,
						0.06600543044075935,
						0.07445729159294077,
						-0.057815601533078353,
						0.039894436861347485
					],
					[
						0.15888030759844837,
						-0.07622357263799441,
						0.16475942693168966,
						-0.13480523995408975,
						-0.016648685762123475,
						0.021120488170156975,
						0.020321072588917747,
						-0.055169806480629593
					],
					[
						0.10913902032990785,
						-0.08843311853296698,
						-0.14803422499552152,
						-0.05161645527680425,
						-0.16487857357195465,
						-0.027794852452708414,
						-0.04624010080609734,
						-0.1935573961825176
					]
				],
				"biases": [
					-0.9419169381329205,
					1.88153268252077,
					0.43198925681601363,
					1.3944925596992732,
					0.8687144512428848,
					-0.6017535255964082,
					1.9232892491689249,
					0.13072005796735375
				]
			},
			{
				"n_inputs": 8,
				"n_outputs": 10,
				"activation": "Sigmoid",
				"activations": "None",
				"weights": [
					[
						-0.05098826886094047,
						0.0758995722048057,
						0.13545557241160097,
						-0.03321304769622219,
						-0.2261018867194222,
						-0.18791016182204656,
						-0.04188850288766613,
						0.05074696271372288,
						0.07245014658990043,
						-0.0408579740793831
					],
					[
						0.06882834070684095,
						-0.030692233209896128,
						-0.17257568871460263,
						-0.21963453950177303,
						-0.01870164082431556,
						-0.049903237787244314,
						0.026963585789355034,
						-0.0017419847797128483,
						-0.15899046537611383,
						0.073852754520658
					],
					[
						-0.05435784258600597,
						-0.08435888697288983,
						0.08877584432641711,
						0.022230212248303537,
						-0.16532499950996882,
						-0.018290265594588306,
						0.1593050553302858,
						-0.001716284872825223,
						-0.042559192350613076,
						-0.04798849682741719
					],
					[
						-0.11180259090302243,
						-0.015444608269835097,
						-0.1333762273991775,
						-0.08594218522160502,
						0.14515643400536282,
						0.18822026951874235,
						-0.08028598577724314,
						-0.010257907154450026,
						0.09546389211921662,
						-0.06655252274850952
					],
					[
						0.22643698716553487,
						-0.07028245403289077,
						-0.018740547035083505,
						0.00562922053371104,
						-0.14636246407401557,
						0.0069865458094000455,
						0.036210886634503635,
						0.18346363567293078,
						-0.040759456156222104,
						-0.22998014432800462
					],
					[
						-0.04732870612063471,
						0.11378912839317522,
						-0.0032954045531348695,
						0.04383425352871119,
						0.0023596238651066997,
						0.06518525201323676,
						-0.1500452478870661,
						-0.06511863227914981,
						-0.08247449555636048,
						0.12419569199135226
					],
					[
						-0.0377756064104551,
						0.201983644460479,
						-0.01654124027115286,
						-0.0030562937243408324,
						-0.050195525595225804,
						0.04375488996940538,
						0.10018367378512663,
						0.13075280098481376,
						-0.05711846528208991,
						-0.04079458945929329
					],
					[
						-0.055998118777305095,
						0.04292943685953582,
						0.1436765516642837,
						0.039742960679604714,
						-0.03169717500424138,
						-0.0049899762576300685,
						-0.017161538727333277,
						0.08161631809063552,
						0.02439078736404247,
						-0.03281739667981989
					]
				],
				"biases": [
					1.401739840738557,
					-1.2602227772537902,
					1.4151512647218487,
					-0.30642072592306746,
					0.007381599300371688,
					-0.7333266009741441,
					-0.46244586582991565,
					-0.48731817870252614,
					-0.3648743719555331,
					-0.42841911607033417
				]
			},
			{
				"n_inputs": 10,
				"n_outputs": 12,
				"activation": "Sigmoid",
				"activations": "None",
				"weights": [
					[
						-0.03496234528741827,
						0.04880274697758243,
						0.03159834616549865,
						-0.012714291214320168,
						-0.03453994082060708,
						-0.050839092871696794,
						0.00829609334642758,
						0.06271410936307777,
						0.0487887246992495,
						0.0211866023778334,
						-0.10656201843052696,
						0.13566982246210121
					],
					[
						-0.05155384981602136,
						0.1316613622973706,
						-0.10121940413379503,
						-0.085615013689164,
						-0.041406002140685266,
						-0.00957410966171623,
						-0.16888564525962604,
						0.01932810262656534,
						0.052363556849301586,
						-0.018506250444242926,
						-0.09375157844773306,
						-0.2841602212865557
					],
					[
						-0.03296352862322473,
						0.022776757387844473,
						0.0877993755523501,
						-0.0959707070801789,
						-0.15937201533439535,
						0.027138755667003345,
						0.081507085058309,
						0.022817280052441807,
						-0.20870369589661442,
						-0.11226254726032539,
						-0.019538410881021907,
						-0.1694836448279134
					],
					[
						-0.005293724033393666,
						-0.010306463438895236,
						0.08991468450318064,
						-0.1641286021388081,
						-0.10300607695787951,
						0.09133542558074681,
						0.019653215149339372,
						-0.16531568169603045,
						-0.08594743947495262,
						-0.04861865704408025,
						0.044512274802472024,
						0.02598355004706346
					],
					[
						0.1749733575813861,
						0.10059222801198386,
						0.11938708946858761,
						0.2397232498335396,
						-0.1306489128269135,
						0.06575325141806924,
						0.20538501968978606,
						-0.040092679308729916,
						-0.12666930138848873,
						-0.03634938755410518,
						0.033833032448879356,
						-0.12689252395773815
					],
					[
						-0.14029353313512624,
						-0.0660862510068063,
						-0.043478858212485726,
						-0.1547689344641214,
						0.024484347025335418,
						0.019860003174297675,
						0.03891820645324684,
						0.08170679336551069,
						0.0017795110234958165,
						0.061312864850008635,
						0.10375305911907695,
						0.2659758566049698
					],
					[
						-0.2743233367461664,
						0.002006598955948757,
						-0.0961105817173683,
						-0.06032423153076179,
						-0.047953571324811296,
						-0.09277672051316194,
						0.10988645367459844,
						-0.15315547326165235,
						0.09843089890565962,
						0.15244735804438514,
						0.059726294518514994,
						0.11741563890659015
					],
					[
						-0.09332297149959284,
						-0.09839801126044315,
						-0.021998951423681135,
						0.13906507958434297,
						-0.040290573886213786,
						-0.1511563998618543,
						-0.0015278787758481577,
						-0.016004490741863397,
						-0.09427949278397307,
						0.06616023243750573,
						0.0019464832137317688,
						0.04473303446084885
					],
					[
						0.11178275091883233,
						0.09682433609319403,
						0.04146696113240552,
						-0.0775658116361375,
						0.07530527848628993,
						0.13960797068891267,
						0.22798070004847726,
						-0.005008103829155727,
						0.14443015816318447,
						-0.18430991507513003,
						0.02715411449262488,
						0.1274226527269605
					],
					[
						-0.08094978047079633,
						-0.0900787609897537,
						-0.054388205691859676,
						0.11903637758191332,
						0.08808950946701619,
						0.023224783531685222,
						0.01717204524300539,
						0.1413003189747973,
						-0.05481144771870078,
						-0.016648593141990967,
						0.09373133291049063,
						-0.04889815845882026
					]
				],
				"biases": [
					-0.04948306602937383,
					1.0428254013821472,
					-1.6681517627971574,
					-0.1259882436915138,
					0.1404503002387427,
					0.8621374722471651,
					-1.4157961154979304,
					0.7290836533668518,
					1.3522906155882117,
					2.1791364258158548,
					1.047005759957946,
					-0.8850059944130289
				]
			},
			{
				"n_inputs": 12,
				"n_outputs": 14,
				"activation": "Sigmoid",
				"activations": "None",
				"weights": [
					[
						0.007302236115691044,
						-0.02454151905741144,
						0.06157082927629596,
						0.07631610047531229,
						-0.12489549682817813,
						0.15448323068713815,
						-0.052552745474055,
						-0.04230116717024056,
						0.12151375644687235,
						0.05390834853990544,
						-0.15712520828957366,
						0.03451878933298955,
						0.20432737314987595,
						-0.16781489024578045
					],
					[
						-0.01840488523534731,
						0.16697856334153244,
						-0.21047485967878587,
						0.09214025896059921,
						-0.12400060750713336,
						-0.060094453530619624,
						0.19861995925593887,
						-0.005064124775237596,
						0.1174091817622449,
						-0.023511112081862226,
						-0.09987401194633269,
						-0.10575707087724523,
						0.008678583149608524,
						-0.08155674484023134
					],
					[
						0.036652875058392174,
						0.2292347044010477,
						0.06865599979907884,
						0.0523140442547404,
						-0.1559881202570746,
						0.00520082100014311,
						-0.08044093784952179,
						-0.05978901833046392,
						0.00018800269290066498,
						-0.0795893459873827,
						-0.07545706790832309,
						-0.00194197841366884,
						-0.15034580582819398,
						-0.018550731945823795
					],
					[
						-0.09631436457796708,
						0.0411232378412488,
						0.037265649514733365,
						-0.01601265587500613,
						-0.05096235012779583,
						0.1068584517638884,
						0.011480779774877926,
						-0.07725958820935724,
						-0.009434473523853168,
						0.05801526931119342,
						-0.06862054237876315,
						0.19115847580502524,
						0.06129838208194221,
						-0.06253226326975846
					],
					[
						0.009156869015105512,
						-0.07368568345851931,
						-0.10856384103828981,
						0.01959466126984837,
						0.08935509852736491,
						-0.010011346120570938,
						0.08436749787605789,
						-0.10980339014517082,
						0.015246745565634219,
						0.07664243846058305,
						0.1684254708742831,
						0.10924604552653848,
						-0.06214687964431845,
						0.035189958105554656
					],
					[
						0.017974256002221637,
						0.13301538811024494,
						0.027600622374382034,
						-0.1425003934097603,
						0.07908536027838807,
						-0.03344636885193425,
						0.08895443134943627,
						-0.05094010893715278,
						-0.11932765458140715,
						0.012011214909493766,
						-0.030876111276487445,
						0.03037566512822761,
						0.14715455392434704,
						0.04502096046323494
					],
					[
						-0.0104036025068535,
						-0.05763397802008322,
						-0.06489573482343379,
						0.07609313147945145,
						0.08403420035008058,
						-0.025615814486831114,
						0.02818434773463484,
						0.0003709125609985484,
						-0.05089407133680166,
						0.08145693217536348,
						0.13707593692543546,
						0.058631861995088345,
						-0.09946691434683895,
						0.15202515481369247
					],
					[
						-0.11696306728128586,
						0.10079100983276315,
						-0.07008623478029473,
						0.00988847116843325,
						-0.034895050720777795,
						-0.10204241113238738,
						0.16808229057761975,
						0.036863156050123934,
						-0.013193614176561206,
						0.001981647673237873,
						0.12327133219445181,
						0.002915568135408469,
						-0.013610458068601282,
						-0.07515725285141878
					],
					[
						-0.05996451787203985,
						-0.004578097396747194,
						-0.10452004659848571,
						-0.13321041717469315,
						-0.06280800595690547,
						0.08346807672983539,
						-0.008422094045058842,
						0.01236874620085073,
						0.03414244881820169,
						-0.12089328360471992,
						-0.03699878492484053,
						0.0628422056888326,
						0.16286591692338456,
						-0.22822680637221393
					],
					[
						-0.07457007448562035,
						-0.05318181355980567,
						-0.15454502397973469,
						0.052612127394341325,
						0.08074097514764926,
						-0.03272802933193468,
						0.007062124497563366,
						-0.015928886297466534,
						-0.11393631176202859,
						0.042200517168537566,
						-0.053672190517291864,
						0.103050253509861,
						-0.22378594769461785,
						0.13273132499819046
					],
					[
						-0.08356132630253986,
						-0.11483288772572403,
						0.08410617798259304,
						0.09815783054430494,
						0.07441794818923254,
						0.0448852044770368,
						-0.002572702399640911,
						0.0845189771191107,
						-0.17321078744342133,
						0.07362608135096559,
						0.25297605393641437,
						0.06485349341185155,
						-0.021107892544242855,
						-0.025454770280213618
					],
					[
						-0.10818520637441678,
						-0.009876388522678114,
						-0.0509645361483149,
						0.12396543215296241,
						-0.08523674157166967,
						0.049234681917742745,
						-0.05815741918840776,
						-0.15849169420817127,
						-0.03217626419962504,
						-0.11237227699894022,
						-0.06635865282467,
						-0.02895372113654627,
						-0.17359425109719323,
						0.10247113144822087
					]
				],
				"biases": [
					-0.07820578438926803,
					1.3720343691560433,
					-0.35150682048721654,
					0.7933889386697495,
					-1.4034717309690237,
					-1.206722563668268,
					0.16863458855420704,
					0.4047481508707778,
					0.3516917661912742,
					-1.0982843275162215,
					0.208641231211764,
					0.6608833282565105,
					1.1059349193771388,
					2.5753099409873266
				]
			},
			{
				"n_inputs": 14,
				"n_outputs": 2,
				"activation": "Sigmoid",
				"activations": "None",
				"weights": [
					[
						0.005372801939588686,
						0.0866235547819828
					],
					[
						0.13327921068018606,
						-0.027944032664002246
					],
					[
						-0.054269361699729284,
						-0.12963946243803753
					],
					[
						0.08832129527592505,
						0.08409493828119152
					],
					[
						-0.01700973347341096,
						0.04929062544839266
					],
					[
						-0.008064575567004231,
						0.05741579092479596
					],
					[
						0.0978473860074452,
						-0.17577097031084146
					],
					[
						-0.038341610717084945,
						0.2357843078820135
					],
					[
						-0.12947802299843844,
						0.10272254201113858
					],
					[
						-0.04521615853316192,
						-0.06007826892055808
					],
					[
						-0.15714936000803914,
						-0.05297447088480798
					],
					[
						0.13965165478605812,
						-0.08655261433545464
					],
					[
						0.052760669039747146,
						0.1354368750227559
					],
					[
						-0.12221484104133713,
						0.0997790147520543
					]
				],
				"biases": [
					2.4135039984641113,
					-2.087243097142415
				]
			}
		]
	}
}