{
	"NeuralNetwork": {
		"preset": "None",
		"Layers": [
			{
				"n_inputs": 2,
				"n_outputs": 4,
				"activation": "Sigmoid",
				"activations": "None",
				"weights": [
					[
						0.1373816601009363,
						-0.12711119800654058,
						-0.07093281637124536,
						-0.03911718982572984
					],
					[
						-0.030027227761244946,
						-0.12190752095214025,
						-0.1871041214271879,
						0.11398060353464189
					]
				],
				"biases": [
					1.139722096539827,
					-0.48884974556201505,
					-1.8356157041974375,
					0.0943300994076023
				]
			},
			{
				"n_inputs": 4,
				"n_outputs": 6,
				"activation": "Sigmoid",
				"activations": "None",
				"weights": [
					[
						0.03715192119065599,
						0.07399458363677706,
						0.02518939074091832,
						-0.04549110919530883,
						-0.12963259627981819,
						-0.05954464132504894
					],
					[
						-0.042566822349852707,
						-0.03492931046199765,
						-0.01977077961779191,
						0.08709121469060094,
						0.14457214282170341,
						0.10582171605170583
					],
					[
						-0.013512188548701507,
						0.18528614159072998,
						0.12995839701720535,
						-0.11359804327142398,
						-0.1784829411092725,
						0.05652030279572162
					],
					[
						0.0941317054079192,
						0.06892523984097733,
						-0.05489423204951954,
						-0.004497093437067677,
						0.07440790934211731,
						-0.11008276283374091
					]
				],
				"biases": [
					-0.031010663412315165,
					-0.6085348563574583,
					-0.5628299153927362,
					0.6740907980993055,
					0.7137705958862756,
					0.9698042830745126
				]
			},
			{
				"n_inputs": 6,
				"n_outputs": 8,
				"activation": "Sigmoid",
				"activations": "None",
				"weights": [
					[
						0.19453835222304042,
						-0.10710839355190885,
						0.05435521262540319,
						0.12400520106183102,
						0.2322128741798405,
						0.1330612495333302,
						0.029599964180807337,
						0.13232156166803719
					],
					[
						0.02776183698965767,
						-0.04650228640356079,
						-0.056972105432961884,
						-0.23580405737714882,
						0.03985501993882353,
						0.026862450991618044,
						-0.011159221734806164,
						-0.15149143414431285
					],
					[
						-0.30337710295501563,
						0.05787536799069897,
						0.00907966690288582,
						0.012458524698740365,
						-0.0040499609890572085,
						-0.012123234749148656,
						0.03445260972132632,
						0.23651687185091724
					],
					[
						-0.057356209395309624,
						-0.018254702132412575,
						0.008322397165750263,
						-0.04487189615176228,
						-0.00806116848912824,
						-0.021094560867686338,
						-0.0029204160414463692,
						-0.1433903540146183
					],
					[
						0.07427798502892867,
						-0.06840976471002805,
						0.03183712210576256,
						0.0017037301536993556,
						-0.07254872223011315,
						0.11321824899476401,
						0.032723305803631024,
						0.0978676904870205
					],
					[
						-0.04532205923110797,
						-0.030914263132933717,
						-0.0827814952321897,
						-0.03802759349430615,
						-0.07729657569950575,
						0.12276179789133157,
						0.12824242377441927,
						-0.05981627282499883
					]
				],
				"biases": [
					1.1515413994727273,
					2.429317976258536,
					1.6074309512768545,
					-1.3470265234670145,
					0.2856257752144745,
					0.14521205561443964,
					-0.874661083638151,
					0.31411446882368693
				]
			},
			{
				"n_inputs": 8,
				"n_outputs": 10,
				"activation": "Sigmoid",
				"activations": "None",
				"weights": [
					[
						0.09550841864533213,
						-0.06070347877871765,
						-0.11480909900569902,
						-0.11657091446251316,
						0.0005352403578310801,
						0.17060770542592787,
						0.10591384209773291,
						-0.009353849239839677,
						0.09963798389093764,
						-0.011118551678749517
					],
					[
						0.11873830875138905,
						0.194458304702487,
						0.01893070688044796,
						0.006101060030449004,
						0.02295223318978476,
						0.13108030538727222,
						-0.05491541209107675,
						0.0916266677026495,
						0.0008453733084727087,
						-0.24498906720536395
					],
					[
						-0.05448318253512942,
						-0.08229983625663065,
						-0.1056693771602148,
						0.15354355594761546,
						-0.1093760512085414,
						-0.23500778808954112,
						0.05571412784432725,
						-0.08491827651036477,
						-0.018214750255424763,
						-0.19050242628643044
					],
					[
						0.008733972134240323,
						0.13128448341835117,
						0.05153596574567348,
						0.03928755967520241,
						-0.009362578663176814,
						0.017452591439218634,
						0.06968239051337571,
						-0.06663692295188421,
						0.19083204218838823,
						-0.05705325893913929
					],
					[
						0.004942061221291574,
						-0.10748803438488785,
						0.21188256055059657,
						-0.17492357355560517,
						0.051327902434249686,
						0.050262515762886255,
						-0.04521487666044266,
						-0.10323372699629747,
						-0.04556672289366292,
						0.07513698762436799
					],
					[
						-0.013545300938442776,
						-0.016810256539571793,
						0.07265625166117376,
						-0.10634612040255964,
						-0.1356102964559301,
						0.027369996589470202,
						-0.12862676382860874,
						-0.011753891049020502,
						-0.03957684454697924,
						0.050268210234618076
					],
					[
						0.017655139604207035,
						-0.11687131130028561,
						0.1803767251103092,
						0.004780671202045784,
						0.001859778957824835,
						-0.07029491406496194,
						-0.023591182377197643,
						0.025215440038120734,
						-0.026758913818225618,
						-0.024894817067445608
					],
					[
						0.1474876101556796,
						-0.13731514761996938,
						0.026172295030722256,
						-0.14155266255979185,
						-0.07967865288077214,
						-0.019756822280479158,
						0.01571967832501384,
						0.06040762346211649,
						0.0632561686630859,
						-0.029467947529545596
					]
				],
				"biases": [
					-0.23652011960664765,
					0.7592488498725394,
					0.2584342120702045,
					-0.8946678649765616,
					-0.15655942883651786,
					-0.6006570043841107,
					0.40216247859628124,
					1.0709534169362203,
					1.2221193118056157,
					-0.12590345556614535
				]
			},
			{
				"n_inputs": 10,
				"n_outputs": 12,
				"activation": "Sigmoid",
				"activations": "None",
				"weights": [
					[
						-0.0026378806942678056,
						-0.024531319059751193,
						0.16046530367732506,
						0.06962115515284456,
						-0.05188140785018126,
						-0.0038408226756300925,
						-0.03737575650362943,
						0.022046843909935734,
						-0.11292960129537531,
						-0.014620022330155497,
						-0.11497997087105379,
						-0.06303420108198708
					],
					[
						-0.0562749777825621,
						-0.03420472062197732,
						-0.013320407725074325,
						-0.16713950602567706,
						-0.014806243883856197,
						-0.1816335312682008,
						-0.057280223756768306,
						0.03806044137319681,
						0.19146830133741474,
						-0.0071964335012026205,
						-0.06530274082813692,
						-0.028658604592717185
					],
					[
						0.026428584839525527,
						0.0594952304459943,
						0.08712580079374135,
						-0.035672538621275306,
						0.031115697250240593,
						0.06594041225445454,
						0.022572353548626287,
						0.07157661726309249,
						0.11137521489635308,
						-0.062370324442470676,
						0.018909162415756617,
						-0.02802940967982003
					],
					[
						0.1279531155817649,
						0.1606294822828075,
						0.080586287163651,
						-0.1953638828995037,
						-0.061290568376493604,
						-0.06359052234795941,
						-0.11120291234000229,
						-0.03158996790515618,
						0.11264124174425122,
						-0.015766327900140417,
						0.003649688327480469,
						-0.1194744854000691
					],
					[
						-0.02894873429485135,
						-0.058600986620587076,
						-0.158808857125862,
						0.0027610144463122645,
						-0.02718619965299624,
						0.11167485377990714,
						-0.06857168032175354,
						0.049380796270702555,
						-0.06412890439834561,
						-0.034465926150842534,
						-0.03505940292541744,
						-0.08811362590403019
					],
					[
						-0.04110973678606311,
						0.02602787919321537,
						-0.08150907573955189,
						0.1283278651692413,
						0.043185305923417044,
						-0.07824154199779797,
						0.1640952626032567,
						-0.028191154198850606,
						0.1788964298842897,
						0.059107223356966124,
						0.047687402057065065,
						-0.017431405085312244
					],
					[
						-0.005943474865020288,
						-0.09259036202117021,
						0.08661283283687257,
						0.17500668748976903,
						-0.093561561337489,
						0.07572258040655967,
						0.1579158529275615,
						0.09052498108817442,
						-0.08808114590599128,
						0.16207874397444552,
						-0.1341784070390657,
						0.057093066112780144
					],
					[
						0.03716281174928133,
						-0.16925008710337075,
						-0.14516751542395165,
						-0.13313923536877692,
						0.12986894541246102,
						0.10047177274504333,
						0.054561433640138324,
						-0.15528045521430353,
						-0.12211344020113657,
						-0.043980412805952634,
						0.029800609671074698,
						0.051241907866024256
					],
					[
						-0.0017889244028216407,
						0.1110331703252419,
						-0.028239681701576952,
						0.010097555914521432,
						-0.018295463886363383,
						0.005391016993144328,
						-0.09301912768131844,
						0.08593809851140988,
						0.11599446873201565,
						0.06253186890309477,
						-0.0047047390155134615,
						-0.09213353446046288
					],
					[
						-0.053313746832640334,
						-0.06870730754908971,
						-0.13307874026960156,
						-0.025863364281822822,
						0.01760927239479416,
						-0.02185562699111877,
						0.0037216008328434594,
						-0.011719810706448541,
						-0.13796019623239975,
						-0.07933325039057618,
						0.12898294438839794,
						-0.09894945308131606
					]
				],
				"biases": [
					1.2057179623202745,
					0.00208571078882249,
					-1.3768699035798657,
					0.43717271450790324,
					-0.4564754729282244,
					0.22033194875961581,
					0.4679367590965163,
					0.7781698492382252,
					0.06979758540616957,
					-0.44773268402562516,
					-1.2494257959620776,
					-0.8445511298042234
				]
			},
			{
				"n_inputs": 12,
				"n_outputs": 14,
				"activation": "Sigmoid",
				"activations": "None",
				"weights": [
					[
						0.2425149214924296,
						-0.1327901382842727,
						0.07583496067493965,
						0.02857708678616161,
						0.06196382983800075,
						-0.014094738079723518,
						-0.002011842870726737,
						-0.005484230717663672,
						0.12101832162300286,
						0.009124809596935521,
						0.04286271124371955,
						-0.0080526764861391,
						-0.021215992821866567,
						-0.028940721220754292
					],
					[
						-0.016083227077465997,
						0.07303758763670892,
						-0.05073750601148766,
						0.039853208014001044,
						0.026438300164064534,
						0.28254055535359185,
						-0.009545506619154159,
						0.16186674834744247,
						-0.06779468411041353,
						-0.01892403243048288,
						0.13808673338641483,
						0.02411982495853909,
						0.024271010615385002,
						0.1924490566663903
					],
					[
						0.11154220069860576,
						-0.07662374071805764,
						0.0012891717335621836,
						-0.08471215559300481,
						0.10295924737442488,
						0.013261972452833996,
						0.0943717546280262,
						-0.004594427213223186,
						-0.03896239133629108,
						0.11390926153278474,
						-0.15262858411611935,
						0.005082558146725307,
						-0.10255285565964807,
						0.16120986925934183
					],
					[
						-0.08608640356120993,
						0.08189717982546263,
						-0.02415961166196128,
						0.02099486143535787,
						-0.0733049814102462,
						0.0939418977045485,
						0.034740623983531296,
						-0.05927401122255335,
						-0.07235761045401821,
						0.02830885046941989,
						-0.09426200016674485,
						0.12268648433314758,
						0.089160251455804,
						0.008556967989399616
					],
					[
						-0.06504203290268501,
						0.0392177246540892,
						-0.009393464583836088,
						-0.06684385451206154,
						0.10316590636750456,
						-0.020347333568277663,
						-0.05786970513326126,
						0.07743143620938477,
						0.10905280073415602,
						0.17486175573880938,
						-0.07097109962495364,
						-0.02004786123423126,
						-0.08392820690730564,
						0.02927448283902039
					],
					[
						-0.02195012640843733,
						-0.26040170591210654,
						-0.011540451569656954,
						-0.011793597346342914,
						0.029029821649889598,
						-0.1285992256653649,
						0.041340962125844274,
						-0.09052437640828292,
						0.04003717097405768,
						0.0015432848201821616,
						-0.04847000802172005,
						-0.2130898723236385,
						-0.033766829885747515,
						0.1003318708576385
					],
					[
						0.1621538756828962,
						-0.13156220789264106,
						0.1291627852051351,
						-0.0409933547485182,
						-0.07755163581784759,
						0.13302760636077055,
						-0.00549238583380677,
						-0.04947016106861794,
						0.10528715160024137,
						-0.05068141318716088,
						0.1340276740696323,
						0.035029285519706015,
						-0.061864775763922075,
						0.09692724737795405
					],
					[
						-0.027702161913130033,
						0.07115870714720389,
						0.048093022273175745,
						0.05466137301494785,
						-0.19694354307176576,
						0.023421935916014342,
						-0.02027953157104463,
						0.15917909294609747,
						-0.004583626893469426,
						-0.06094177781391807,
						0.17824952544427916,
						-0.3102930788297827,
						0.04606991536700855,
						0.0016750337841692374
					],
					[
						0.00026430610021294223,
						-0.016105335325158007,
						-0.22974668999307912,
						0.09457841529870559,
						0.008231597849957039,
						-0.09500303167025809,
						-0.19032245096441391,
						0.15225398703294413,
						-0.08500878029878578,
						0.15932559558337658,
						0.06020100438018488,
						0.07374660186821723,
						0.058202904052475746,
						-0.029369667010078534
					],
					[
						-0.01343140473096814,
						-0.09017772288535142,
						-0.11643818057459221,
						-0.1460317861375671,
						-0.231495412071595,
						0.0032131291050587693,
						-0.18490957110129438,
						0.07529550237212916,
						0.016096141781075317,
						0.00014109781983852448,
						-0.06308967789508606,
						0.021460853772562478,
						-0.0017180733688418135,
						0.05249629107822107
					],
					[
						0.006733635194030613,
						-0.03618208751749543,
						0.14800090925770054,
						-0.03633760366174272,
						0.06663154920947151,
						0.10273324213165298,
						-0.11862311512083526,
						0.016872587557366658,
						-0.050914561554279036,
						0.016455493463732387,
						-0.22279719236669926,
						0.07799216303344884,
						0.20221806153350397,
						-0.12444059007198452
					],
					[
						-0.03188552424879298,
						-0.09155718003201546,
						0.015341565947612707,
						-0.039815590721018985,
						0.2549838817332403,
						0.05489065973587581,
						-0.11808231779342687,
						-0.08743063030934471,
						-0.19809675499064863,
						-0.055345575464035006,
						-0.05593213641732317,
						-0.01264314832402397,
						0.02392423076045468,
						-0.17881302597093685
					]
				],
				"biases": [
					-1.944658429065725,
					0.060841585852879916,
					-1.6445067542949443,
					0.1665572770835941,
					0.4160195277581018,
					-0.30677781911559443,
					-0.8319046281530008,
					-0.36620282972291474,
					0.12732949620873446,
					-0.5742610892123329,
					1.874063300711659,
					-1.1011953653212514,
					-1.6647752215804386,
					0.0844086395165132
				]
			},
			{
				"n_inputs": 14,
				"n_outputs": 2,
				"activation": "Sigmoid",
				"activations": "None",
				"weights": [
					[
						-0.015393324365702218,
						-0.08686181702870747
					],
					[
						-0.1935425282182878,
						8.548872743792586e-05
					],
					[
						0.016987355763249654,
						-0.10526359103496588
					],
					[
						0.2019614776859272,
						0.09347673357460037
					],
					[
						0.05560211720371425,
						0.14657020730938275
					],
					[
						0.05187888692665639,
						0.14990450949352194
					],
					[
						0.14981398021424105,
						0.012506469133034851
					],
					[
						-0.06228041183245375,
						-0.07655513729682421
					],
					[
						-0.15084512698302072,
						-0.007652871272697193
					],
					[
						-0.05459342541407736,
						0.03880374488525723
					],
					[
						0.04416054235535124,
						-0.13259942297749636
					],
					[
						-0.09361599871742343,
						-0.12151938817325943
					],
					[
						0.11383487736717912,
						0.03472214799394496
					],
					[
						0.05592006201650074,
						-0.04061995814359803
					]
				],
				"biases": [
					0.14174490299901746,
					0.580093930066791
				]
			}
		]
	}
}