{
	"NeuralNetwork": {
		"preset": "None",
		"Layers": [
			{
				"n_inputs": 3,
				"n_outputs": 5,
				"activation": "Hyperbolic",
				"activations": "None",
				"weights": [
					[
						0.049668899393424566,
						-0.013837270962147328,
						0.06477043176028335,
						0.15230281726465686,
						-0.02341120702343329
					],
					[
						-0.02342415753190371,
						0.15791724662172846,
						0.07672177307788425,
						-0.046955179989565575,
						0.05424239690688555
					],
					[
						-0.046342040243594916,
						-0.046583664341244335,
						0.024203394495809646,
						-0.19132528576429475,
						-0.1724841111067053
					]
				],
				"biases": [
					-0.5622976355397267,
					-1.0128375362860078,
					0.3142293753362777,
					-0.9080277953421284,
					-1.412306481884444
				]
			},
			{
				"n_inputs": 5,
				"n_outputs": 7,
				"activation": "Hyperbolic",
				"activations": "None",
				"weights": [
					[
						0.14650052471444489,
						-0.022529802156471476,
						0.006731702594474278,
						-0.1425950846433914,
						-0.05437360415260331,
						0.011310620051061173,
						-0.11509565372765648
					],
					[
						0.037477263710463164,
						-0.05999774510506159,
						-0.029204962381719254,
						-0.060337780324623926,
						0.18532217336067544,
						-0.0010479461775998713,
						-0.10576901391745899
					],
					[
						0.08230081222130486,
						-0.12211817189548577,
						0.02090287969005498,
						-0.1958812850319881,
						-0.13286551301340166,
						0.01953108705375448,
						0.0738442905935855
					],
					[
						0.017046257209523193,
						-0.011498954928828796,
						-0.030143047581381505,
						-0.1480183525678804,
						-0.07189268100193136,
						-0.04576337594318727,
						0.10571560917203843
					],
					[
						0.03424978118777646,
						-0.17622237447334888,
						0.032368386179727815,
						-0.0387142337283255,
						-0.06757874324041299,
						0.061540592800238623,
						0.10310458132060493
					]
				],
				"biases": [
					0.9313485359714816,
					-0.8392786385323671,
					-0.30917381075844097,
					0.33144378351404635,
					0.9754863403349988,
					-0.47950691101395737,
					-0.18566569322941295
				]
			},
			{
				"n_inputs": 7,
				"n_outputs": 9,
				"activation": "Hyperbolic",
				"activations": "None",
				"weights": [
					[
						-0.10972029451335001,
						-0.11899245721446504,
						0.08228468674095811,
						0.13622170693815372,
						-0.007862713860320426,
						0.09999292157942657,
						0.03535644423840757,
						-0.06541468581022943,
						0.03625204761472995
					],
					[
						0.15301536966655405,
						-0.004124719601349298,
						0.1555746426205527,
						-0.26249044616045514,
						0.08276038473304276,
						0.009016378431656404,
						-0.029202079118687788,
						0.009955772037224484,
						-0.1988547446000674
					],
					[
						-0.02235105655417487,
						0.035447101168987125,
						0.14735574008801167,
						-0.05207837549614216,
						-0.08057156731259618,
						-0.05002405346098685,
						0.09188010787509869,
						0.03325479695197595,
						-0.053023583317590606
					],
					[
						0.051971889408101025,
						0.010152416351187037,
						0.0975954918876384,
						-0.06978307874905658,
						-0.03323436258692694,
						-0.039463930754588636,
						-0.14691882888575108,
						0.028974956424080458,
						0.0261846129786622
					],
					[
						0.001503716661758481,
						-0.02277566952586338,
						-0.14041592090571287,
						-0.04141489239276847,
						-0.03498946117950397,
						-0.08061939693706852,
						-0.01700684421599197,
						0.039423726042659486,
						0.18874167468861716
					],
					[
						0.01683209483923548,
						0.025324559333673512,
						-0.008152011310962881,
						-0.19228668947739527,
						-0.002197900096562649,
						0.006269803191733314,
						0.2468768182076055,
						-0.01861760590676284,
						0.030077782643324353
					],
					[
						-0.003725766839918767,
						-0.11704315913737996,
						0.11399446388620453,
						0.07502675896700547,
						0.07928746588320629,
						-0.09083860286733879,
						0.14050419695725713,
						-0.1399335736164839,
						0.058654149220942815
					]
				],
				"biases": [
					2.190542423428717,
					-0.9901901943134376,
					-0.565344240946617,
					0.10042892505110286,
					-0.5041840934632303,
					-1.5507537680988441,
					0.06738673626577599,
					-1.0628309495263792,
					0.47369141594201963
				]
			},
			{
				"n_inputs": 9,
				"n_outputs": 11,
				"activation": "Hyperbolic",
				"activations": "None",
				"weights": [
					[
						-0.09082663248189342,
						0.15758934948130665,
						-0.08638210438528875,
						-0.02278505014738804,
						0.08114203006227713,
						-0.12874780857332105,
						0.038365497927018676,
						0.13030858634355,
						-0.16299707498906482,
						0.015120364072289916,
						0.028075565147446153
					],
					[
						0.07726680171358137,
						-0.1258231662966327,
						-0.1254392043581257,
						0.044468964740510826,
						0.02987064525983784,
						0.02969154359320076,
						0.02183761578092379,
						-0.06766978787592252,
						0.025069413580931777,
						0.032048689216329154,
						-0.07314556997107916
					],
					[
						0.1858657095864911,
						0.04573527801174419,
						-0.11400424965320008,
						0.05966121804627905,
						-0.0973336084321711,
						0.0823102903469979,
						0.10592722401284621,
						-0.08181194352192442,
						0.09776779717961712,
						0.043406290215835,
						0.08088487736828803
					],
					[
						0.19008619297196958,
						-0.023590851230424505,
						-0.07831440489362469,
						-0.08551524458172341,
						-0.08165531781638015,
						-0.009777588299190728,
						0.03981634782214339,
						0.027524655203948402,
						0.08190006881746942,
						7.758280623373594e-05,
						0.14611418691404987
					],
					[
						-0.02707479943295534,
						0.27059736548828994,
						0.06697142478603327,
						-0.0908657430893844,
						-0.1069753468611867,
						0.05134250789956764,
						-0.030885467094322567,
						0.07162049766911487,
						0.04855222617830414,
						-0.0054548709213883655,
						-0.08582106674915498
					],
					[
						-0.15253617126295924,
						-0.04709756617460108,
						0.0932320168582562,
						0.0125316256020246,
						-0.12437627238914394,
						0.02265297617707392,
						0.023813270327950945,
						-0.088003614537019,
						0.017491493349104208,
						0.008971163497368767,
						-0.11626369528329354
					],
					[
						0.03562206313156926,
						0.05570791532740799,
						0.10945088602550908,
						0.10404011482912874,
						-0.13773751400266537,
						-0.09297741818988219,
						0.04928103812817955,
						0.05143629272777129,
						0.05182448886417191,
						0.38574752765289705,
						0.05678883930352687
					],
					[
						0.11265856605065612,
						0.09330931495888639,
						0.07162602388095098,
						-0.03911164466175188,
						0.07606500491614947,
						-0.07272394763919911,
						-0.036258874640688915,
						-0.04821025512144904,
						0.00999750295389881,
						0.23415786724236506,
						-0.1884080300851868
					],
					[
						0.06936168431646701,
						-0.15956269959799277,
						-0.052502690221837206,
						0.11510306642715479,
						0.0062898517056943,
						-0.11150539417935473,
						-0.061240310365827014,
						0.06769477479490515,
						-0.07451734968144046,
						0.019441652103115603,
						0.005929082433487668
					]
				],
				"biases": [
					-0.6509088717512922,
					2.1441090765081605,
					0.627264293046859,
					-2.0245102334483014,
					0.18626996143384847,
					-0.6646263109455077,
					0.8618409474519491,
					-0.7928699348313694,
					-0.11668884546302494,
					0.5017319505251506,
					0.8663682774138901
				]
			},
			{
				"n_inputs": 11,
				"n_outputs": 13,
				"activation": "Hyperbolic",
				"activations": "None",
				"weights": [
					[
						-0.16032391848124972,
						-0.07158515109497002,
						-0.023975261683382505,
						-0.03655623015505114,
						0.16309865030162665,
						0.07247260798848429,
						-0.16749238432782515,
						0.07484677923331995,
						0.22019550643622854,
						0.1488494461903459,
						-0.16328237722545422,
						-0.038628310735962394,
						0.11447921189919077
					],
					[
						-0.008913060284213993,
						0.10293588318352742,
						0.04135883184414764,
						-0.13689007034905876,
						0.014706850547515114,
						-0.373215412935098,
						-0.03885249228599691,
						0.0007585332383567752,
						-0.13706970877603367,
						0.09321677062815344,
						-0.12555231803394867,
						-0.05905780886140988,
						0.03186892418864753
					],
					[
						0.1728694866787461,
						-0.11652501433651272,
						0.09965848006194827,
						-0.019420940365844422,
						-0.08864369540925895,
						0.02346718651128181,
						0.049223206557136995,
						-0.048014052461726624,
						0.0014628801774518943,
						-0.07092200315476377,
						0.019237517791987156,
						0.05936903685629331,
						0.16712588057413608
					],
					[
						-0.18553965930107916,
						0.15485622447169262,
						-0.15917316630182202,
						0.028940492217002893,
						0.038214283071620975,
						0.07710477799310747,
						-0.12573298849473571,
						-0.0467788141499163,
						-0.037048135089552674,
						0.010963340100250135,
						0.06754923527772393,
						0.050715170717598054,
						-0.08803496769550793
					],
					[
						0.11443117026454572,
						0.05389979124901806,
						0.06698895191113717,
						0.045486142744238914,
						-0.07473150587862128,
						-0.07544401793887523,
						0.0998904560225406,
						0.07132954155710557,
						-0.006941253719616305,
						-0.01596971672274492,
						0.1346633512837022,
						-0.06511443540149368,
						0.062126941668995427
					],
					[
						-0.06597368763096967,
						-0.06512880005761365,
						0.13662284933115887,
						0.11526589252683009,
						0.0660379701495158,
						0.16688074468394412,
						-0.04500907855405111,
						0.048924177796795795,
						-0.021869875698213383,
						0.08426105202102599,
						-0.02600757393888829,
						0.02088395203106918,
						0.04554099450870769
					],
					[
						-0.04089390625690894,
						0.2482005047388385,
						-0.12466928023127118,
						-0.15079006323509572,
						0.12961284378765037,
						0.046588890229112515,
						0.10481978052518744,
						0.0801627406795986,
						-0.009629043422175217,
						-0.13627432616240243,
						0.01945198132022102,
						-0.07789723913464204,
						0.11023636816833791
					],
					[
						-0.04100557529312487,
						-0.10746374864849381,
						-0.0167824408183263,
						0.06010227234328961,
						-0.06517566769960478,
						-0.061343679368940404,
						-0.0026993380278565898,
						0.013426726036956712,
						-0.04542900796932309,
						-0.01730585926850447,
						0.015743676602574405,
						-0.13838881717699608,
						-0.148776220250822
					],
					[
						-0.09746507393380682,
						-0.045633304850778766,
						0.04606589772049566,
						0.16587260715722707,
						0.07717687521429828,
						0.004354001551894898,
						-0.02829906342330363,
						-0.1110491766089383,
						0.0033058940162199756,
						0.00017851232996924198,
						0.024968998784818095,
						-0.07644973526080977,
						0.0440784608364272
					],
					[
						0.16869964179325828,
						0.003666469689955716,
						0.031218225391620655,
						0.05803402747373715,
						-0.03500869480767764,
						0.010200807731723898,
						0.01701707328491083,
						0.016217678163042176,
						-0.08028011730255306,
						-0.01495106269230246,
						0.054052208203294705,
						0.14142141888158258,
						0.10052280702116291
					],
					[
						0.26924627726870354,
						-0.02565401995051541,
						0.05572490436729081,
						-0.020207485569928487,
						0.23700373615212741,
						-0.12363999206214815,
						-0.028492625534436173,
						-0.03724555737199527,
						-0.22312727408181296,
						-0.11365245826957147,
						-0.06066230715479314,
						0.0018863698455266452,
						0.05058184157895861
					]
				],
				"biases": [
					1.8780105035937416,
					0.9747052441801823,
					-0.6096437960434428,
					-0.9123678280352406,
					0.5089884904557073,
					-1.324847576275246,
					1.835972151888392,
					1.18829579184978,
					-0.47571587896842427,
					-1.72019230222723,
					1.358797916598704,
					-0.12989144734314345,
					1.2414297314390084
				]
			},
			{
				"n_inputs": 13,
				"n_outputs": 15,
				"activation": "Hyperbolic",
				"activations": "None",
				"weights": [
					[
						-12.049035420547948,
						11.496037384755697,
						-11.667827666044913,
						-11.39280878778375,
						11.36254382340581,
						12.008233426833986,
						-11.735240800073433,
						11.763164466624218,
						11.615595690921849,
						11.688871647907467,
						11.965802404873855,
						-11.680297955451966,
						-11.720752223203887,
						-11.629254766985273,
						12.008648631582425
					],
					[
						-10.055024455905784,
						9.867555986281594,
						-9.775653182500552,
						-9.45916455222854,
						9.591511218175102,
						10.241079417419389,
						-9.588443142211768,
						9.857901046900151,
						9.837506500382858,
						9.835527988184026,
						10.123491491677813,
						-9.81262867845881,
						-9.642390456540596,
						-9.758415469114398,
						9.879323593501054
					],
					[
						5.124178229563824,
						-5.320671864224684,
						5.105878648854638,
						5.114757645606647,
						-4.895448203825393,
						-5.272707911334454,
						5.295000728644812,
						-5.3259558668274005,
						-5.286583050851776,
						-5.140907626092483,
						-5.209465487532302,
						5.107244864217826,
						4.895900569090548,
						5.167514264557659,
						-5.415366176900603
					],
					[
						10.474437338616072,
						-10.085300713666333,
						10.116069323895152,
						9.930616358348555,
						-10.09635597582766,
						-10.467148749342387,
						10.276087372306469,
						-10.406059900384282,
						-10.107002030485198,
						-10.241170698487556,
						-10.492561152851277,
						10.118424797853756,
						10.022654318847065,
						10.23363050085636,
						-10.604122635441286
					],
					[
						-5.7412289601793125,
						5.786891474183018,
						-5.890402141259203,
						-5.680173227440911,
						5.694354710261122,
						5.951044033694223,
						-5.748538734471958,
						5.9544449476145,
						5.741741870522545,
						5.756593252394512,
						5.914576698083887,
						-6.0126847825735705,
						-5.9299749676160545,
						-5.7304986707322785,
						6.147858567768436
					],
					[
						11.55369453861819,
						-11.19744080455204,
						11.393508185902824,
						11.408400422781575,
						-10.998251503050914,
						-11.647113436998326,
						11.229109013983544,
						-11.629633123825698,
						-11.279769270816317,
						-11.40897219737068,
						-11.726022267354056,
						11.201285981990768,
						11.156785776327979,
						11.617723957377175,
						-11.574366257460927
					],
					[
						-11.712878802461782,
						11.5331081087708,
						-11.48549429857112,
						-11.314776975089655,
						11.390706821791218,
						11.822454457863657,
						-11.558945147153569,
						11.582148111671907,
						11.342749135989001,
						11.325710254437062,
						11.80988734713388,
						-11.204922071605223,
						-11.534705099023865,
						-11.524615484166667,
						11.73191575094386
					],
					[
						-10.14436599906044,
						9.757674690194623,
						-9.991785882046234,
						-9.676660254723839,
						9.606577515383421,
						10.173267699116161,
						-9.88001646741018,
						9.975406023549073,
						9.762124849606444,
						9.824826664889764,
						10.176284176760564,
						-9.774463118410855,
						-9.920398251138689,
						-9.971635792075823,
						10.244759121043646
					],
					[
						8.397397474365338,
						-8.276977009239395,
						8.33542399575029,
						8.27233380228592,
						-8.297853305218176,
						-8.789414190399647,
						8.214737131590503,
						-8.477359821742704,
						-8.332018605302839,
						-8.474438010125995,
						-8.504688390673891,
						8.169045556825731,
						8.326987860019937,
						8.345707442106379,
						-8.692734925294776
					],
					[
						11.599392016865002,
						-11.357896519964559,
						11.338952945149721,
						11.217439016966626,
						-11.184143039079407,
						-11.567611816975463,
						11.227674481462653,
						-11.431588786708602,
						-11.171646568546302,
						-11.596426247496016,
						-11.67974359424743,
						11.33984553663112,
						11.260376143295213,
						11.50152261281101,
						-11.739383188522298
					],
					[
						-10.374946666849603,
						10.080951893042261,
						-10.071637926598623,
						-9.9316671800462,
						9.999041006547909,
						10.3940097861268,
						-10.205056213570243,
						10.24158580548741,
						10.173041312970144,
						10.122013144108344,
						10.417315915095418,
						-9.896623885421347,
						-10.01583023023395,
						-10.299223741256998,
						10.579480064129704
					],
					[
						1.7941337473196801,
						-2.0032927649652335,
						1.6913637688888643,
						1.5845513629840784,
						-1.8063048376120112,
						-1.8508931994416906,
						1.9650743348866404,
						-1.7817043528223693,
						-1.811610832027727,
						-1.7154742002751842,
						-2.0578657095505313,
						1.8150646491733375,
						1.8643615491331915,
						1.6613184935605234,
						-1.7365511548225325
					],
					[
						-10.90603692191717,
						10.59389288172946,
						-10.671817643789518,
						-10.261932994827154,
						10.516099658565883,
						11.017987665311738,
						-10.745994018323369,
						10.751171538734626,
						10.759601691003,
						10.622686883309665,
						10.951895632846588,
						-10.692522690012458,
						-10.595942180650482,
						-10.783777839131787,
						11.123098592385466
					]
				],
				"biases": [
					-0.5733747897166158,
					-0.14110127949114346,
					-1.0239804565220645,
					-0.5032535903609555,
					0.4455572240056176,
					0.784203282238325,
					-0.9586404115913594,
					0.9034611116555267,
					1.377219588284213,
					0.4710313988755312,
					1.8786989074618758,
					-0.8352412227573034,
					-1.2648523853690425,
					-1.790709745535076,
					1.5028558649404309
				]
			},
			{
				"n_inputs": 15,
				"n_outputs": 17,
				"activation": "Hyperbolic",
				"activations": "None",
				"weights": [
					[
						0.11038133198608352,
						0.025056991590218448,
						0.17881116226825985,
						-0.07944529997158892,
						0.4031764583392056,
						0.1205655322828658,
						-0.012856065617103991,
						-0.1110663719867307,
						0.012217884647366863,
						0.03519178204265997,
						-0.06462109056881189,
						-0.10121522972683303,
						0.21635866968238826,
						-0.08039023103350507,
						0.336892093041364,
						0.11614588466776792,
						-0.05614218636992052
					],
					[
						-0.0615211438611786,
						0.026914872960645802,
						-0.02910524782429324,
						-0.16574528300088606,
						0.056452485751642724,
						-0.12716334799064719,
						-0.030704186216495705,
						0.014867723776986476,
						-0.24159122552706228,
						0.08144853768555237,
						0.12900073220928918,
						-0.018852346112821494,
						-0.13076070493414077,
						0.19029390128762544,
						0.05646858291100601,
						-0.0255355234258072,
						-0.21272329935916573
					],
					[
						0.0388008339050033,
						-0.005172188686104884,
						-0.13661435350479506,
						0.01687506833502691,
						0.1194935804618173,
						0.18755669030809277,
						0.1655398443509485,
						-0.07283810562068124,
						-0.09087315397498605,
						-0.11317995922006563,
						0.28645546386715437,
						-0.1411819870359728,
						0.06015644965394277,
						-0.20273979850597867,
						0.20508989032096572,
						0.16451871829205433,
						-0.004125930964730322
					],
					[
						0.0031004171267146646,
						0.008102879431699456,
						0.083385831503489,
						-0.055427506537275024,
						0.13996543337127218,
						0.0867550805944543,
						0.13273984300501732,
						-0.42525870646835245,
						0.096827395206659,
						0.12707283150667856,
						-0.22726984490016172,
						-0.1667567984925496,
						-0.0023312886858613386,
						-0.3505085806302554,
						0.07967391430375911,
						0.013691584318199288,
						0.23068933525257185
					],
					[
						0.0456294401872302,
						0.11416643042492731,
						-0.0761578843065267,
						-0.13138874619135835,
						-0.18781396449262872,
						-0.05796232773289394,
						-0.10626841025327768,
						0.2178750918042859,
						-0.04656892645922518,
						-0.049291023351124674,
						0.11684621903058875,
						0.16899655786114698,
						-0.04352804421386761,
						0.3335568524463573,
						-0.24817110764909248,
						-0.039610874678037214,
						0.006303230496070864
					],
					[
						-0.11037617051178944,
						0.027636843963982454,
						-0.24278384395925193,
						0.08725340377643728,
						-0.1358641317297192,
						-0.1766082162951313,
						0.11847040799993114,
						0.09714991621521885,
						-0.0873790527337086,
						-0.14074700494183437,
						0.05179955780185437,
						0.00565088159905416,
						0.10276810828685538,
						-0.016880098264417956,
						-0.0014454023773176853,
						-0.1335252318988387,
						-0.0764002933075847
					],
					[
						0.012497604326552003,
						0.05468839182277244,
						0.1262407517009287,
						0.12573352379731467,
						0.14393842478934435,
						0.1338554828526693,
						-0.05251112085982453,
						-0.17785216009006521,
						-0.014353459813123613,
						-0.17561627375235248,
						-0.1251478114101618,
						-0.06388557207962825,
						0.07201358656267279,
						-0.2176967672835357,
						0.173879654077533,
						0.19271329925938113,
						0.004402748749002923
					],
					[
						-0.15090459121921038,
						0.0040691935041575426,
						-0.22202112524977377,
						0.025995688797139767,
						-0.30140698543766586,
						-0.020910134565449916,
						0.06167358933440372,
						0.2048152410610917,
						0.16278694513399675,
						0.17658266085800026,
						0.07624065367393384,
						-0.04271629855621725,
						-0.1972764748479448,
						0.1300465444562757,
						-0.17816355759674854,
						-0.12184934023730642,
						-0.13297847812603358
					],
					[
						-0.0639137619803877,
						-0.08128206238178554,
						-0.17617906416532828,
						-0.1454651317571885,
						-0.20994722530287546,
						-0.26314481994295735,
						-0.08633794271626181,
						0.27462201962823996,
						-0.03302524079292608,
						0.2809227378560596,
						0.03441293368608299,
						0.1526227736158297,
						-0.16376243810762292,
						0.2568187279409165,
						-0.23184743330326005,
						-0.14865944977416481,
						0.18751854818922575
					],
					[
						-0.06356399484432215,
						0.09328650238212262,
						-0.21278448739726913,
						-0.02719871933486026,
						0.030788137253783383,
						-0.17613071474088354,
						0.19946188174420723,
						0.24256177284896643,
						-0.029486176682336787,
						0.057745819450778155,
						0.09652734022470613,
						0.2019578343219534,
						-0.1902272866664821,
						0.1351783437610016,
						-0.19274818220337844,
						-0.15845376881013704,
						0.010813166916332658
					],
					[
						-0.08498908985203615,
						-0.12631485359376715,
						-0.057938163278808984,
						0.07104358195480459,
						-0.0401820473764744,
						-0.031097005776685466,
						0.08723124967491772,
						0.2075112965352827,
						0.06788969381226208,
						-0.13216418907314711,
						0.027586017668571102,
						0.1466960743156604,
						-0.07755249454901439,
						0.043601864158649445,
						-0.2798384455931546,
						-0.053251303038661844,
						-0.08624586717490013
					],
					[
						0.1131848477226498,
						0.024612189123997808,
						0.15424285607476768,
						0.11949039256964397,
						0.09483245999569159,
						0.11425698045869918,
						-0.06714252704865202,
						-0.2062174933984782,
						-0.030830410873692538,
						0.03660520998984155,
						-0.06783161281638546,
						-0.010252036743154929,
						-0.07671461632308808,
						-0.23770479747703016,
						0.11146007269880434,
						0.2735476299798243,
						0.06685723803366878
					],
					[
						0.19317205756305067,
						-0.1477382986407491,
						0.13446079814081052,
						0.08837888675837757,
						0.11843520755163672,
						0.23883007114669672,
						-0.06067431119480566,
						-0.026642305755343387,
						0.16264047464560769,
						-0.06031721090440108,
						-0.02847420954694396,
						0.013499316230746936,
						0.24657562718968207,
						-0.23325462637859384,
						0.13228728650621077,
						0.13291796645937695,
						-0.06105058686092402
					],
					[
						0.002243526784194157,
						-0.10089768686424737,
						0.027336269912222107,
						-0.006109547289691621,
						0.13007333411923122,
						0.28979085144368955,
						-0.10697442384943967,
						-0.06886429852742627,
						-0.09445864742260413,
						-0.03202957296499878,
						0.08657216262761677,
						-0.24311068056628843,
						0.13310915043521232,
						-0.16078039246590678,
						0.2243542016472961,
						0.1927150447345773,
						0.32133870165305567
					],
					[
						-0.16196012456431588,
						-0.04866736408459408,
						-0.162583767116169,
						-0.04880326543537509,
						-0.16466944824897878,
						-0.01767444168082725,
						0.14757767475034708,
						0.10608723867774816,
						-0.011848581173203896,
						0.07737902586815772,
						-0.07016535857052117,
						0.19093553001137176,
						-0.07827109948754055,
						0.023278464156980736,
						-0.017276828848104622,
						0.02074528078148552,
						-0.14049094040091287
					]
				],
				"biases": [
					-0.6248036861354005,
					0.1084204867471258,
					0.7110337015216913,
					0.20021051921551983,
					1.5881663210877766,
					-0.4921730955227389,
					-0.7317717532692941,
					-1.1735502562602989,
					-0.8187175146910135,
					-0.015184653715712548,
					1.8088259751827689,
					-0.5914649187652946,
					0.3200699682291877,
					-1.8668981431467955,
					1.015461282966366,
					2.766842118914682,
					-0.780338997875809
				]
			},
			{
				"n_inputs": 17,
				"n_outputs": 2,
				"activation": "Hyperbolic",
				"activations": "None",
				"weights": [
					[
						0.9631488513602626,
						0.30683464682931355
					],
					[
						3.672074399233143,
						0.9054477826277127
					],
					[
						1.260162508761956,
						0.20442472896717243
					],
					[
						-0.40625331681747534,
						0.01780659808095403
					],
					[
						-1.4828071963974185,
						-0.2622436797927019
					],
					[
						-0.10871752585762894,
						0.07385256008125558
					],
					[
						-1.934974123840214,
						-0.34976701582982866
					],
					[
						0.9860916679325574,
						0.21523206383619506
					],
					[
						1.4118250500056562,
						0.17654126357222968
					],
					[
						-0.883334698103699,
						-0.2233742870309339
					],
					[
						-0.5359490318465842,
						0.02008048343271645
					],
					[
						-5.040077824513001,
						-1.0071938914473884
					],
					[
						4.460410659930468,
						0.9939046114084296
					],
					[
						-2.4450085562797432,
						-0.28558592254823656
					],
					[
						-2.195180146420901,
						-0.41096543181872497
					],
					[
						-5.421856235032507,
						-0.9316135927043684
					],
					[
						-0.2183741133253563,
						-0.013866759440302672
					]
				],
				"biases": [
					15.018617890110272,
					-4.502669627910909
				]
			}
		]
	}
}